{
  "NeuralNetwork": [
    {
      "NeuronLayer": [
        {
          "Weights": [
            -0.8178805010627636,
            -1.5193360321384373,
            0.7183200870536816
          ],
          "Bias": 0.4491419892217646
        },
        {
          "Weights": [
            0.4134700364475162,
            0.2649353828177431,
            0.11302280422288201
          ],
          "Bias": 0.5442345033257152
        },
        {
          "Weights": [
            -1.1402759266268756,
            0.8199756391553469,
            -0.6811710742347827
          ],
          "Bias": 0.009775817724076109
        },
        {
          "Weights": [
            -1.2294401660052328,
            0.4687585796399465,
            -0.787252809900227
          ],
          "Bias": 0.42076222849679723
        },
        {
          "Weights": [
            0.760182513456141,
            -1.458213541390332,
            1.0230004437925266
          ],
          "Bias": 0.6633644322303432
        },
        {
          "Weights": [
            -0.3264904325342217,
            0.4318402125461397,
            -0.9912022076729745
          ],
          "Bias": -0.23871759200412004
        },
        {
          "Weights": [
            1.1605877356764205,
            0.35455068148426294,
            0.06262216938445613
          ],
          "Bias": -0.25888359418414386
        },
        {
          "Weights": [
            1.7204176195271288,
            -0.6924509552461977,
            0.894667150819724
          ],
          "Bias": -0.5938283594810055
        },
        {
          "Weights": [
            0.12141572603887237,
            0.07969756014249095,
            1.8636177102509044
          ],
          "Bias": -0.18900905630342396
        },
        {
          "Weights": [
            1.8276573146751254,
            -1.4166903104036381,
            -1.674067771875399
          ],
          "Bias": 0.5161966674621231
        },
        {
          "Weights": [
            0.7690779114209235,
            1.132158033851911,
            0.13239485019653752
          ],
          "Bias": -0.650744062483995
        },
        {
          "Weights": [
            -0.8641549523159258,
            -0.42013019129312457,
            1.3061818610199059
          ],
          "Bias": -0.009457481893795189
        },
        {
          "Weights": [
            -1.804269572094874,
            1.2011999273573997,
            -0.045385350553862704
          ],
          "Bias": 0.13579172068887646
        },
        {
          "Weights": [
            -0.20430988300846817,
            0.6456554496694332,
            -0.16089633121142144
          ],
          "Bias": -0.3463618837880199
        },
        {
          "Weights": [
            -0.4396437639267754,
            -1.3208600608375984,
            -0.060261278656180375
          ],
          "Bias": 0.2791161927476423
        },
        {
          "Weights": [
            1.227531141204902,
            0.4075738065228119,
            0.040945409272533984
          ],
          "Bias": -0.5519186858089612
        },
        {
          "Weights": [
            0.10514673458348715,
            1.5112895219034383,
            -0.11218973988501686
          ],
          "Bias": -0.7019593113928655
        },
        {
          "Weights": [
            -0.3531376391753216,
            -1.2281256552057218,
            -1.5569612153028143
          ],
          "Bias": -0.04052038549715402
        },
        {
          "Weights": [
            0.9911367188015889,
            0.551009545699626,
            -2.625617135223816
          ],
          "Bias": 0.8941053162758243
        },
        {
          "Weights": [
            -1.6501878396124978,
            -1.135020045846466,
            1.054690173282424
          ],
          "Bias": 0.18298682636627506
        }
      ],
      "Length": 20
    },
    {
      "NeuronLayer": [
        {
          "Weights": [
            -1.2876483207593354,
            0.3923131875822132,
            -1.1544942526426194,
            -1.4836401459725101,
            0.4184117339268038,
            -0.20488403884612094,
            1.2200252586073932,
            1.8411223117403333,
            -0.029222965978152673,
            1.648122576001183,
            1.309602026130343,
            -0.9206838810181124,
            -2.0561230152455687,
            -0.41868733523994883,
            -0.8613006671496373,
            1.347363704156382,
            0.24534579827184042,
            -0.5576149321734577,
            0.1569030439062854,
            -1.7863547296340125
          ],
          "Bias": -0.6612138634517453
        },
        {
          "Weights": [
            -2.0902466607153776,
            0.1604309521116742,
            0.8011670766379937,
            0.3670347758395064,
            -1.5909774184070709,
            0.33866710251183235,
            0.5710984221703105,
            -0.3767760536165427,
            0.3487850455366124,
            -2.03840076225277,
            1.8150721229048823,
            -0.12386342627243606,
            1.0896982353217763,
            0.7176518514281942,
            -1.8074395928458793,
            0.7331977449545777,
            1.8218066899247596,
            -1.4769337998844885,
            -0.18560124412921739,
            -1.4475194713534918
          ],
          "Bias": 0.2363663629549564
        },
        {
          "Weights": [
            0.2980711692013819,
            -0.09956739047867395,
            -0.8605021218567261,
            -1.0483869083963875,
            1.0581542527807324,
            -1.1108860553777156,
            0.28085600483963497,
            1.3659680743621458,
            2.0603271475398346,
            -1.8199584273045801,
            0.6943842785996474,
            1.3515928061587552,
            -0.3944468206622091,
            -0.14582332204223747,
            -0.4671934460579209,
            0.3272349093729645,
            0.035190993414042845,
            -1.8762482607929907,
            -3.317996582192465,
            0.7512088154568362
          ],
          "Bias": -0.025157976918056768
        }
      ],
      "Length": 3
    }
  ],
  "Depth": 2
}