{
  "NeuralNetwork": [
    {
      "NeuronLayer": [
        {
          "Weights": [
            0.7491934289170553,
            -0.03604701967512121,
            -2.7268287528557336
          ],
          "Bias": -0.21750944491098545
        },
        {
          "Weights": [
            -1.8672220004524849,
            1.0235407656400763,
            -2.4477518606016164
          ],
          "Bias": 0.1998139781082391
        },
        {
          "Weights": [
            -2.7290021461432614,
            1.2666783168902158,
            3.326600420709638
          ],
          "Bias": -0.3955587439913563
        },
        {
          "Weights": [
            0.33346045531522117,
            -2.860079241297022,
            2.1781385193333747
          ],
          "Bias": -0.15620426594988365
        },
        {
          "Weights": [
            5.119786487624465E-05,
            0.4695504391730263,
            0.9559094477357142
          ],
          "Bias": -0.443052376855587
        },
        {
          "Weights": [
            1.7616200637626163,
            2.409518739741919,
            -0.9942694546166506
          ],
          "Bias": -0.538150235040404
        },
        {
          "Weights": [
            -0.6246363712958257,
            -2.3827610556875594,
            0.004023966216498771
          ],
          "Bias": 2.1087599229777845
        },
        {
          "Weights": [
            -0.4822595339621384,
            -2.659537503096261,
            -2.0884780448909317
          ],
          "Bias": 1.6933635842212298
        },
        {
          "Weights": [
            3.4906897811838866,
            3.3659026934943657,
            -4.554686312876619
          ],
          "Bias": -0.4931785100248525
        },
        {
          "Weights": [
            -2.277592434411164,
            -4.582182848227002,
            3.6617279849844038
          ],
          "Bias": 0.5189747490200632
        },
        {
          "Weights": [
            0.5988622942585378,
            1.7218982199523216,
            1.5096651788755955
          ],
          "Bias": -1.6197647798118997
        },
        {
          "Weights": [
            0.2776390804695805,
            0.009470236340413066,
            0.5177832170621828
          ],
          "Bias": -0.11619973199174195
        },
        {
          "Weights": [
            -3.775370005373334,
            2.392665802646263,
            3.6186979783638553
          ],
          "Bias": -0.41754712240810216
        },
        {
          "Weights": [
            3.1262698877868464,
            -3.465557218825645,
            -5.665126064885854
          ],
          "Bias": 0.3821961398602343
        },
        {
          "Weights": [
            -0.3937353963228004,
            2.1752688267666374,
            -2.452061835349608
          ],
          "Bias": 0.13249647111361573
        },
        {
          "Weights": [
            2.601835683390883,
            -6.0396536761560355,
            -5.445544018804125
          ],
          "Bias": 0.36334577484792685
        },
        {
          "Weights": [
            -1.0331080708562774,
            -3.979668777666497,
            -2.3193448608249065
          ],
          "Bias": 1.7245975572459589
        },
        {
          "Weights": [
            -4.278626165507179,
            -5.23434116975412,
            4.678027204874193
          ],
          "Bias": 0.4902248463499348
        },
        {
          "Weights": [
            0.0020738135380612755,
            0.8276818446478741,
            0.40129074412515486
          ],
          "Bias": -0.577494260110145
        },
        {
          "Weights": [
            -1.334363851508647,
            2.3439436271977927,
            -1.9311624403284595
          ],
          "Bias": 0.14856846139961424
        }
      ],
      "Length": 20
    },
    {
      "NeuronLayer": [
        {
          "Weights": [
            0.031876497153760036,
            -2.208651649288027,
            -1.8360389662624799,
            1.8841157277049965,
            0.6344183378982556,
            1.5230946031214374,
            -0.4684775330495963,
            -1.5628482654787823,
            2.0432260702610323,
            -1.368586426210547,
            1.8333229950981853,
            0.7951945205340153,
            -2.6683935088607855,
            2.2627963625577463,
            -1.6813077944628385,
            2.331641522844518,
            -1.923898518662924,
            -1.950680691042822,
            1.055592756801596,
            -2.1057870363376496
          ],
          "Bias": -0.28737867729493266
        },
        {
          "Weights": [
            -8.245789357764839E-05,
            0.9750408343057138,
            1.3646539298603926,
            -2.1860688094374523,
            0.5206382924579464,
            2.0406005957377444,
            -2.454532133334594,
            -3.07340072846419,
            2.6228735664220437,
            -3.569276852361114,
            2.1484632202824887,
            0.3722145681952398,
            1.5876783032189512,
            -2.7469545205663017,
            1.5178509721066848,
            -3.565637798150259,
            -3.9473081150338913,
            -3.7970644294297324,
            0.8992356921579385,
            1.4877102578392143
          ],
          "Bias": -1.3522724449598087
        },
        {
          "Weights": [
            -1.1202632261380736,
            -1.8175219141483774,
            3.1201965800097864,
            1.8861229035450056,
            0.9869320266737024,
            -1.6859740478283414,
            -3.2879211542562637E-06,
            -2.0594528178115965,
            -3.1827998332163485,
            2.940914523141878,
            2.0089627465917332,
            0.808065730369304,
            3.1558520745658734,
            -3.865956085113349,
            -1.8665981956575128,
            -3.755214000471163,
            -2.2927966935715625,
            3.530830344944865,
            0.9751814336631924,
            -1.7657830790474263
          ],
          "Bias": -0.4184640158281414
        }
      ],
      "Length": 3
    }
  ],
  "Depth": 2
}