{
  "Layers": [
    {
      "Neurons": [
        {
          "Weights": [
            -0.1752476417289427,
            0.04006875216822936,
            0.304292015520482
          ],
          "Bias": -0.47940682198237794
        },
        {
          "Weights": [
            0.03034240418472467,
            -0.237163831166186,
            -0.24684021315292937
          ],
          "Bias": 0.0782580094522406
        },
        {
          "Weights": [
            -0.39230918955038885,
            -0.3232845609070528,
            0.20970681224487164
          ],
          "Bias": 0.0066329371554295635
        },
        {
          "Weights": [
            -0.24154458500713627,
            -0.2757705524431133,
            0.21830758411910645
          ],
          "Bias": 0.028500607206841222
        },
        {
          "Weights": [
            -0.08931503568424393,
            0.4977290310366056,
            0.36915631646360014
          ],
          "Bias": 0.2737544377261836
        },
        {
          "Weights": [
            -0.13533176423737026,
            0.42516783711597794,
            -0.41603273295188126
          ],
          "Bias": -0.1443480098946216
        },
        {
          "Weights": [
            -0.48584545199928664,
            0.2055308749387046,
            -0.4696819580447169
          ],
          "Bias": 0.49350462911865123
        },
        {
          "Weights": [
            0.19253008965275487,
            0.28181088462861725,
            -0.26690495652595625
          ],
          "Bias": 0.4483718959798355
        },
        {
          "Weights": [
            -0.35282435145444413,
            0.46894936951819033,
            0.10705832297330276
          ],
          "Bias": 0.4054297877605382
        },
        {
          "Weights": [
            0.429168749868425,
            0.08018479294694691,
            0.06752173898960412
          ],
          "Bias": -0.2671867150069248
        },
        {
          "Weights": [
            -0.29306403867443853,
            0.19681660894935382,
            0.24790575678961846
          ],
          "Bias": -0.3821562959149134
        },
        {
          "Weights": [
            -0.4000709227953916,
            0.37912055160856917,
            0.37273531819637795
          ],
          "Bias": -0.26250962264236344
        },
        {
          "Weights": [
            -0.23408690991018333,
            0.22414335201662117,
            -0.1588615690978995
          ],
          "Bias": -0.1596070419651583
        },
        {
          "Weights": [
            0.38789749290890474,
            -0.034582383540422645,
            -0.20585690749789487
          ],
          "Bias": 0.48088190868411074
        },
        {
          "Weights": [
            0.2942088979001425,
            0.023658401450575184,
            0.3367200520177711
          ],
          "Bias": 0.18270652405504972
        },
        {
          "Weights": [
            -0.47799412536336383,
            0.1778986842264898,
            0.22083547255825853
          ],
          "Bias": -0.24527171865599018
        },
        {
          "Weights": [
            -0.4004480385983218,
            -0.21869465713850111,
            0.4471061436059155
          ],
          "Bias": -0.4209735706285619
        },
        {
          "Weights": [
            -0.25519444012577874,
            0.3040519908965389,
            -0.4805330451908557
          ],
          "Bias": 0.19832334601288615
        },
        {
          "Weights": [
            -0.1509314344314776,
            -0.24591299130409006,
            0.1116387468649559
          ],
          "Bias": -0.07346423042109851
        },
        {
          "Weights": [
            -0.08649439183551322,
            0.30517846029751583,
            0.3054310618972922
          ],
          "Bias": -0.489425664513057
        }
      ]
    },
    {
      "Neurons": [
        {
          "Weights": [
            0.25775726974881064,
            -0.06355325566390391,
            0.39587311258262425,
            0.03758054312566106,
            -0.47104049140308246,
            0.49249368849238384,
            -0.3608581272262038,
            -0.4203104633982967,
            -0.26019433660365465,
            0.3100451250933509,
            -0.34113577505339965,
            -0.0009421514537212294,
            -0.281807759999696,
            -0.2750208873158827,
            -0.1572276414208239,
            -0.10423849252393513,
            0.31797553215369045,
            -0.01125114502495883,
            0.12762563840645835,
            0.23056011793582531
          ],
          "Bias": 0.21449902226378348
        },
        {
          "Weights": [
            0.2969439831644872,
            -0.09770628433676731,
            0.4876964415152175,
            -0.4159421597015238,
            0.005171164012086282,
            -0.4291371075903673,
            -0.3928102353132322,
            -0.30893578002606115,
            -0.20937624720687698,
            0.07867107531706174,
            -0.2865094023342485,
            0.42144148602650433,
            -0.3286218805117703,
            0.10451575017261894,
            -0.04564421004289532,
            -0.33847297682719635,
            0.3583267770219074,
            -0.12914222611042336,
            -0.4824600334793382,
            0.22275487635128222
          ],
          "Bias": -0.193107794235431
        },
        {
          "Weights": [
            -0.12171649373623594,
            -0.004343633107979028,
            -0.13220609659263016,
            0.4794047638894158,
            0.22580604289502215,
            0.4333230015872035,
            0.30587087273075186,
            -0.13776190385354992,
            0.16420508199649098,
            -0.16674731070023907,
            0.194381151243182,
            0.3081588330751025,
            -0.40215683657597334,
            -0.027088894730458946,
            0.08285992147414933,
            0.025223092698503202,
            0.0999239163498924,
            -0.3525179270218576,
            -0.37622670194524965,
            0.1510670801998789
          ],
          "Bias": -0.14504064186933807
        }
      ]
    }
  ],
  "NeuronType": "TrainingMl1_58.TrainingNeuron1_58",
  "LayerType": "MlNetworkTraining.TrainingLayer"
}