{
  "Layers": [
    {
      "Neurons": [
        {
          "Weights": [
            0.26967804849289234,
            0.9047757719100767,
            1.483144303639512
          ],
          "Bias": -0.4191620216783593
        },
        {
          "Weights": [
            0.8637720425871475,
            -0.6143397322159052,
            -1.6092669030005782
          ],
          "Bias": 0.4316544654086994
        },
        {
          "Weights": [
            -1.8170073395992699,
            -1.3137294514912161,
            -0.8281835684977016
          ],
          "Bias": 1.2989557470748458
        },
        {
          "Weights": [
            -1.4507858645137377,
            -0.24028303338175003,
            0.5438870335699625
          ],
          "Bias": 0.26080735131131566
        },
        {
          "Weights": [
            -1.5124438778427958,
            -0.9077946907975507,
            -0.2786571463337743
          ],
          "Bias": 0.45405917055940576
        }
      ]
    },
    {
      "Neurons": [
        {
          "Weights": [
            0.8470684789766614,
            0.9022009081109998,
            -2.1620884542005925,
            -1.2928560842241923,
            -1.6487243976554051
          ],
          "Bias": 0.853327252730209
        },
        {
          "Weights": [
            1.5037894841657506,
            -0.45745504380622976,
            -1.6699653978204203,
            -0.362058366323882,
            -1.1514720645650522
          ],
          "Bias": 0.2854355072063634
        },
        {
          "Weights": [
            1.7444663138907017,
            -1.6827291918836946,
            -1.1379952482191429,
            0.5415840587203002,
            -0.43965095010063954
          ],
          "Bias": -0.3390295873256505
        }
      ]
    }
  ],
  "NeuronType": "MlNetworkTraining.TrainingNeuron",
  "LayerType": "MlNetworkTraining.TrainingLayer"
}