{
  "Layers": [
    {
      "Neurons": [
        {
          "Weights": [
            0.16276724768199066,
            -0.1768451331768167,
            0.29261258982983673
          ],
          "Bias": 0.06024101179729045
        },
        {
          "Weights": [
            -0.22841245180864056,
            0.34083117078209724,
            0.3449592059093668
          ],
          "Bias": -0.09645261733635559
        },
        {
          "Weights": [
            0.4788096433871011,
            -0.477128606917555,
            0.1518071008848904
          ],
          "Bias": 0.24109807052640747
        },
        {
          "Weights": [
            0.24547410186711827,
            -0.09278592511988791,
            0.052302107742941334
          ],
          "Bias": -0.12451548060017845
        },
        {
          "Weights": [
            0.15112044397824292,
            -0.4233653288101328,
            0.18411256445655783
          ],
          "Bias": 0.3423411122146693
        },
        {
          "Weights": [
            0.09479035274664313,
            -0.2890069315620564,
            -0.20179811738460937
          ],
          "Bias": 0.32283477185800785
        },
        {
          "Weights": [
            0.203162366691613,
            0.3774113858263203,
            0.29647030045020994
          ],
          "Bias": 0.2869649786003416
        },
        {
          "Weights": [
            0.3314425382783805,
            0.4110197169489325,
            0.224179875411338
          ],
          "Bias": 0.3381064523684283
        },
        {
          "Weights": [
            -0.36293445775834066,
            0.17749695283415842,
            -0.008366127357337041
          ],
          "Bias": -0.2566220591301484
        },
        {
          "Weights": [
            0.3080862053722166,
            0.12357637706256666,
            0.3844465088640356
          ],
          "Bias": -0.3728156051168266
        },
        {
          "Weights": [
            0.0938948822922837,
            -0.33290372701838183,
            -0.05101023344002722
          ],
          "Bias": -0.058813949540132124
        },
        {
          "Weights": [
            -0.33473381548423,
            0.11449781062033018,
            0.4176979721712167
          ],
          "Bias": -0.05520973622884699
        },
        {
          "Weights": [
            0.07374893155681647,
            0.11008896153508706,
            0.2443676149349178
          ],
          "Bias": -0.062260232398815084
        },
        {
          "Weights": [
            -0.11184078214745984,
            0.3244105066509685,
            -0.2253853392554707
          ],
          "Bias": 0.014751946583676755
        },
        {
          "Weights": [
            0.08332258557292373,
            0.3047680850699919,
            0.14630242940931307
          ],
          "Bias": 0.4855619564322995
        },
        {
          "Weights": [
            -0.37800703994094303,
            0.2678947129778164,
            0.17746219479600264
          ],
          "Bias": -0.31246131731155485
        },
        {
          "Weights": [
            -0.02477390215724801,
            -0.3046375719758221,
            0.06712294285269299
          ],
          "Bias": -0.4699232655204802
        },
        {
          "Weights": [
            0.44776848133831976,
            -0.2679582100032159,
            0.2921936402513634
          ],
          "Bias": 0.23433159123247532
        },
        {
          "Weights": [
            -0.024748919803192305,
            0.19363441777351578,
            -0.37591488955497154
          ],
          "Bias": -0.3165580169481936
        },
        {
          "Weights": [
            -0.415408461758269,
            -0.08266130420458442,
            -0.25543215928467927
          ],
          "Bias": -0.018937865637423765
        },
        {
          "Weights": [
            -0.3674507252158235,
            -0.44120362206968555,
            -0.12068117609160335
          ],
          "Bias": -0.4757783993026377
        },
        {
          "Weights": [
            -0.3538840806369384,
            -0.30669847596879374,
            0.47905649492706814
          ],
          "Bias": 0.03832126940868174
        },
        {
          "Weights": [
            -0.26419639878753925,
            0.4461160600728715,
            0.1414192352057108
          ],
          "Bias": -0.03004092362749428
        },
        {
          "Weights": [
            -0.17556261104525347,
            0.4903968807731808,
            -0.42115526304385387
          ],
          "Bias": -0.3089377213005952
        },
        {
          "Weights": [
            0.07220197811231192,
            -0.10575672004336514,
            0.19917008310284715
          ],
          "Bias": -0.09917991220346763
        },
        {
          "Weights": [
            0.32718085035593425,
            -0.10720094230938004,
            -0.2146381024438811
          ],
          "Bias": 0.4013618675837487
        },
        {
          "Weights": [
            0.16584688741760453,
            0.2607615122987546,
            -0.3713737722534701
          ],
          "Bias": -0.2373089241442593
        },
        {
          "Weights": [
            0.25027999401671924,
            -0.05881952339271048,
            -0.4362783524235399
          ],
          "Bias": 0.10623454101124043
        },
        {
          "Weights": [
            -0.004201921297678891,
            -0.09131766510526146,
            0.046848845858702734
          ],
          "Bias": 0.09239631301384278
        },
        {
          "Weights": [
            -0.2985505995942262,
            -0.030000659120509574,
            0.34426521012605293
          ],
          "Bias": -0.46153671711119637
        },
        {
          "Weights": [
            0.03056625680724293,
            -0.41913465040861747,
            -0.0630000948601387
          ],
          "Bias": 0.42370903488906364
        },
        {
          "Weights": [
            -0.46385756489784363,
            0.26933237804997545,
            0.42036214040628483
          ],
          "Bias": 0.08119701291850547
        },
        {
          "Weights": [
            -0.29593749529207897,
            -0.03682962313209829,
            0.09936760976859778
          ],
          "Bias": 0.46037757382350064
        },
        {
          "Weights": [
            -0.05575505045560936,
            -0.09625926220832975,
            0.4064044932737281
          ],
          "Bias": 0.20520627480377746
        },
        {
          "Weights": [
            0.42526181495512705,
            -0.4868425794770123,
            -0.2560667642927728
          ],
          "Bias": -0.29782680487392293
        },
        {
          "Weights": [
            0.3610084448318698,
            -0.343505612310213,
            -0.1321776616926563
          ],
          "Bias": -0.10789075550144972
        },
        {
          "Weights": [
            -0.2081457465182146,
            -0.1782249522523423,
            0.43338066465154473
          ],
          "Bias": 0.1261420913315251
        },
        {
          "Weights": [
            0.23855630013106652,
            0.10650698768392625,
            0.4963440851101351
          ],
          "Bias": -0.1371340790694076
        },
        {
          "Weights": [
            0.42575859926763426,
            -0.22457045156820643,
            0.24799271180006657
          ],
          "Bias": -0.018879844225664272
        },
        {
          "Weights": [
            0.09568431365100184,
            0.170744707587814,
            -0.2829457418522081
          ],
          "Bias": -0.35304499481935764
        },
        {
          "Weights": [
            0.191495696118359,
            -0.09057725092569496,
            0.17818992521057145
          ],
          "Bias": -0.2914909962667125
        },
        {
          "Weights": [
            -0.291415159678265,
            -0.48918395698857187,
            -0.12282414202585741
          ],
          "Bias": 0.4214095842289241
        },
        {
          "Weights": [
            -0.06568632526861244,
            0.08658752543269642,
            0.21388083761786367
          ],
          "Bias": -0.4474521497525486
        },
        {
          "Weights": [
            -0.18555090130523208,
            -0.207336786071234,
            -0.17694732178104453
          ],
          "Bias": -0.17544414932765287
        },
        {
          "Weights": [
            -0.4850081367927875,
            -0.013350963736980583,
            -0.040952294297638296
          ],
          "Bias": -0.12785500229779312
        },
        {
          "Weights": [
            -0.2877476046707216,
            0.45992096783286623,
            -0.09451851639613526
          ],
          "Bias": 0.1872866862973537
        },
        {
          "Weights": [
            -0.31430924447574626,
            -0.3166282818116217,
            -0.18172052986384846
          ],
          "Bias": -0.49382335089432683
        },
        {
          "Weights": [
            0.2587276202068232,
            0.336190788817141,
            0.05357903334216131
          ],
          "Bias": -0.2719788057631839
        },
        {
          "Weights": [
            -0.06724920466045253,
            -0.09621020207315122,
            -0.08961037084957423
          ],
          "Bias": 0.32493050957896136
        },
        {
          "Weights": [
            0.42708630051516283,
            -0.3622268835452407,
            0.2824280415899532
          ],
          "Bias": 0.1106966204526411
        },
        {
          "Weights": [
            0.3524701636445273,
            0.18653008401189672,
            -0.03201996036766522
          ],
          "Bias": -0.39049451228572535
        },
        {
          "Weights": [
            -0.3457478935779905,
            -0.11102059399310897,
            0.07919966941457672
          ],
          "Bias": -0.3941932816231178
        },
        {
          "Weights": [
            0.45241954453350924,
            0.2566835443591657,
            0.33595973846310184
          ],
          "Bias": -0.48951214564679935
        },
        {
          "Weights": [
            0.3648407094051183,
            0.31719746878050475,
            0.339497425583518
          ],
          "Bias": -0.11739596182001731
        },
        {
          "Weights": [
            -0.28615181849301663,
            0.2895439924361863,
            -0.16653074300621307
          ],
          "Bias": -0.47893347559614363
        },
        {
          "Weights": [
            -0.014442733537549473,
            0.29484065993265046,
            0.38453569869755205
          ],
          "Bias": 0.4582776902334897
        },
        {
          "Weights": [
            -0.10185104004154782,
            0.386212819562961,
            0.19870371964532987
          ],
          "Bias": -0.4773608930056713
        },
        {
          "Weights": [
            0.41176655856897276,
            -0.2221116191002985,
            -0.026433518051013082
          ],
          "Bias": 0.3995406146737025
        },
        {
          "Weights": [
            0.22527174968729113,
            -0.2890306941648487,
            0.06502324503298106
          ],
          "Bias": -0.3183142540984189
        },
        {
          "Weights": [
            0.12898418954281154,
            -0.16479007779051438,
            -0.3152795708031047
          ],
          "Bias": -0.21240423601553962
        },
        {
          "Weights": [
            0.17892252781355142,
            0.3243531038497739,
            0.27866801115210577
          ],
          "Bias": -0.06792594183823697
        },
        {
          "Weights": [
            0.273467472858858,
            0.19766628895532737,
            -0.2827620167470967
          ],
          "Bias": 0.18684570575109735
        },
        {
          "Weights": [
            0.480622777811289,
            0.44621973064570564,
            -0.4817818497638305
          ],
          "Bias": -0.17013863200824858
        },
        {
          "Weights": [
            -0.1899557466987323,
            0.04190179579125159,
            -0.4733974411377279
          ],
          "Bias": 0.38546278001678036
        },
        {
          "Weights": [
            -0.16921913955543058,
            -0.46694084889036225,
            0.0928655843934143
          ],
          "Bias": 0.344511032865453
        },
        {
          "Weights": [
            0.17370315416808044,
            -0.1847866484322823,
            0.4454342997333581
          ],
          "Bias": 0.4109253064596462
        },
        {
          "Weights": [
            -0.34049502752971267,
            0.47306922167791376,
            -0.461023748119162
          ],
          "Bias": -0.2866770253476866
        },
        {
          "Weights": [
            0.45791476992791136,
            0.1304279952455127,
            -0.22724849990014084
          ],
          "Bias": 0.488525810773765
        },
        {
          "Weights": [
            -0.2286985532889362,
            0.4100027372386637,
            -0.27299520416682316
          ],
          "Bias": -0.3932447314031361
        },
        {
          "Weights": [
            0.29478476802562387,
            -0.07198093759705047,
            0.3404087293045981
          ],
          "Bias": 0.15461453245031465
        },
        {
          "Weights": [
            0.3302464987245344,
            0.4881955224493817,
            0.036583711478768155
          ],
          "Bias": 0.181664686018274
        },
        {
          "Weights": [
            0.39565176180784556,
            -0.26673232187375856,
            0.3582133634288646
          ],
          "Bias": -0.3368588575973791
        },
        {
          "Weights": [
            0.4356754261813167,
            0.07323392514405627,
            -0.34433621875635356
          ],
          "Bias": 0.24649302225999983
        },
        {
          "Weights": [
            0.3487346106274255,
            -0.15265456129076707,
            -0.08004811543247503
          ],
          "Bias": -0.39921624886637735
        },
        {
          "Weights": [
            -0.31424629778736146,
            0.3436295883601165,
            0.35519735052996765
          ],
          "Bias": 0.4699362538569917
        },
        {
          "Weights": [
            -0.29034032347032496,
            -0.4500785824621079,
            0.29055037441028875
          ],
          "Bias": -0.012869593693403217
        },
        {
          "Weights": [
            0.4308060751802356,
            0.07444528145382884,
            -0.43806441564085097
          ],
          "Bias": -0.46982748460175255
        },
        {
          "Weights": [
            0.41033532947765194,
            0.42356645037496715,
            -0.2073130116159554
          ],
          "Bias": 0.11049021136755659
        },
        {
          "Weights": [
            -0.44027139738297216,
            0.32203743726298606,
            0.2181864688869379
          ],
          "Bias": 0.33210154726590896
        },
        {
          "Weights": [
            0.04938060812948707,
            -0.09855001768087708,
            0.24429952790046805
          ],
          "Bias": 0.23117844918385091
        },
        {
          "Weights": [
            0.2325342748467402,
            0.19643406281387985,
            0.30318568941121726
          ],
          "Bias": 0.16434579501164537
        },
        {
          "Weights": [
            0.1604333229131111,
            -0.06329738560459863,
            0.31109747323031434
          ],
          "Bias": -0.12430609910424692
        },
        {
          "Weights": [
            0.055926789377009296,
            -0.2906479299749719,
            0.42186843679802954
          ],
          "Bias": 0.15288788311944526
        },
        {
          "Weights": [
            -0.02859931328868197,
            -0.06978181284553421,
            0.17227686699006278
          ],
          "Bias": 0.39467170946025704
        },
        {
          "Weights": [
            0.40137310676069954,
            0.2974909521737276,
            -0.07451352034325473
          ],
          "Bias": -0.48952659225700196
        },
        {
          "Weights": [
            0.11909175831686823,
            -0.48251094961090774,
            0.2787007674675302
          ],
          "Bias": -0.46699743111421266
        },
        {
          "Weights": [
            -0.3557072627275103,
            -0.34539823735264574,
            -0.14342216458655616
          ],
          "Bias": 0.17121391265709404
        },
        {
          "Weights": [
            -0.4314199763364604,
            0.17042857852055518,
            -0.3113755069070738
          ],
          "Bias": -0.40214835643542857
        },
        {
          "Weights": [
            0.012447504257225803,
            -0.339794191912271,
            -0.21939988685215017
          ],
          "Bias": 0.04509734601060405
        },
        {
          "Weights": [
            0.08768641698528397,
            0.36826362831572346,
            -0.3052426037307977
          ],
          "Bias": 0.010839571328752323
        },
        {
          "Weights": [
            -0.49992969637366014,
            -0.3574209727061021,
            -0.4706909219209849
          ],
          "Bias": 0.22339740175099365
        },
        {
          "Weights": [
            -0.4199391387539499,
            0.14454823263751196,
            0.08216875491430295
          ],
          "Bias": 0.037814545984865666
        },
        {
          "Weights": [
            -0.1698055565562724,
            0.0877394386189545,
            -0.19377193147187174
          ],
          "Bias": 0.1625164924467946
        },
        {
          "Weights": [
            0.27484543447181214,
            -0.3295235164795976,
            -0.042327345235989924
          ],
          "Bias": 0.26240330706920884
        },
        {
          "Weights": [
            0.03477205615020555,
            -0.13086558179292182,
            -0.16207055538716306
          ],
          "Bias": 0.32877657357761775
        },
        {
          "Weights": [
            -0.29973182850250923,
            -0.23603906074965691,
            -0.11218220160824671
          ],
          "Bias": 0.15310755105095367
        },
        {
          "Weights": [
            0.47065246749413353,
            0.27083812607497293,
            0.3921459210228909
          ],
          "Bias": 0.2222863932982279
        },
        {
          "Weights": [
            -0.17250051104612085,
            -0.38943668959606026,
            0.20648997485703796
          ],
          "Bias": 0.004879249691052158
        },
        {
          "Weights": [
            0.44651831191560376,
            -0.3070304690837089,
            -0.026754489364847863
          ],
          "Bias": 0.172693159004945
        },
        {
          "Weights": [
            -0.4617978796771631,
            0.13110491718155498,
            0.4271375417100981
          ],
          "Bias": -0.02433658201426354
        }
      ]
    },
    {
      "Neurons": [
        {
          "Weights": [
            -0.37391275106241834,
            0.04346333619781266,
            -0.014885184622524191,
            0.03850860059395297,
            0.4137903285818732,
            -0.09733044651345332,
            0.039312711900461095,
            -0.4161180142318008,
            0.3724982350409336,
            -0.31357613170711945,
            -0.20251957342375357,
            0.36885858186830495,
            -0.06697347035941441,
            -0.2343034395892985,
            0.19529973019055744,
            -0.09965858528006728,
            0.004733847187943227,
            -0.019502878815471983,
            0.28725279562372447,
            0.3378890494127266,
            0.47330479297633,
            0.1231801089773301,
            -0.4745648316488518,
            0.18167381779023536,
            0.2848893126780418,
            0.3971160143145391,
            -0.16698568601230987,
            -0.06086935207997936,
            -0.017019688381552035,
            -0.3675735113800354,
            0.12583066175757418,
            0.1584709331875756,
            0.17594123595601435,
            0.46612913269278816,
            0.11365622369095497,
            -0.45190868260497796,
            0.3750963306806018,
            -0.46304643603403983,
            0.42487690385063565,
            -0.19750985188728068,
            -0.10634873501463708,
            0.16003596974455547,
            -0.44503521700088433,
            0.25554386927167305,
            -0.455352537641498,
            -0.1471735819142229,
            -0.49942238394935423,
            -0.3827087494138381,
            0.0879454751015546,
            -0.46798718891086993,
            -0.029331102880690223,
            -0.28435018098635223,
            -0.47982945448872616,
            -0.3010382447024489,
            -0.13751930261566905,
            0.3172526228234418,
            -0.4425671901218867,
            -0.11673705788988338,
            0.2812169861515744,
            -0.39850115589032997,
            -0.1756322640692675,
            -0.32462568962815097,
            0.39749666844825754,
            -0.12601686314665625,
            -0.16182777167173024,
            0.37491552025772895,
            -0.35270887277065055,
            -0.33816723746335414,
            -0.038485086489904924,
            -0.42903187695705836,
            0.22187868622472165,
            0.28258364372730693,
            -0.1784227979885385,
            -0.25234212449028315,
            0.22545170877261375,
            0.28080017952172315,
            -0.3247349418036145,
            0.04140943553830336,
            -0.4211763255725074,
            0.02935143407447258,
            -0.32182230946893986,
            -0.09590819759206608,
            0.13780614835097676,
            -0.40086671617111613,
            -0.381526907964375,
            0.2494746329753038,
            -0.25202576246691316,
            0.0017971241705513003,
            0.3415988080970672,
            0.15362804108876513,
            0.08288901711713038,
            -0.485959005283732,
            -0.11970553814960887,
            -0.31902202045879396,
            -0.1667026009898208,
            -0.27959297814365114,
            -0.40510173342203054,
            0.19306516764702875,
            -0.39638526535707097,
            0.13726994195094863
          ],
          "Bias": -0.17083220291510445
        },
        {
          "Weights": [
            0.04350095759433095,
            0.010413613828410231,
            -0.10872564955529142,
            -0.07212921700971059,
            0.1230759546308358,
            0.4881416729450016,
            0.12784519011229073,
            0.1263399685406183,
            0.0013023233246328312,
            -0.2692943274355289,
            -0.06022710955176228,
            0.2464587710166827,
            0.012351616116311765,
            -0.09580653683956462,
            -0.07185097931324776,
            -0.19861021569339782,
            0.3504793635110802,
            0.3036676865658362,
            0.45039615413614176,
            -0.3313155234283704,
            0.3689683264734272,
            0.016234119467867764,
            0.06282194205119226,
            -0.4847993348816754,
            -0.13151758411150632,
            -0.058359855024678366,
            0.15381323515623946,
            -0.2647355488492944,
            0.44362199929804785,
            -0.037576892158522966,
            0.46825769865794187,
            0.24381401146226275,
            -0.4772384021307373,
            0.4041631188664657,
            0.10259898765577562,
            0.2737677009660862,
            -0.45301918793335744,
            -0.37942052250388514,
            0.26616754249475494,
            0.3332065978616115,
            -0.40979013883101695,
            -0.3735162988410505,
            0.3103137951260786,
            0.11464144077826433,
            -0.06182336022140344,
            0.13258456175426378,
            0.10209424845522645,
            0.2945456075182639,
            -0.2212518833911834,
            0.29447997083056765,
            0.3378307668906612,
            -0.4654172455555843,
            0.07585621332552137,
            0.41664491408761617,
            -0.12622722804425335,
            0.06588543147546642,
            0.33637365974142264,
            0.32234832932202995,
            -0.13902850147802856,
            -0.29813157308974103,
            -0.24262134100436328,
            0.12249949542065225,
            0.16209532052941197,
            0.47475684450085504,
            0.04202051118093904,
            0.261470123264635,
            -0.3142895583413408,
            0.19631177380774803,
            -0.015491212239943798,
            0.2281697315446599,
            -0.0734954756222399,
            0.22777721602208345,
            0.012314591841799335,
            0.23481489478625206,
            -0.35708171685446055,
            0.01000239923929308,
            -0.006667638350430135,
            -0.04465555472283441,
            0.2791062533292995,
            -0.2962586147768392,
            -0.32246928347387616,
            0.10368974354079873,
            0.16329124240730455,
            -0.37645363706841123,
            -0.14262810386741967,
            0.4367860190228386,
            0.33464292234226517,
            0.0863875857576807,
            0.20188058202036985,
            -0.4899041281038203,
            0.0647533593520827,
            -0.0004662289581882567,
            -0.26539545493740874,
            0.10394899848318201,
            0.2889000960072957,
            -0.3855742451714293,
            0.2306441006815299,
            0.07611325282210628,
            -0.3691709349772748,
            -0.3728890556001807
          ],
          "Bias": 0.2935807541446827
        },
        {
          "Weights": [
            0.08779968855081349,
            -0.19177730605697466,
            -0.10458926923532387,
            -0.2848329171087942,
            -0.05990976318252543,
            0.3398864826524958,
            0.4367392930146606,
            0.27840717765133427,
            0.06690576897633098,
            0.3006902065029483,
            -0.4075196165308789,
            0.22051220713158018,
            0.389401905298783,
            0.4527531660870852,
            -0.08131373417050931,
            -0.4799640262887525,
            0.4639998724217406,
            0.36365986056991234,
            -0.4154174743482673,
            0.023976948269843312,
            0.15103433507569614,
            -0.3103265307636464,
            0.2730892743066343,
            0.34073996490344544,
            -0.2717148456776808,
            -0.024219784863441035,
            -0.10832616448135342,
            0.11825198200134866,
            0.009426276826580017,
            -0.058437626069452,
            -0.39783018793096,
            0.3850578955285338,
            0.175075763640563,
            0.48912136094576314,
            -0.06332056638378741,
            -0.2948278649230452,
            -0.4066232013973251,
            0.11096771303915158,
            0.46162356289572753,
            0.47261660227278074,
            0.01359194407136447,
            0.3430730340183819,
            0.08108304736068936,
            -0.37291201415115793,
            -0.018402991818565768,
            -0.03373467709823614,
            -0.4040804617589665,
            -0.3284724406879603,
            0.27430644116737235,
            0.11644770345203832,
            -0.02852011211214616,
            0.11606579627667095,
            -0.41930609592401,
            -0.2941666393986732,
            0.437391536611169,
            -0.38009211266429377,
            0.4281318230092133,
            0.4929613494658007,
            -0.16731873948573162,
            -0.27413637112538236,
            -0.09170826454417773,
            0.16063209549313096,
            0.031625806332858254,
            -0.13882172494321368,
            0.29700831549720685,
            0.1404697779718237,
            -0.0067742283864438745,
            -0.36020684939868597,
            -0.09024565961513284,
            -0.08919838635078124,
            -0.31902711580348586,
            -0.2257910584271874,
            0.12421634257558764,
            -0.04400368430644706,
            -0.23171769032739423,
            -0.30698848105263027,
            -0.2064257559272947,
            -0.2661157076303497,
            0.12360966145055063,
            0.14273185394071353,
            -0.3190112603070064,
            0.01358514553158389,
            0.1833257496192894,
            -0.33768988235628183,
            -0.010013942636398508,
            0.07854200325921652,
            0.06370958910233791,
            -0.11793506472666723,
            0.03913984623937283,
            -0.3284309881724456,
            0.2630896377090526,
            -0.4316239393818458,
            -0.31121095066173543,
            -0.053618819398316635,
            0.3862290072553221,
            -0.13684247099861382,
            -0.3007101910670608,
            0.14376438190729504,
            -0.1264027303683019,
            -0.3285160254757472
          ],
          "Bias": 0.08058281562845639
        },
        {
          "Weights": [
            -0.23441999854535273,
            -0.20726362059583697,
            -0.4918486156505166,
            -0.10081560233340402,
            -0.3439631927326627,
            -0.4735286906605827,
            -0.09983587171316215,
            0.2843826659521507,
            -0.43343016680889623,
            0.48343489463293005,
            0.05174974785393978,
            -0.13435986449890194,
            -0.4160018993425476,
            -0.3097490216981767,
            0.4445182031568461,
            -0.26543046599424236,
            -0.4471781688776839,
            -0.47397857589036785,
            -0.129059608777876,
            0.4796515297998823,
            0.22642633944435944,
            0.13852745853488566,
            0.25108407489370754,
            -0.01913626577335387,
            -0.06814306804193665,
            -0.2767547540519156,
            -0.023277622233953698,
            0.13352328843511055,
            -0.35604367186369384,
            -0.2397658559200109,
            0.49845167644258986,
            0.057358803236066805,
            0.299571811992255,
            -0.0979539565949409,
            0.3651754555970957,
            0.3321939750680618,
            0.3391885921040298,
            -0.1267767955904511,
            -0.4875344042588047,
            -0.23628069539941476,
            -0.42832203933280355,
            0.19952764522844016,
            -0.29351960407438377,
            0.24264861736997745,
            0.11001375629267514,
            -0.01812372551865307,
            -0.46448886625238006,
            0.10256975850571748,
            -0.3756098653711133,
            0.4799364042946161,
            -0.08865209606510974,
            0.07985583765880633,
            0.2679107349512597,
            -0.18718017010354496,
            -0.03441526177335299,
            -0.46511206377219555,
            -0.17085583984972977,
            0.30993810140966244,
            -0.18033446907726572,
            -0.12384114301601003,
            0.29233451681690076,
            0.20899532146249392,
            0.4956041584394684,
            0.013485698695476977,
            -0.4458929049919082,
            -0.4693972827095203,
            -0.1260923433842503,
            -0.4648838619068875,
            -0.21609842151717723,
            -0.3469404996547211,
            0.4050923692133503,
            0.41336792013259854,
            0.29681953234605013,
            0.1592329369562452,
            -0.11504312548201943,
            -0.24431178687402239,
            0.06475324771534623,
            0.49538462771300007,
            -0.09820198876747543,
            0.3784839046032908,
            -0.244506189249253,
            0.252787165733602,
            0.4679025358463278,
            0.20434970228962765,
            -0.03346888354324437,
            -0.22445512040791324,
            0.32402869867726014,
            0.1609973626921252,
            0.34737826999770866,
            0.2496835730964422,
            0.03490776536611012,
            0.42363137540309637,
            -0.1545938753024479,
            0.2723094677045514,
            -0.24046871411086462,
            0.09231818161898843,
            -0.39219012318836916,
            0.23565532133143247,
            0.07231991274723844,
            0.48046453178621523
          ],
          "Bias": -0.08052924731057788
        },
        {
          "Weights": [
            -0.053350085251503664,
            -0.3655715293833309,
            0.04656867185700157,
            0.40249276209840745,
            -0.14151573132081957,
            -0.1372134439556736,
            0.1644674605849897,
            -0.2130821354390336,
            -0.4017705671112236,
            0.10446726983739585,
            0.4466995362874646,
            -0.18524053552138972,
            -0.24677813689335695,
            0.16137284228268034,
            -0.16411494182028236,
            -0.45221987643414824,
            0.18878771317670776,
            -0.13394975823116526,
            -0.047724175687633597,
            -0.311509889040335,
            0.18896991576821037,
            0.4912281266579476,
            0.2300862795270346,
            -0.270135426039578,
            0.12164281977011099,
            0.08204033839045731,
            -0.40054290850021806,
            -0.49623863676983293,
            -0.43034305634547776,
            -0.23292125622682283,
            0.08641161710678921,
            -0.37544687466850507,
            0.3572849526558826,
            0.3446959262189413,
            0.26978954822236445,
            -0.06862586379723985,
            -0.0955128203521629,
            -0.2271018585407534,
            0.050291925867022254,
            0.2621118923640549,
            -0.39400387632769085,
            -0.3013159628757385,
            -0.2389769110512326,
            0.4868514736310488,
            -0.0771369302999508,
            0.47854418156347855,
            0.32816332606846116,
            0.22022669818230967,
            -0.016180316077715893,
            0.1404721650859838,
            0.31200753701550754,
            -0.3218644212293464,
            0.4603548960395943,
            0.3093376044248922,
            0.31232001985064606,
            0.3905656986640719,
            0.01426430336117927,
            -0.004146563276226884,
            -0.2737655734298408,
            -0.09560381407743082,
            -0.23022325191718754,
            -0.4522672697826839,
            0.32922353762227136,
            0.4966570603301273,
            -0.2480841063359253,
            0.4269998209730273,
            -0.16501087741004838,
            0.24751584281460473,
            -0.2213087249423176,
            0.4197875088393271,
            -0.016782414507412288,
            0.15407119466457114,
            0.2942351978956298,
            -0.4814867748617927,
            -0.28381661049853646,
            0.39092640755843633,
            -0.36292182988723154,
            0.39443033280863576,
            0.48305123050700827,
            -0.07383914289392142,
            0.16978530624986263,
            0.2798867199097647,
            -0.24986541883017765,
            -0.49267318022396206,
            -0.43126398727960463,
            -0.35393278036754916,
            -0.2417720756975306,
            0.23311429618479276,
            0.39912852413134575,
            0.01610847525489297,
            0.465516761591883,
            -0.4029597476009333,
            0.40773359136310444,
            0.3821748663590436,
            0.0015183125819322805,
            0.03739485561193256,
            -0.04227928841693236,
            -0.08745068714020693,
            0.4356164363253635,
            -0.15229628339169907
          ],
          "Bias": 0.4005165680113463
        },
        {
          "Weights": [
            0.1975369865854137,
            0.4090430626912321,
            -0.42125095836774185,
            0.1406952247460515,
            0.10943299049096109,
            0.4987835214056339,
            -0.4377073041755641,
            0.46861640878798416,
            -0.129671920855088,
            -0.31450139992614595,
            -0.2059421853381302,
            0.4079105656672081,
            0.472145115510707,
            0.09020038906100936,
            0.04601681361895017,
            -0.09067828882581973,
            -0.08587892632633709,
            -0.17274024798079182,
            0.04779257856352756,
            0.30391192430131486,
            0.36074485023105485,
            -0.2500746973387989,
            0.4062626881996196,
            -0.06894661891511132,
            0.19011042278967197,
            -0.10448390164329963,
            -0.15318604112978174,
            -0.37219824777306243,
            0.4668790364988741,
            0.06769974419555279,
            0.2254263536168038,
            -0.4688139312946067,
            0.45737032465765015,
            0.3441583464091776,
            -0.0871099854883922,
            0.06257575190237709,
            -0.2855277884412995,
            0.2991036332885162,
            0.2691538909192689,
            0.05486249415817513,
            0.3696530954789561,
            0.18854444837252976,
            0.46772578023667927,
            -0.08036840757682348,
            -0.20441316149374086,
            -0.1390359683205176,
            0.10152925538545016,
            0.09110977551189539,
            -0.30182255830676524,
            0.48480019422199905,
            -0.3748244433871582,
            0.051076711251376014,
            -0.045624899374358215,
            0.11312312930878379,
            -0.47848395312226905,
            -0.19040130119939536,
            -0.11645834138130466,
            -0.09064223023198593,
            -0.2686113166094834,
            -0.06441189176167914,
            -0.3982898976100798,
            -0.30548192986009604,
            0.11957240320592166,
            0.2954207002901543,
            0.1427602337763577,
            0.4726012126088073,
            -0.4125154583836773,
            0.3855392775218178,
            0.36679616542780424,
            0.040268211319896385,
            0.2731208060498201,
            0.11074455587881524,
            0.057067326690985964,
            -0.28245397519335336,
            -0.2504949569982935,
            0.33437700270959286,
            -0.11531300278334893,
            -0.07845726296811151,
            0.260142212973967,
            0.2874114782406016,
            -0.35765163461265403,
            0.1443661104110672,
            0.3500749879844889,
            -0.3975087426172175,
            -0.054741711386807425,
            0.12883339814078698,
            -0.36896886392789574,
            0.1530134938616719,
            -0.4536335328464835,
            -0.4330050154510821,
            0.16295899712808865,
            0.3202588746388837,
            0.2567630510485035,
            0.49823348635150666,
            0.46466940692740066,
            -0.05901969560258835,
            0.37098242749689064,
            0.10258289753449283,
            -0.14559913994335416,
            0.3689334474099262
          ],
          "Bias": -0.14635318457391444
        },
        {
          "Weights": [
            -0.3536679615376057,
            0.43363247067206445,
            0.24467745896410323,
            -0.3002503032588745,
            -0.2244275580056139,
            0.07691707373253523,
            0.09164697558749518,
            0.16649984161083292,
            -0.40627049122142606,
            -0.15390280592999597,
            0.42634846984754055,
            -0.0680276097705972,
            0.3785776653848418,
            -0.08918492215300905,
            -0.29343377758437966,
            0.4159282953567456,
            -0.4636683535685644,
            0.38502087049363193,
            0.0345019676246099,
            0.10344729153028807,
            0.38599888996837617,
            0.3733645421093171,
            0.3647410528761651,
            -0.13892869084031906,
            0.15649364401480945,
            -0.02120906951429489,
            -0.43154432484840344,
            -0.3895372589122143,
            0.12970826836725408,
            -0.1152497838652581,
            -0.45951294825248495,
            -0.4112186240585365,
            -0.03688948184224845,
            0.02507085388558836,
            0.35531433647547067,
            0.47754547440197725,
            -0.009987630783410969,
            0.3529490066668032,
            -0.17321811788483793,
            -0.23534947163423592,
            -0.27420695431628334,
            -0.43898936435360564,
            -0.4027170986104006,
            -0.3381351459080771,
            -0.054123602914921444,
            -0.45634601780794104,
            -0.4276312455059318,
            0.14284449043245406,
            0.12824261692515926,
            0.455088123719157,
            0.21246330794823806,
            -0.008108624863193055,
            0.1232747185999095,
            0.2407653901436963,
            0.44556398510505457,
            -0.3261403170327193,
            -0.05152370822887106,
            0.030094151491827186,
            -0.391333889556031,
            -0.19573166676548284,
            -0.3011279500945616,
            -0.12038210016746903,
            -0.15316798125505343,
            -0.2892661674766563,
            0.08564816751097634,
            0.33389169238087657,
            0.002240683078235636,
            0.19337431543558042,
            -0.37486761848416633,
            0.11893788076937725,
            -0.016315474538997413,
            -0.3525419824578157,
            0.22730068633104528,
            0.2810914703360361,
            -0.28994476011573894,
            0.42846575261326897,
            0.11142656987048913,
            0.18606955546480322,
            -0.3277633810360084,
            -0.2936729356904771,
            -0.4556483233926623,
            -0.06689788019399284,
            -0.4030752304683912,
            0.012848462940846746,
            0.232458271265398,
            0.2865928912089403,
            -0.30445773254762803,
            -0.1536169051687869,
            0.3261337859594435,
            0.3263255960955145,
            -0.24689666651373438,
            -0.4596898058465365,
            0.26781762207074855,
            -0.4558179833287146,
            0.4841008898112128,
            -0.12425338557319014,
            0.3941376599759153,
            -0.40243825220513185,
            -0.4548414721488131,
            -0.0670230190577937
          ],
          "Bias": 0.29935558051164207
        },
        {
          "Weights": [
            0.3579779094600854,
            -0.1356736816305254,
            0.1171223289241769,
            0.13249501223145263,
            0.20453232179428998,
            0.4249335544349179,
            -0.3932656092342174,
            0.39075620670696304,
            -0.45824406130401335,
            -0.2606955363190169,
            0.17358668179765022,
            0.00932858368063119,
            0.03613641635726756,
            -0.1781660543923559,
            -0.37689752553055333,
            -0.11369934211824201,
            0.052437192339591585,
            -0.047767789112762755,
            0.22189896792435573,
            -0.2790782033139703,
            -0.007609873898455262,
            -0.46241898141873894,
            0.34296241910871955,
            -0.48279428703150723,
            -0.008101524538430778,
            0.2842066336828472,
            0.29936442547357384,
            -0.44369313931840804,
            -0.26765711916223056,
            -0.11775262335651025,
            -0.24717231256161742,
            -0.026519477760336627,
            0.42274263156193276,
            0.07950822742129493,
            -0.02619766731740178,
            0.10370949834533989,
            -0.02929683447481575,
            -0.34716303343595145,
            -0.17279965265768907,
            -0.3674794707043665,
            -0.08539496456780031,
            -0.4950599333640307,
            -0.4047249568595956,
            0.3833408982462213,
            0.10777386073445128,
            0.05687259838084911,
            -0.42366710382103756,
            0.3203794502160798,
            -0.1766066217900601,
            -0.1469492458077751,
            0.04392846512499506,
            -0.38693761431799417,
            -0.365368623174961,
            0.4960361374255906,
            -0.1155147716082932,
            0.3117368900814414,
            0.48268112919112466,
            0.180758894693956,
            -0.4665843033280862,
            -0.4821381172323163,
            0.045139469368339215,
            0.00033082021429252216,
            -0.40953310308845514,
            0.3973942824214108,
            0.39195715540850495,
            0.2992321677615381,
            0.48073775235765215,
            -0.2822391327953567,
            -0.23969357261821908,
            0.42547619287102445,
            -0.27594826054222266,
            0.45407434677687064,
            -0.07217953634202245,
            0.12711912220062238,
            -0.33227472173636885,
            0.3764179714510721,
            -0.26787590440042164,
            0.44259589198894905,
            0.04591901737874003,
            0.34871574448160475,
            0.32725941841777023,
            0.30633395763657056,
            0.11287573644612087,
            0.1671762687166592,
            -0.4373017820813567,
            0.18815757612796308,
            -0.3005462201351595,
            -0.20898361188601994,
            -0.22477573303597068,
            0.33743804558923285,
            -0.011297034147244043,
            -0.1601084260934883,
            -0.2924514275027758,
            0.3560431167418095,
            -0.4790134576439519,
            -0.08460954507478395,
            -0.011878888665366807,
            -0.21141271147543275,
            -0.3153857661307992,
            0.39230553684857955
          ],
          "Bias": 0.014735378547131013
        },
        {
          "Weights": [
            0.10736664134295393,
            0.1738256489872763,
            0.00918620004452957,
            0.1726368293392772,
            0.27849842008781256,
            -0.13005059765510452,
            0.2932113260437208,
            -0.11702906528378487,
            -0.3878354354015396,
            -0.26232254638018115,
            0.16244244521759055,
            -0.33311538888508263,
            -0.012935155293274813,
            0.1824107449342583,
            -0.0914643620815771,
            0.14500054133826848,
            0.2571244852943097,
            0.2851900207086156,
            0.09777382095597355,
            0.35741941025606605,
            0.3072701404844844,
            -0.4076983926411947,
            -0.13745344176894966,
            0.02961396330762937,
            -0.1089628290380113,
            -0.13558948289370867,
            0.1630076062497297,
            0.13207231395203656,
            0.211432657821959,
            0.45612933593572635,
            0.14422301644427052,
            -0.027116986793696403,
            -0.13206078519968703,
            0.04274884447255858,
            0.13459381724430963,
            0.09469126939826404,
            0.1483090308659771,
            -0.31307711517984166,
            -0.47462467082248944,
            -0.29709827581589426,
            -0.04138227423315846,
            0.1500339969683045,
            0.17027820196862575,
            0.20247619667695432,
            -0.3176940248652982,
            0.22921970558824128,
            -0.10977938897578432,
            -0.2796383862911581,
            -0.25050170827855583,
            0.46895925475413863,
            -0.11020193701489425,
            0.03147456204829306,
            -0.049809274137944615,
            -0.43292278349712804,
            0.1800219093877815,
            -0.469954223160935,
            0.453695215308498,
            0.13753461034328857,
            -0.1949986089289014,
            0.3192563423530934,
            0.29300152089339976,
            -0.3887942215657275,
            -0.32903682476033996,
            -0.448770701695038,
            0.1420287451258856,
            0.24400950686406073,
            0.05023855007852437,
            0.04030452045096775,
            0.4687029674463835,
            0.4613498127991457,
            -0.1308671969844506,
            0.042420830302716116,
            -0.2682838109510274,
            -0.25148053539883947,
            -0.24543214623530632,
            -0.13156355407326986,
            0.4018820646438186,
            0.4207531768035205,
            -0.18567158479439452,
            -0.39857995537642515,
            -0.04146183903027221,
            -0.38912176173883145,
            -0.14920518473479466,
            -0.028970842980495393,
            0.49824064018371117,
            0.22721422813804631,
            -0.07223562119285334,
            -0.3474294063158197,
            -0.4758028281918174,
            0.40784165815513185,
            0.11563878224103719,
            0.1620675769177873,
            -0.001774793364837314,
            -0.1557831750205224,
            0.20980623632272702,
            -0.35101434067474774,
            -0.11842668994886928,
            0.3594982798305202,
            0.4509812627137493,
            0.13373719088620137
          ],
          "Bias": 0.25740614976319615
        },
        {
          "Weights": [
            0.3280538934684953,
            0.1609665960478201,
            -0.05451303669125477,
            0.43481172160068865,
            -0.11537735627425488,
            -0.0036887570421552537,
            0.12672879502540538,
            0.06019770179657888,
            0.32794329951616613,
            -0.08445930411367956,
            0.2568594475741134,
            0.3589195689385027,
            -0.2169191285956813,
            -0.3890455557675628,
            0.3705131602522391,
            0.29225261709445427,
            -0.40610338709629645,
            -0.48880904886910087,
            0.48271898200046565,
            0.00571841334560164,
            -0.10908019447783146,
            -0.12001344048284072,
            0.09026503163642875,
            0.038468570032128654,
            0.33120454929248916,
            -0.12342864433213233,
            0.3132105501041301,
            -0.15638992183532388,
            -0.15268604586768247,
            -0.49198499702438453,
            0.4213846194620495,
            0.1346798467309648,
            0.3743853379538844,
            -0.08836615967512751,
            -0.21296327383971372,
            -0.3874559398152435,
            0.2998280520203325,
            0.16346173777128,
            -0.4740328450568699,
            -0.4247045923141926,
            0.45763640715777704,
            -0.15421699800918287,
            -0.09047144916680364,
            -0.2972018063323641,
            0.2324949544389198,
            0.3553948381174812,
            -0.17382888681317926,
            -0.4057863739031817,
            0.49297126731396307,
            0.45015701770460076,
            -0.27457217315276644,
            0.27694528355200226,
            0.06085918997189511,
            0.29924174385975794,
            -0.3505275905101328,
            -0.44893406796598756,
            0.20576213103780297,
            0.02451425976373892,
            0.06244523991943286,
            0.19795497300020043,
            0.44959387366457676,
            -0.43935144809589793,
            0.30504697684557625,
            -0.06971569812694468,
            -0.45717689065579403,
            -0.3874735592126843,
            -0.4991686126292801,
            -0.4133167765308635,
            -0.09645880974579298,
            -0.4947379196052479,
            0.23592129229418052,
            0.2664742100098612,
            -0.08838778198343665,
            -0.09133079110600417,
            -0.4168275977040324,
            -0.28516213524235967,
            0.01945780369790007,
            0.10130726530356282,
            0.3840591562618097,
            -0.3300680630105887,
            0.392734640326682,
            0.00441628357288544,
            0.23784580890154047,
            0.15443980658583228,
            -0.17893787032006425,
            -0.3206787707091489,
            0.12374100334938273,
            0.007325700495301217,
            0.09871591545480661,
            0.27279352255999884,
            0.2739692126434905,
            -0.1524947991169594,
            -0.4485197465664229,
            0.4094177349879521,
            -0.16296205154681984,
            -0.3965486679650996,
            -0.13106152561490333,
            -0.4900831712875554,
            0.1658782897906358,
            -0.06827699169579747
          ],
          "Bias": 0.19877738957860697
        },
        {
          "Weights": [
            0.26942529722772174,
            -0.434667294338294,
            0.44915474942172445,
            0.2932144560183624,
            -0.20510650018744084,
            0.18119133908684204,
            0.16714380679610322,
            0.030648034259401644,
            -0.11547152263299107,
            -0.46541332054881435,
            0.30481317241316847,
            -0.18851697920583252,
            0.3481319884180844,
            0.08524737114295922,
            -0.4815893811461038,
            -0.42064306739065166,
            0.251819780563075,
            0.10361506031776019,
            0.4692589912648812,
            0.3552321741635947,
            0.21618990115138248,
            0.06532464937971554,
            0.055070301295267104,
            0.28037868676791267,
            -0.2517971503953217,
            0.46085891824755437,
            -0.023395703805757007,
            -0.12204442478101916,
            0.06814446755999516,
            -0.23173898145821364,
            -0.13174036791938337,
            0.047662616808433964,
            0.19271160398641007,
            0.3266302708668542,
            -0.04632740869757014,
            -0.19548039235193537,
            -0.4945984049310482,
            -0.4212205180779169,
            -0.24385015603470678,
            0.4584686375794332,
            -0.031131726163202908,
            -0.448378812327642,
            0.44719431822260725,
            0.06425436913850213,
            -0.1478178839146894,
            0.1688521155195761,
            -0.334062533085282,
            -0.49181178907810913,
            -0.008458817923057992,
            0.15026613216608703,
            0.44315406936627194,
            -0.1453411411418582,
            -0.48635192101004193,
            0.3516122584068389,
            -0.3926759151094817,
            -0.3914192914628924,
            0.359639894063566,
            -0.317383186281106,
            -0.041738294025037696,
            0.14390333492060953,
            -0.3187581466970114,
            0.16207575631207807,
            -0.34000019684334215,
            -0.02457531149160366,
            0.19317692830505898,
            0.363554050004082,
            -0.339495103494108,
            -0.025407672662798846,
            -0.3878533279032388,
            0.4300678645267581,
            0.22599594710548246,
            -0.17361340035145575,
            0.26694710338375865,
            -0.37334571657041865,
            0.27731257247552055,
            -0.28932240688081384,
            -0.07144939811046505,
            -0.03833561853231286,
            -0.42575109078717416,
            -0.2964790559976175,
            0.28858039713347955,
            -0.34414176084767234,
            0.09068144954514473,
            -0.38311863291871556,
            -0.04583251828079658,
            -0.3413174715793027,
            0.21650306444936152,
            0.4690595766470311,
            0.18221178479896766,
            -0.08001255325782962,
            -0.3561618695753207,
            0.023690688430024053,
            -0.18557939515636857,
            -0.4187495326918461,
            0.41326062199393937,
            -0.4830419886178279,
            -0.09489428865863446,
            -0.12189195941784205,
            0.34727245871382195,
            -0.3615972976816122
          ],
          "Bias": 0.17420381375087984
        },
        {
          "Weights": [
            -0.126013418977525,
            0.3167941711809514,
            0.45111306737880247,
            -0.44094195532643937,
            0.07732088077954817,
            -0.4963933084558508,
            -0.0960458130097972,
            0.16517759417781894,
            0.45079261783394753,
            0.3000315994184307,
            0.004411896656737248,
            -0.21720300003606868,
            -0.47673792416573746,
            -0.01824671366993213,
            -0.19434869453269896,
            0.46574752618628185,
            0.35679026720112555,
            -0.16966595388931752,
            -0.17157627962353728,
            -0.01434635018347259,
            0.466769027185335,
            0.4643061545499088,
            0.2990633356526288,
            -0.1908055613649251,
            0.4386998859686077,
            -0.13660867693272455,
            -0.4162281815111151,
            -0.3367765878081672,
            -0.18444808454439213,
            0.465601904787694,
            -0.1448554696917419,
            0.4797406676145976,
            0.42192039241048934,
            -0.32729668154139546,
            0.4733639744530081,
            0.4142832103080125,
            -0.25007040294028066,
            -0.20573311228006105,
            -0.08675737560991871,
            -0.35786617253133596,
            0.17033725938101366,
            -0.4894834318250661,
            0.33810292240910783,
            -0.3835823072230487,
            -0.09141878869670922,
            0.042585004722579735,
            0.05601121991724507,
            0.14915666168747335,
            -0.33349448656137476,
            -0.4251117141744786,
            -0.3009877668456752,
            -0.23791819398786102,
            -0.23455486983154555,
            0.39803792099096547,
            -0.44406789707869415,
            0.313691067645883,
            0.051407958221358185,
            -0.11298974892015243,
            -0.16848281690943437,
            0.18039612592267354,
            0.25144343471004627,
            0.11358636853121644,
            0.26493123673996083,
            0.43062390799372513,
            -0.09133940295388747,
            0.28190694674392563,
            -0.07457250407470808,
            -0.47286993503172964,
            -0.1844554496738376,
            0.4671225159087877,
            0.23932393687844516,
            0.4328967611803839,
            -0.036810620691695196,
            0.004605491795029504,
            -0.07879570289471403,
            -0.009803808368782418,
            -0.44763248755633867,
            -0.0848839554574068,
            0.489882435182546,
            -0.13272755254902366,
            -0.017577240096948794,
            0.3512179140786632,
            0.27407451547331346,
            -0.08376320408002914,
            -0.26797829167736276,
            0.24624686221641687,
            0.3610813202415401,
            -0.24265880013446625,
            0.20855923843771346,
            -0.03787440039903739,
            0.18774452649936624,
            0.19100185297169564,
            -0.14212920894209874,
            0.29577356175926806,
            0.3534896181309427,
            0.4438073743816217,
            -0.18709147185880318,
            -0.2718412667301281,
            0.38786462820406686,
            -0.18199793852158483
          ],
          "Bias": -0.07410418889995728
        },
        {
          "Weights": [
            -0.4548141089402324,
            -0.3886161653374061,
            -0.32843397844015415,
            0.46458431978026576,
            -0.2327683799775248,
            -0.33477741787034276,
            0.41630070773117395,
            0.23500670775356136,
            0.30821563394843476,
            -0.07662130395717612,
            0.18036076086375188,
            0.1804734142888028,
            0.4775504551490706,
            0.29108905901715565,
            -0.4904916605647201,
            -0.24485132804575074,
            0.11421083254853259,
            -0.4583775977789115,
            0.05752640879632089,
            0.26427299334619825,
            -0.09932221107333829,
            -0.33482920418791934,
            -0.45894593630180547,
            -0.16848350336862847,
            0.3631261077182687,
            0.2336437325353532,
            -0.4288526153432875,
            -0.42581807119302534,
            0.31241693256593583,
            -0.4069263619193672,
            -0.42080675798857936,
            0.369627540563318,
            0.18341691091973292,
            -0.037320192024158094,
            -0.18546327242039504,
            0.22777173864281616,
            0.37507967720338053,
            -0.3948382608645764,
            -0.1317217005584121,
            -0.0023980862149839723,
            -0.0905870908474759,
            -0.48132726014897265,
            -0.0475072980472794,
            -0.4911343461589272,
            0.18880471661012918,
            -0.3842944251287599,
            0.46155686305454197,
            -0.05235549977456032,
            0.06851227899093094,
            -0.02515180958197109,
            0.4276149804422853,
            0.4977722373652655,
            -0.018724241066726845,
            0.14774506590080266,
            0.21280422999383003,
            0.15648324459668816,
            -0.21647138191710094,
            0.21053791351368306,
            0.13286385196022257,
            0.48844936995719745,
            0.36572045558049,
            -0.4737403940573567,
            -0.059764452797947724,
            -0.2103458768318752,
            0.4649776743594823,
            0.4844727187659622,
            0.20311193333045374,
            0.04459586885854343,
            -0.23411764979118072,
            -0.1399583754781787,
            -0.29765876347961906,
            -0.2170082662542649,
            0.36952949954385517,
            -0.15826344056671635,
            0.12977151389032937,
            0.29534559750552813,
            -0.2807360195828305,
            0.33124430948926065,
            -0.12736348795585536,
            0.4617793070060145,
            -0.46831252359306863,
            -0.16067170795822405,
            0.47122045937173285,
            -0.42426083952243304,
            0.03798136673802955,
            -0.4330837480094498,
            -0.025522225973554254,
            -0.32331143896054376,
            0.17932248636362075,
            -0.09821026372143742,
            -0.22950069383469276,
            -0.35525699301388686,
            -0.4975121493988134,
            0.03849147844210588,
            -0.26299599120022094,
            0.11404854132902095,
            -0.038181228580203445,
            -0.08375917157289009,
            -0.18322471402908408,
            -0.019134074603850887
          ],
          "Bias": 0.3778716083152714
        },
        {
          "Weights": [
            0.3534840998458803,
            -0.016425937758565923,
            0.44478550155157187,
            -0.0834079412669698,
            0.19430607488321947,
            0.19159290167363083,
            0.20986949843442002,
            0.18389635559920411,
            -0.13683087441873923,
            -0.052133517212377106,
            -0.2922092952372793,
            0.09643516937213784,
            0.11089164722342638,
            0.37458391510860417,
            -0.0771008689115703,
            -0.47060424740044055,
            -0.4754982104065548,
            0.3061912870378468,
            0.31088947065817557,
            -0.03507742405015886,
            -0.3988314037091415,
            -0.1813875792848741,
            0.22482139202570844,
            -0.4863924630655696,
            -0.23218631801211628,
            0.3150909868743045,
            0.027741942955234612,
            -0.23854295403005984,
            -0.431486659126087,
            0.32338382671168237,
            -0.07845445413932438,
            0.2779204489714199,
            0.4706041728240225,
            0.40832817181249303,
            0.3384853539888785,
            -0.26189865092767045,
            -0.2105567536780179,
            0.37075080729787097,
            -0.022564201027569827,
            -0.008364331555066508,
            0.3945564160926182,
            0.31848679165409605,
            -0.11892475906135933,
            0.1284050888537187,
            0.09790006666265377,
            -0.07504345308658225,
            0.38629845955722997,
            0.17172934797075134,
            0.30348185293695173,
            0.13758449484914786,
            -0.15653706727885094,
            0.10979600708840173,
            0.22202504685636867,
            -0.3851869761634378,
            -0.48945994366573464,
            -0.45818823018527327,
            -0.3007811966490688,
            -0.493069817780695,
            -0.058000313335432895,
            0.32548085150815925,
            -0.019266804919586822,
            -0.30309143567016583,
            0.17209663843490974,
            -0.4010100827054293,
            0.4944500633685742,
            0.11367839487129142,
            -0.01240759154812133,
            -0.19257149465928564,
            0.2391576107378681,
            -0.05750948828728203,
            0.23032517999349209,
            0.0929685432585766,
            0.43739515423600045,
            0.11123432090622017,
            0.24671888624711144,
            0.40256244148610193,
            0.4809214499012745,
            -0.46559949245522364,
            0.26681443764947504,
            -0.14591694626483442,
            0.32184796917866987,
            0.39468442503016793,
            -0.17696486121573365,
            -0.2584396744992587,
            -0.32636125489574913,
            0.3623186588348501,
            -0.03690089828728224,
            0.09890305970208287,
            -0.03049599246120815,
            -0.1933017721737233,
            -0.15950386387048904,
            -0.384964505653401,
            -0.3810770646872645,
            0.3294856415439836,
            0.20307975517012802,
            -0.44151634975367426,
            -0.47448901059754006,
            -0.08960501509830898,
            -0.40179792944341974,
            -0.43719468820846613
          ],
          "Bias": 0.26248624090046835
        },
        {
          "Weights": [
            -0.09777075137542768,
            0.02674375204344402,
            -0.4012485382417401,
            -0.3349783690303471,
            -0.3493807376313531,
            0.27414993510655955,
            -0.053033515483141565,
            -0.2897072372923324,
            -0.18294718736615914,
            -0.42557259960659666,
            -0.07531042931564384,
            -0.19957620372905846,
            0.24403077670501674,
            -0.21017650843520091,
            -0.1608142057005564,
            0.01839099640084794,
            0.08853413574803126,
            -0.023411482803863196,
            -0.1269378519890494,
            -0.41499404464127015,
            -0.25334524260490954,
            0.3716874971298675,
            0.21623692176255518,
            0.15839108004762317,
            0.21913787214829952,
            0.0639562728335857,
            -0.48893592050404394,
            -0.1505661908799805,
            0.16579170676307614,
            -0.023076104927819252,
            -0.4552237376514997,
            0.08642962055022618,
            -0.06636026028030695,
            0.4387003595589743,
            0.29507666291081913,
            -0.322080308360945,
            0.42686709466573236,
            -0.10763840190526867,
            0.37046323388786523,
            -0.30325098555481916,
            0.4427796857469509,
            0.3929892731174951,
            -0.2778107443711664,
            0.24218388071006638,
            0.4380721652958189,
            0.16393636771796194,
            -0.09043984922821695,
            0.2826277683278498,
            0.10205143305789384,
            0.13938417464676447,
            -0.032938598581796937,
            -0.35589678241458966,
            -0.30868324755673066,
            -0.02389212316175668,
            0.22749429541122348,
            0.3803360609879673,
            0.47597974992922265,
            0.36200823817414324,
            -0.4765692647360903,
            -0.32043951669710635,
            -0.03104678656269218,
            0.3775199179429011,
            0.43247513558345085,
            -0.26058568093809475,
            -0.23381375957614944,
            0.18981272877475255,
            0.4430196225017795,
            0.3316798280267361,
            -0.10929236260198093,
            -0.4125994165109722,
            0.4737820603912567,
            0.26928442824239157,
            0.45001377246683194,
            -0.39293151064083565,
            -0.16706948086457787,
            -0.41080256640139734,
            0.39635665362860806,
            -0.22778691848247395,
            0.15616634433011353,
            -0.022141913078597086,
            -0.25726190396637333,
            0.4144274464714764,
            -0.49254144040291553,
            -0.4805018411788169,
            -0.12029078347346661,
            0.054386358115249535,
            0.2587245164073393,
            -0.253103230092806,
            -0.10531598401474573,
            0.05619969390524104,
            -0.19750599236096283,
            -0.2808088329249269,
            0.09057205704090347,
            0.35996705890468017,
            -0.15429559131627205,
            -0.3674275961216428,
            -0.34905647719316124,
            0.24042870778341693,
            -0.2548318710246744,
            0.36654213290063287
          ],
          "Bias": 0.011430242081461463
        },
        {
          "Weights": [
            -0.09593386689431953,
            0.07833179381751328,
            0.06907366452735812,
            0.1884571094238286,
            -0.4925303093485788,
            -0.0484463743630942,
            -0.2560203703030401,
            -0.47784578898695773,
            -0.3462919131156845,
            0.3095066051384522,
            0.16708185009952392,
            -0.16624793714590827,
            -0.21572375285522694,
            -0.15477458492913942,
            -0.44020015094527243,
            0.4681470871307392,
            0.24156260885051117,
            -0.3988295293578137,
            -0.42141857875648553,
            -0.3090536233043407,
            0.30137698653479716,
            0.23978816234418215,
            0.16980924546996704,
            -0.2969335123770319,
            -0.32321165166237026,
            -0.1029654476023125,
            -0.12742509787152145,
            0.36773450255154605,
            -0.36707824920441184,
            0.25506757095733207,
            -0.16549703912741004,
            0.22458776327642918,
            -0.20421515180062055,
            -0.35970697422651493,
            -0.33830387423713315,
            -0.036700528986748554,
            0.4394727293476773,
            -0.3437774521744184,
            -0.10240790232637997,
            0.05557170278689909,
            0.08545302741889303,
            -0.47368048301368376,
            0.0657226243537792,
            0.33454177385051304,
            -0.160275380673587,
            -0.053306084938225966,
            0.4155074464359616,
            0.42969278044470244,
            -0.24472729621729838,
            0.43748187241669895,
            0.2387525689348129,
            -0.18272520250424654,
            -0.41871825840628557,
            0.043819743243290334,
            0.45963170503234235,
            -0.10346105303873646,
            -0.06900249690321754,
            0.2839350091681701,
            0.2841543348133909,
            0.21884600486401942,
            -0.13658727516447453,
            0.19837029288529212,
            -0.22280382982589564,
            -0.19780477507579997,
            -0.3480201950672788,
            -0.3017252228650466,
            -0.22407695549652806,
            -0.28984956966848086,
            -0.12995908304325343,
            -0.31029341568200486,
            -0.015784580907864307,
            -0.08595715460079306,
            -0.33626432038621756,
            -0.18188310114177583,
            -0.17507623084513602,
            0.4255271581962069,
            -0.2870925994101303,
            -0.18150730976398793,
            0.3449278775574066,
            0.08231802862709446,
            0.30843444958367094,
            0.2627574810349825,
            -0.13338726366411477,
            -0.010162611122013224,
            0.04238710633606039,
            0.40656796915507043,
            0.1205052835557414,
            -0.03446368076479418,
            -1.7699454475503686E-05,
            -0.39965059459725016,
            0.4213862628767085,
            -0.4661112299098996,
            0.3669493655650847,
            0.3011081614741386,
            0.15406146271270887,
            -0.40827716769244093,
            0.4828863854119656,
            0.3190029445999268,
            -0.027014043988825055,
            0.49961592304357383
          ],
          "Bias": -0.02557345794285004
        },
        {
          "Weights": [
            -0.13523924051527433,
            -0.13130721821441418,
            -0.2792334978607389,
            0.26981324628295184,
            0.4805668972646132,
            -0.3189523181888453,
            -0.24687009532756513,
            -0.08073910820381763,
            -0.3972361329172011,
            0.12630586562068843,
            0.42511551401096587,
            0.3423686616152285,
            0.14118320278019547,
            0.3741922941141856,
            0.308208683167378,
            -0.12576085496363854,
            0.43659884366440305,
            -0.18764236591568295,
            0.19750170552494198,
            0.38764966761368824,
            -0.21131827153129681,
            -0.07993723256151354,
            0.32326936538691564,
            -0.23894842433708977,
            0.4184778538141743,
            -0.015508032114311517,
            -0.008692020874784417,
            -0.14081482187320887,
            -0.04693751273171743,
            -0.00554497245505709,
            0.11533825959215269,
            0.46577376551989846,
            0.4685908526211215,
            -0.214706214524904,
            -0.04165779110207279,
            -0.05024605105797532,
            -0.28424797563410703,
            0.3963484765839278,
            0.21618589599795543,
            0.3009228733197522,
            -0.39803219644456106,
            -0.03605167596891914,
            0.26310982508977593,
            -0.17833889994003196,
            -0.40945636865620005,
            -0.04831380026932377,
            -0.05357179765900801,
            0.12758033205660918,
            0.4545111319861055,
            -0.2640401339517673,
            -0.4626964945701145,
            0.367367982638735,
            0.19803973279384932,
            0.10232622186917426,
            -0.10288463521149283,
            -0.45346855043069323,
            -0.3855151942694644,
            -0.40700293412632327,
            -0.3500306535496494,
            0.0900217173612488,
            -0.37262378016782005,
            0.2633120919342641,
            -0.09906671671444031,
            -0.042025847847959936,
            -0.2961821027368111,
            -0.4368711239013278,
            -0.4164495029928117,
            -0.33979398135011624,
            0.352643779582456,
            0.276305469806832,
            -0.19390931128829772,
            -0.35121673686150023,
            -0.007317935291662074,
            -0.16889657512708808,
            0.0263705049528035,
            0.33669822197421356,
            0.4696349901519248,
            -0.15666934760518358,
            -0.4736685456761465,
            0.4023032449241672,
            -0.10056352981355324,
            -0.17077490093433267,
            -0.38956503354917676,
            0.3167663145221023,
            0.3021292633325739,
            0.010309398448939851,
            -0.45826420447964217,
            0.3618115440408812,
            -0.40098883716866135,
            0.12750210649569413,
            0.27417923455803006,
            -0.1811226305603132,
            -0.3945296564930304,
            -0.3332721386977765,
            -0.2910236645942076,
            -0.3116156482114037,
            -0.4719205095785793,
            0.40252122954850333,
            0.469469731130722,
            0.48502145981700745
          ],
          "Bias": -0.08577231394476549
        },
        {
          "Weights": [
            0.3172847870316708,
            0.3347140206792125,
            -0.3913547315891319,
            -0.08044147074403586,
            0.024442440162825697,
            -0.26678121678912414,
            -0.2020707943802523,
            0.1848933297057625,
            0.02192834614080101,
            -0.40916659471138556,
            -0.407727105675155,
            -0.452700003751273,
            -0.49353038008166256,
            -0.4212525275819891,
            -0.013768980724761421,
            0.3437537766795402,
            0.18779626783428705,
            0.07921477980943346,
            0.2733064740810118,
            -0.48676662498257167,
            0.3488612637840341,
            -0.3591356900068499,
            0.101295056640994,
            -0.4225199577382563,
            -0.24427721658816598,
            -0.08376439115984306,
            -0.2378173529491615,
            0.32472036477249333,
            -0.17618432560021413,
            0.39419418022273417,
            0.05671408251094163,
            0.031214623811233102,
            -0.08515838080693768,
            0.33609488599898335,
            -0.13315162341015938,
            0.21957218774910017,
            0.1996591354139832,
            -0.35646499173772705,
            0.3315756016468767,
            0.310155876388812,
            0.3960849353422259,
            0.35184874541130684,
            0.0717801165790611,
            -0.2850019510648435,
            0.07270233058004417,
            -0.29090890972363476,
            0.3416559279964417,
            0.38484799926331215,
            0.32933215840707064,
            -0.37066193433283506,
            0.3468014478395869,
            -0.15766003013691784,
            -0.2974914006982186,
            0.0877476012258601,
            0.32960795834549006,
            -0.3144020595053343,
            0.1578861570911959,
            -0.3193571945447618,
            -0.06318024517283606,
            0.40221254310791743,
            -0.13605906850193944,
            0.40883167111123975,
            0.4573635562832031,
            0.043828295503560585,
            0.47713181192114856,
            -0.4112545596499075,
            0.1634003169841738,
            -0.21771095767061177,
            -0.007599387005158145,
            0.28833463331677966,
            0.11085913558441592,
            0.2941438634812975,
            -0.1959277581991982,
            -0.25517301897669964,
            0.2068274930342052,
            0.1709920898727216,
            -0.3766145352145825,
            -0.18950095940783981,
            0.49073864044432386,
            0.3872953678691193,
            -0.1556934154048268,
            0.05982277774320096,
            0.09043937388948292,
            -0.16198164426320746,
            -0.03597686214953542,
            -0.4053129268466383,
            -0.03309073577153704,
            0.4608354367099144,
            -0.065964746087544,
            0.43703685961409433,
            0.20750460078754865,
            0.07321304571005417,
            0.21193635589103796,
            0.3254294793555601,
            0.16478370770088882,
            -0.450163430283788,
            0.059282957799578116,
            -0.4217328675019471,
            0.05572488263651119,
            -0.4413200243471163
          ],
          "Bias": -0.4897294203561562
        },
        {
          "Weights": [
            -0.43717747587226147,
            0.3747102388530281,
            -0.020703786739737315,
            0.05566941829611068,
            -0.38525601114881114,
            0.23428812602795118,
            -0.33545428947069017,
            0.0692621648967531,
            -0.09325434865979698,
            0.10577966528851993,
            -0.22209164552289537,
            -0.05282816581205667,
            0.4084379683304052,
            -0.30212743376849405,
            -0.06220286840547583,
            -0.26998253821123375,
            0.05523480738641965,
            0.031775267733001857,
            0.13305386400116867,
            0.39890919439355854,
            0.3755206160312126,
            0.19941021419302205,
            -0.006712938200665899,
            0.4065484353047176,
            0.09749206689740696,
            0.18899894273414122,
            -0.29564968484848597,
            0.09014947297696352,
            0.18925514466972296,
            -0.06874259799999438,
            0.17955804611729845,
            -0.45409878764647765,
            0.04266561937994521,
            0.48522903130649986,
            -0.11535773078354884,
            0.34735413559479433,
            0.09806165846694341,
            -0.18726846143315526,
            -0.07618521422042673,
            0.14180929280432067,
            0.09121910801764153,
            -0.3563507083827427,
            -0.18493419886274323,
            0.40071409799779983,
            0.007529934379818129,
            -0.34284517821539,
            -0.03990961291226377,
            -0.25205339455005576,
            -0.47748714318799923,
            -0.19881428901555115,
            0.15107178442136474,
            -0.07438341798107077,
            -0.07444413557203171,
            0.449254130549792,
            0.08727190934715712,
            0.39196489426086617,
            -0.17748299702622738,
            -0.1016744734805927,
            -0.028824805002402733,
            0.05584845808240109,
            -0.440074897297583,
            -0.18947390258766195,
            -0.016481535730335617,
            -0.15626172845931868,
            0.24590892536863176,
            -0.14982529944334366,
            0.14190539570951985,
            -0.3948998095722407,
            -0.15397065735234144,
            0.13463297810931363,
            -0.29127735889336276,
            0.42665555905247066,
            -0.36549662346809864,
            0.4106839227158983,
            0.1762343163920173,
            0.39797408995618594,
            0.4071637548924287,
            -0.2948321780622595,
            -0.4067189382989463,
            -0.19049458534141056,
            0.235550230422063,
            -0.29724867143410993,
            0.11513929806486634,
            0.4918249962375073,
            0.45101346089101246,
            0.2463854846447387,
            -0.2770744215250821,
            -0.1992552757582447,
            -0.4679417764345427,
            0.3520222531372197,
            -0.4940070177939769,
            -0.4644881169476234,
            0.2057977342824586,
            0.1103081313048491,
            0.12276081268083776,
            0.3490652367654725,
            0.1857061708107923,
            0.37022103973181036,
            0.4164371242077213,
            0.009204651545887515
          ],
          "Bias": -0.24664228581428274
        },
        {
          "Weights": [
            -0.31427459193540314,
            0.31591532566417396,
            0.4848830080876497,
            0.2047499768237038,
            0.2952621343330292,
            -0.035388051355840375,
            0.24893400134709312,
            -0.2770568460637285,
            0.3030697368010956,
            0.494170918175084,
            0.3328239008612874,
            -0.06594469691983987,
            0.22182126590086867,
            -0.22467476230772937,
            0.4503112315411061,
            0.40541298680759746,
            -0.2791620472885323,
            0.4273800882952128,
            0.020443316056729652,
            0.0098937063798097,
            -0.3344823121611024,
            0.24835222797004902,
            -0.34166974886373275,
            0.3052931012260629,
            -0.2593321440768408,
            0.13688622090600788,
            0.4037585415178119,
            0.3451639908374877,
            0.0732102286298006,
            -0.06221227519835017,
            0.06796591233088414,
            0.20169906154515252,
            0.48302594197304344,
            0.05616066224023356,
            0.12089657945949345,
            0.33281840215195463,
            0.39543301485407334,
            0.31468710190034815,
            -0.07258572857241041,
            0.17731811586886598,
            -0.3776717761631526,
            -0.16272126435950218,
            0.20388185607274495,
            -0.2665697344460558,
            -0.2947847451250843,
            -0.4073055452714172,
            0.10891938008639401,
            0.026022219157614466,
            -0.11157689760125633,
            0.12602922099062033,
            0.2665646854713546,
            0.30673090678217235,
            0.05581804394568045,
            0.23030987880222864,
            -0.1936312859777923,
            -0.3082538994517054,
            0.027378909227710697,
            -0.09703236875002572,
            -0.3071954692395527,
            -0.1524738199213053,
            -0.26731244068797605,
            -0.0826245624768961,
            0.010531956355331584,
            -0.18860216896155202,
            0.1726591645189211,
            0.07148071040708154,
            0.28226450388683,
            -0.14178970936026974,
            0.12138437399195795,
            -0.3627699167895385,
            0.4424958070689387,
            -0.40268368847505537,
            0.11762925596656197,
            0.10639917691361067,
            -0.3369793906446536,
            -0.3236745506028902,
            -0.23611012259023859,
            0.4030804237283138,
            0.15809850272145015,
            0.42910252029882767,
            0.21386766281578937,
            0.4847442345305327,
            -0.2659784036225538,
            -0.31309018948298495,
            -0.4860327228447157,
            0.0028454589224854027,
            0.13692099229581942,
            -0.4058114067195877,
            -0.1903302503691204,
            0.2730713802102917,
            0.25648073269233895,
            -0.47191482356599657,
            -0.42446006533442476,
            0.10156047220747252,
            0.25907211601364055,
            0.36605050146936113,
            -0.11988906537578302,
            -0.44458622675759457,
            -0.27165244992701,
            0.3646283960191847
          ],
          "Bias": -0.2172526821646024
        },
        {
          "Weights": [
            -0.25250811699448655,
            0.30848537782381663,
            -0.28920943855783565,
            0.14929084778987037,
            0.06337665419577783,
            -0.3121871167113858,
            0.2042621946452699,
            0.052016297190913635,
            -0.18977411460732613,
            -0.3558368996825067,
            0.15376940921379637,
            0.16895310377694972,
            0.32059815335470054,
            0.45510378809212404,
            -0.03107930776954933,
            0.49033037867369916,
            -0.1271140543064008,
            0.3684276099999442,
            0.1609223802759843,
            -0.30567417747579906,
            -0.4009796531318292,
            -0.31322314593733647,
            -0.43554044468749314,
            0.08721521139258294,
            -0.19465010946406816,
            0.02692347296662837,
            0.23186931421248064,
            -0.37060924473628043,
            -0.04871645865952563,
            0.18053282322586853,
            -0.10804684905954148,
            0.4255231625826953,
            0.17717856430717555,
            -0.31944009673508694,
            -0.12195939589676226,
            -0.3058849418682799,
            0.24667708285806436,
            -0.07979894324241273,
            -0.48332505266566655,
            0.4861994664681471,
            0.4891299636379523,
            -0.14232780494365913,
            -0.30434039135043583,
            -0.3111078143930876,
            0.43590387149587334,
            0.21954744105422822,
            0.09306980897130553,
            -0.2937913379802326,
            0.26167044050819593,
            0.27597359086696543,
            0.43450143338126185,
            -0.2760993749754881,
            0.22356861144671578,
            -0.4832812928531353,
            -0.33711163690410745,
            -0.18365497717145807,
            -0.12735808994941186,
            -0.4114029554717284,
            0.06604302959753236,
            -0.27925432284757357,
            -0.45256609461254205,
            -0.36377307221120103,
            -0.09757240961016696,
            -0.40027682211250676,
            0.16843471124820372,
            0.105532289868124,
            -0.07278047168145044,
            -0.16263899717964697,
            0.37835707174788047,
            -0.3275832389451748,
            0.08507094535333971,
            0.15479659594097098,
            -0.15916036508903403,
            -0.27941299249383544,
            0.2953733532003577,
            0.11516829310490619,
            -0.011851247367202378,
            0.0025383988095160756,
            0.06859091333202888,
            -0.18094154781564165,
            -0.17657750871433187,
            0.23215073290593694,
            0.48387901422290863,
            0.03527897927332562,
            -0.03817476788409684,
            0.13947952331167068,
            0.1378665701993218,
            0.37343804300735856,
            0.209154069774139,
            -0.16103311757975533,
            -0.4621113165587292,
            0.14468783037770375,
            0.02037665393287099,
            0.10376807390655794,
            0.21716200101564742,
            -0.2621741528571238,
            -0.3368726397075332,
            -0.32011777727342705,
            -0.20508916268569247,
            0.2640770480870006
          ],
          "Bias": -0.30912187968228894
        },
        {
          "Weights": [
            -0.21419595703770722,
            0.4304542298545855,
            0.0051093621390691036,
            -0.2989822445682684,
            0.17583894757154944,
            0.415699131546542,
            0.42959718894226817,
            -0.21345340624125922,
            0.41377460807849575,
            -0.2527625114021925,
            -0.07807708789932986,
            0.18656267269039178,
            -0.1356819321749495,
            -0.14238918801853628,
            0.325442096175601,
            -0.35577807169757136,
            -0.1846265417211203,
            0.014301651554224944,
            -0.4037796871164882,
            -0.19298109841962782,
            0.450557579878678,
            -0.48669474024956655,
            -0.21226498996336568,
            -0.4380643968280579,
            0.21787981352960648,
            0.1686843514439108,
            0.17193763309098334,
            0.20020633751037326,
            0.0802688854315013,
            0.37495270048996376,
            -0.029852252488801186,
            -0.003471624430911001,
            0.14708479601108554,
            0.4590933084478813,
            0.24918032728490097,
            0.4470753399647862,
            0.2822145470993409,
            0.14608171804759207,
            -0.3208275731055299,
            0.3917245889479771,
            -0.251781408939753,
            -0.17198413507744775,
            0.05138743862145078,
            -0.3790270354003092,
            0.2347446257306175,
            0.21366092833269365,
            0.4630186082665513,
            0.07998574768059029,
            -0.04934530132077815,
            -0.10542639784028326,
            -0.06768885216724381,
            0.48021673427116573,
            -0.10579194420322323,
            -0.10122530374702025,
            -0.3728330750667218,
            0.08523993123160874,
            -0.25761379823151753,
            0.47966024248877936,
            0.17676422464234204,
            0.04281713626672515,
            0.4118840382225032,
            0.4720191630957434,
            0.2061414649517124,
            -0.3788218499975026,
            0.3042665189321543,
            -0.09870980063338199,
            0.23125345706081984,
            0.04431565395328713,
            -0.16300311114029212,
            -0.19858854741491533,
            0.47275721635600726,
            0.33591953235406796,
            -0.444522694005265,
            0.07378468253522504,
            -0.026739492936278444,
            0.13430173137102958,
            0.22153480704382952,
            -0.46641459024127135,
            0.09433105309040649,
            0.2613715659665952,
            0.4102128243250167,
            -0.435193460608122,
            0.2719939367271708,
            -0.38875186221319413,
            -0.014547698581993215,
            0.18417702572823252,
            0.36225694355470384,
            -0.3981984064860723,
            0.011695964242326932,
            -0.4914453303131264,
            -0.47202861606801033,
            0.12819077560933267,
            0.3922362080883225,
            0.22311082628281428,
            -0.3657610469333649,
            -0.4674236739861352,
            0.4625884702693337,
            -0.18749694415467405,
            -0.024977895505871137,
            0.20660253607561177
          ],
          "Bias": 0.08436609414742595
        },
        {
          "Weights": [
            -0.4393531893076316,
            0.0010518774077827562,
            0.01886189801578652,
            0.12293417466933271,
            -0.22396388727764313,
            0.2624907811809521,
            0.006332174697118197,
            -0.37055429939380635,
            0.035674114028549225,
            0.17004529731216758,
            0.2039401292903039,
            -0.12804006502550108,
            0.35404471334183746,
            -0.398764740009691,
            -0.4796398336630511,
            -0.3821591783794585,
            0.28991667804426885,
            -0.42318244201128996,
            0.15350840728778486,
            -0.26364455444919255,
            -0.166313408125321,
            0.28738570525622337,
            -0.2710259490339883,
            0.35114558151000635,
            0.21866522361900287,
            0.3031670649647802,
            0.04415760784698147,
            0.040663088958437184,
            -0.0022556602179581893,
            -0.4940787912670757,
            0.24660104016501402,
            0.43711709033570606,
            -0.014034539795499885,
            -0.34543024435717407,
            -0.15773689275604544,
            0.131892799389335,
            -0.2386367677413253,
            0.1099968688725636,
            -0.06182065837003086,
            -0.22575584474143928,
            0.0026114487831640364,
            -0.33954316877445734,
            -0.4456731132388659,
            0.38472209472769925,
            0.03801589720880204,
            -0.24886553520095067,
            0.34044083354201155,
            0.08048406135173011,
            0.486088986323392,
            -0.20696877663351188,
            -0.21958384409300588,
            0.39991496880483957,
            0.2768613279450856,
            0.16455891847635568,
            -0.28580240131250145,
            0.06707730569548899,
            -0.37556245711263736,
            -0.07981246979414004,
            -0.12134050014486478,
            -0.21026699611937452,
            0.4324040488363979,
            0.006654327015615418,
            -0.3015671557423991,
            -0.10498182109998286,
            0.34139116261565566,
            0.16405641152755193,
            0.36766280145039026,
            0.4301589256763886,
            0.037541470838972975,
            0.04220374048645308,
            -0.06988398941469709,
            0.06445521054802363,
            0.11218498767802405,
            -0.028152945698361718,
            0.2138290055552905,
            -0.20919994995406077,
            -0.2631402573938071,
            -0.14277343753267624,
            0.3672501008898549,
            0.21196874260889048,
            -0.4309120041699321,
            -0.4799129958985945,
            0.03357992393206979,
            0.29903660839037793,
            0.08307737501058103,
            -0.23605147457091893,
            -0.19112425143291875,
            -0.31912329849318627,
            -0.32863362146349473,
            -0.3041646459420149,
            -0.1593579993396952,
            0.036916127291788614,
            0.025546571693142367,
            -0.390681132189025,
            -0.46275425616830423,
            0.04415200349291982,
            0.2602391975509464,
            -0.2952928155031777,
            -0.22001152260617304,
            0.06748564967850995
          ],
          "Bias": 0.29105967942292976
        },
        {
          "Weights": [
            0.2171231847806338,
            -0.3207066797087725,
            0.17973348506033676,
            -0.07145951130761119,
            0.39883199474779857,
            -0.283896005804029,
            0.4337970331001555,
            0.19540169923459136,
            -0.4981858692368976,
            -0.2952264290285804,
            -0.21437863592387146,
            -0.11603765975371734,
            0.003257229561977957,
            0.18771085377578353,
            0.0816927969514903,
            0.2321989837140011,
            0.40464685942430956,
            0.2070383993282099,
            -0.17311799065001843,
            -0.004021839231625911,
            0.49542271744728145,
            -0.37505586788464135,
            0.04629608834800006,
            0.034305899967953586,
            0.09126057598766293,
            0.4280993561449012,
            0.49370318936875435,
            -0.49738140874586984,
            -0.026268520985997027,
            0.004222929699425891,
            -0.4802431858603652,
            0.042906171287865655,
            -0.04962648461973167,
            0.24478191090542506,
            -0.3022867994465978,
            0.07501226264473204,
            -0.45014899554844917,
            0.18170954504549994,
            -0.40270789968478415,
            0.0018217826258647677,
            0.11524030371906224,
            0.00042726474763051924,
            -0.1695266839596207,
            0.013050248117163257,
            0.08662414863420896,
            -0.07939471511906855,
            0.3394518366502062,
            0.2447991011370299,
            -0.36186092575008916,
            -0.041688023143776565,
            0.15198387705073613,
            -0.4422945001182118,
            -0.30396181708962905,
            0.17168366658300666,
            -0.0896373422172987,
            0.19229807158758241,
            0.4704931135379258,
            0.4125033820684003,
            -0.04374157837819622,
            0.18451352914217445,
            -0.307940643641161,
