{
  "Layers": [
    {
      "Neurons": [
        {
          "Weights": [
            0.056560217216670164,
            -0.2682862276622444,
            0.31226228046694554
          ],
          "Bias": 0.27813717333440563
        },
        {
          "Weights": [
            -0.14033209312864706,
            0.2016922401762922,
            -0.28986573999667997
          ],
          "Bias": -0.17046339896182283
        },
        {
          "Weights": [
            0.4052751079779454,
            0.42180677465235134,
            0.09422381283892885
          ],
          "Bias": -0.03835337883040963
        },
        {
          "Weights": [
            -0.12667002082884143,
            -0.29092684045478445,
            -0.48727428912674503
          ],
          "Bias": -0.05168665846439998
        },
        {
          "Weights": [
            0.3236283845486192,
            -0.0404057309811714,
            -0.4347516588499076
          ],
          "Bias": 0.0887307268184343
        },
        {
          "Weights": [
            0.4962593629996518,
            -0.30901010902582815,
            0.7426288468406386
          ],
          "Bias": 0.10081702674299904
        },
        {
          "Weights": [
            -0.6384512394988535,
            0.6945541952895613,
            0.3609947439630343
          ],
          "Bias": 0.1410914756620728
        },
        {
          "Weights": [
            0.5882876117875341,
            0.34484786126754324,
            -0.6063977252112193
          ],
          "Bias": 0.2368817830213343
        },
        {
          "Weights": [
            0.33896482473056244,
            -0.3776112648353064,
            0.05450372029793404
          ],
          "Bias": 0.37403518762398813
        },
        {
          "Weights": [
            0.3630924251516151,
            -0.16838359690501306,
            -0.42392030704226386
          ],
          "Bias": -0.2574791478850651
        },
        {
          "Weights": [
            0.16854399621836197,
            0.7705499810788322,
            0.22444023292661586
          ],
          "Bias": 0.15146780703941276
        },
        {
          "Weights": [
            -0.018813105565277165,
            -0.11638098098329368,
            -0.49435020471152996
          ],
          "Bias": -0.3327845422341699
        },
        {
          "Weights": [
            -0.7997345937819533,
            -0.4469431970403812,
            -0.39427038733099307
          ],
          "Bias": 0.15329518298397274
        },
        {
          "Weights": [
            0.19980167113208014,
            -0.17590795383928007,
            0.2593834182232994
          ],
          "Bias": -0.24273067707200652
        },
        {
          "Weights": [
            0.29544747765715706,
            0.15125134933323472,
            0.7880354476751393
          ],
          "Bias": 0.37919319939807977
        },
        {
          "Weights": [
            -0.32309043644070656,
            -0.4559406191464321,
            -0.1366585125985522
          ],
          "Bias": 0.037964415013995785
        }
      ]
    },
    {
      "Neurons": [
        {
          "Weights": [
            0.6300750453150757,
            0.31588045466189507,
            0.6392668823855235,
            -0.5818905455579392,
            -0.4467167410814153,
            0.17842539194312385,
            0.39530633315064556,
            -0.3772532448259473,
            -0.4165417415636924,
            0.23711248193519419,
            0.5170344214040388,
            -0.4034595261132154,
            -0.12301258700893107,
            -0.03133129722612038,
            0.5503976203012086,
            -0.3114739980109519
          ],
          "Bias": 0.459703189701483
        },
        {
          "Weights": [
            0.3309949503382261,
            -0.06448730021511458,
            -0.09866535228643888,
            0.12385383652922755,
            0.03422611548241263,
            0.2206359545020482,
            -0.2666044205620015,
            0.17217833133753377,
            -0.021406199142701046,
            -0.045068323659264026,
            -0.3278271965707237,
            -0.11899243704181355,
            -0.2841485228849967,
            0.3399818455976933,
            0.16730564273298526,
            0.19551928344039554
          ],
          "Bias": 0.4445807111813507
        },
        {
          "Weights": [
            0.4547649041040954,
            -0.3388106930104237,
            0.2288026490820532,
            0.4433208812459225,
            0.11524046172874532,
            -0.3946808108351345,
            0.06516756826530372,
            -0.04100098742395374,
            -0.3189009925831916,
            0.45668873571039975,
            -0.5791659086777184,
            0.5291020227030029,
            0.019555850550505422,
            -0.16222314480193126,
            0.42359978605507576,
            0.1685360835700982
          ],
          "Bias": -0.37752270978384833
        },
        {
          "Weights": [
            -0.1049516406167771,
            0.020194530881618402,
            -0.038693557940829425,
            -0.17549555200981717,
            -0.2883283865784196,
            0.2823805991172786,
            0.22875528005460477,
            -0.2418144015134352,
            -0.4738773645608394,
            -0.38534676944380886,
            -0.06375327982079507,
            0.1426162788564826,
            0.5395223267077702,
            -0.2840295573675608,
            0.3692801446130004,
            0.20001867295048656
          ],
          "Bias": 0.49637604926277323
        },
        {
          "Weights": [
            -0.008716233960791533,
            0.14230490003134222,
            0.07909496855704798,
            -0.08581640539748969,
            0.23196601992202862,
            0.11388857575655537,
            -0.3764078507427146,
            0.3487325676988902,
            -0.22989308796334573,
            -0.04005351181717018,
            0.06933747206175504,
            -0.15053992408864342,
            -0.2488596221911105,
            0.10191134792289061,
            -0.4251756997638254,
            0.1658517999120296
          ],
          "Bias": -0.27403531643740076
        },
        {
          "Weights": [
            -0.10687750285788701,
            -0.29278677655658436,
            -0.14755266693018287,
            0.20220226020343984,
            -0.25255313389532913,
            0.5151914623978677,
            0.2380931010035112,
            -0.5351489520054848,
            0.3450011036937481,
            -0.4418395234857041,
            -0.2242124722968968,
            0.45660942611142663,
            0.2393994480643892,
            0.22634403689300234,
            0.3182404737194336,
            0.15555458186496426
          ],
          "Bias": 0.5161545959691927
        },
        {
          "Weights": [
            0.5750401147371293,
            -0.10583211861589949,
            0.2538125266794474,
            0.34159773692124384,
            -0.10461400143471576,
            0.40084991840867656,
            -0.02355170335620365,
            0.08756143045601233,
            -0.29039853290964757,
            0.46733168303924577,
            -0.37685315286747995,
            0.21980889163362297,
            -0.1320495271991242,
            -0.06255216982887504,
            0.5727865493617639,
            0.2519128939741586
          ],
          "Bias": 0.4012170525032338
        },
        {
          "Weights": [
            0.40523606051874594,
            -0.3643664102794253,
            0.4010809597618799,
            0.1470499828141986,
            -0.17614064213790384,
            -0.2326361636531886,
            0.04539564642323474,
            -0.04530870608542573,
            -0.5003867702828332,
            0.3960017717538185,
            -0.3272153506688564,
            0.030402648473129575,
            -0.5635267895853541,
            -0.11967896406991725,
            0.09749496059842175,
            -0.33088217702210393
          ],
          "Bias": -0.4230248745228657
        },
        {
          "Weights": [
            0.4178700579014385,
            -0.3716162142273491,
            -0.09113701681443398,
            -0.2073710530562918,
            0.3058203216165462,
            -0.2239777985902799,
            -0.27186217600825235,
            -0.005409036371617078,
            -0.13994304170286487,
            0.37106867533361404,
            -0.19926947942460693,
            -0.47293746671753556,
            -0.21489569043454532,
            0.4852540187290422,
            -0.3327176388781838,
            -0.3066516243282588
          ],
          "Bias": -0.19235811396945568
        },
        {
          "Weights": [
            0.3349368359845547,
            0.536709791575694,
            0.3110549581228184,
            -0.019922871949390714,
            -0.024957155599050894,
            0.17039244498177863,
            -0.5543867612923563,
            -0.20744952726173455,
            -0.43235690099529434,
            0.31602594611674645,
            0.3051821529009812,
            0.15984802621160984,
            0.41632450775306096,
            0.2769734447462566,
            0.056577237145055075,
            0.10627092846983555
          ],
          "Bias": 0.10217532226609538
        },
        {
          "Weights": [
            0.15749429397742776,
            0.011015893686585263,
            -0.09035402894809792,
            0.4867820166427433,
            0.1212972277334637,
            0.4001606043862839,
            -0.0909050148071448,
            0.12077629836188737,
            0.3335578352003519,
            0.4379136796463141,
            -0.3752605555754275,
            0.3284756166351042,
            -0.27447555658449285,
            -0.4158774966972284,
            -0.4964054912948486,
            0.40270066376797437
          ],
          "Bias": -0.18107548881717433
        },
        {
          "Weights": [
            0.2788188860416324,
            -0.03742133056191463,
            0.2825721002219227,
            0.04168507694659465,
            0.08564019307371204,
            -0.6102014386938658,
            0.6583241728570872,
            -0.05528264170726326,
            -0.4390898712315215,
            0.3500888895392467,
            -0.12892245065563315,
            0.6478004746688786,
            0.6756743852393025,
            0.12995797079020355,
            -0.03210287948611385,
            0.5680827855424612
          ],
          "Bias": 0.29847934141639454
        },
        {
          "Weights": [
            -0.2638430776732498,
            -0.05501856238140524,
            -0.0644310967074954,
            0.34272389778261925,
            -0.4883914076122131,
            -0.4684104525550715,
            -0.3841030142199378,
            -0.3809500108103097,
            -0.40901540213161874,
            0.18832836551341772,
            0.164746351675672,
            0.176067404326833,
            -0.19811569874012766,
            -0.08162961260545483,
            0.2465381963002967,
            -0.05322486110592511
          ],
          "Bias": -0.2207357296421186
        },
        {
          "Weights": [
            -0.32813770270569437,
            -0.3493163901471327,
            -0.4140020731047989,
            -0.3155664873711535,
            0.023028697572916146,
            -0.09517382971232523,
            0.6069104919713609,
            0.5787271273991687,
            0.09041992241455989,
            -0.29599900906963855,
            0.3308958752671785,
            -0.3863116020358149,
            0.22482732773376385,
            -0.11579126675476231,
            -0.1516079979678345,
            0.12143788732181982
          ],
          "Bias": -0.0332160513348644
        },
        {
          "Weights": [
            -0.31841540680567104,
            -0.3351185068996718,
            0.17130873662902146,
            -0.29239024029732985,
            0.2789402257333519,
            0.5670873804376307,
            0.038889105145222425,
            0.6499734949565976,
            0.3484977147527307,
            -0.19924165929553478,
            0.4472038930209899,
            0.42130076348379214,
            -0.2154871955161486,
            -0.31822456678458666,
            0.11092711293713789,
            -0.3765372598891516
          ],
          "Bias": 0.43889145493772397
        },
        {
          "Weights": [
            0.27148275643712994,
            -0.25695449994835634,
            0.1491138632068708,
            -0.12036762887177589,
            -0.01102714529077826,
            -0.17623268643343606,
            0.5614627253923601,
            0.18502974725472732,
            -0.1255233631146093,
            0.04174249637900916,
            -0.19488368456289076,
            -0.03451390031635509,
            0.2107936781403985,
            -0.3380799777385825,
            -0.39745016465787514,
            -0.3475823271877584
          ],
          "Bias": -0.4491927265438447
        }
      ]
    },
    {
      "Neurons": [
        {
          "Weights": [
            -0.032767485481836,
            0.31713417871736943,
            0.19075507200010536,
            -0.6778497218875971,
            -0.2854523128240809,
            -0.37491840350942296,
            0.332716450943001,
            0.24300943112834061,
            -0.39672939849583544,
            0.09607113376689357,
            -0.14324913471187115,
            -0.9920985341844767,
            0.29580907310689597,
            -0.4237339779812933,
            0.7291869705725439,
            -0.4712626882777681
          ],
          "Bias": -0.023815710385404216
        },
        {
          "Weights": [
            0.6078352683427065,
            -0.5727043108769191,
            -0.5952989446945622,
            -0.24240314202449081,
            0.03229297603685761,
            -0.4654842102000615,
            -0.47174698903341683,
            0.4959073323435112,
            0.1517373124570863,
            -0.5528599135202067,
            -0.29384681245151095,
            -0.008813972955517915,
            -0.4881490921245523,
            0.4624862487449375,
            0.2344870012055277,
            0.29829704794647655
          ],
          "Bias": 0.19361819654734225
        },
        {
          "Weights": [
            0.5911880323535339,
            0.14091511001892318,
            -0.19352926880232882,
            -0.08575977721469549,
            0.0643152503395556,
            0.5569300870999381,
            0.0641607853265837,
            0.2257968810101831,
            -0.280609834458008,
            -0.5730392729470591,
            -0.5776668518843545,
            -0.7317872061624,
            0.018964920989409256,
            -0.26040213500396275,
            -0.3267817812435103,
            -0.5930957419584274
          ],
          "Bias": -0.3418945222230687
        }
      ]
    }
  ],
  "NeuronType": "MlNetworkTraining.TrainingNeuron",
  "LayerType": "MlNetworkTraining.TrainingLayer",
  "NetworkType": "MlNetworkTraining.TrainingNetwork"
}