{
  "Layers": [
    {
      "Neurons": [
        {
          "Weights": [
            0.0935311662116397,
            0.08364081110890376,
            0.21957065681453392
          ],
          "Bias": 0.047352306858909565
        },
        {
          "Weights": [
            -0.24283195440698713,
            -0.14680547988002968,
            0.2568761714059108
          ],
          "Bias": -0.28580999879375657
        },
        {
          "Weights": [
            0.4085998703307465,
            0.37387598970798175,
            0.21110364082326116
          ],
          "Bias": -0.1238930876577129
        },
        {
          "Weights": [
            -0.22670086479952156,
            -0.2795771147239495,
            0.18783451288922326
          ],
          "Bias": -0.47547366376372
        },
        {
          "Weights": [
            -0.07094260691295928,
            -0.04123689948038434,
            0.18144938138670397
          ],
          "Bias": 0.08667296106653444
        },
        {
          "Weights": [
            -0.0009337715278124881,
            -0.19391882371277214,
            -0.25831853325413945
          ],
          "Bias": -0.03966252898777278
        },
        {
          "Weights": [
            -0.1471423523794969,
            -0.4132139326274147,
            0.0872811563836734
          ],
          "Bias": -0.37938224274016896
        },
        {
          "Weights": [
            -0.08243965584575952,
            0.16206394188496065,
            0.3239604872872188
          ],
          "Bias": 0.13643868432546635
        },
        {
          "Weights": [
            0.032274074609471626,
            -0.34133606433138264,
            -0.17612208805321095
          ],
          "Bias": 0.40549379552972176
        },
        {
          "Weights": [
            0.21249423641592224,
            0.014773819114135223,
            0.37878165883507253
          ],
          "Bias": -0.042759655433227794
        },
        {
          "Weights": [
            0.21729646699384164,
            -0.39846156527538845,
            -0.1317267126005024
          ],
          "Bias": 0.25382885129480093
        },
        {
          "Weights": [
            -0.04007361025489842,
            -0.13932411954658397,
            -0.48304647888523655
          ],
          "Bias": 0.46823274829979655
        },
        {
          "Weights": [
            -0.2942727550754425,
            0.24022022630618056,
            0.4126331914705701
          ],
          "Bias": -0.1425561959621734
        },
        {
          "Weights": [
            0.3430465601201592,
            -0.43116821250344994,
            -0.07491787524524185
          ],
          "Bias": -0.16512753972821614
        },
        {
          "Weights": [
            -0.36674399031011495,
            -0.2811641847620916,
            -0.4049676879048091
          ],
          "Bias": -0.48811871926104433
        },
        {
          "Weights": [
            0.1575947674885081,
            0.30786709002683843,
            0.4058983475178154
          ],
          "Bias": 0.35357279408040887
        },
        {
          "Weights": [
            -0.00048477878878472325,
            0.10993114717877117,
            -0.07623084828199489
          ],
          "Bias": -0.07990830039884989
        },
        {
          "Weights": [
            0.08055482179784523,
            0.4028091488429062,
            0.31848467738478836
          ],
          "Bias": 0.06441797457239429
        },
        {
          "Weights": [
            0.3482809782750994,
            -0.1967352419808095,
            0.3427479533807595
          ],
          "Bias": -0.39190429501983925
        },
        {
          "Weights": [
            -0.39500776570498797,
            0.13001327640126992,
            -0.1730952268643432
          ],
          "Bias": 0.45363484420140954
        }
      ]
    },
    {
      "Neurons": [
        {
          "Weights": [
            -0.27245199110131035,
            0.09315335852113071,
            0.37065106092262323,
            -0.385186146128752,
            0.03796900875314102,
            -0.2016922768897419,
            -0.14897493091813785,
            -0.26541009526018544,
            -0.1258785374955811,
            -0.10740507908716201,
            -0.4256131750654992,
            -0.004223809237636544,
            0.2322197725948687,
            0.4448199709603702,
            -0.2621642296439902,
            -0.25753199367454516,
            -0.33823361726645373,
            -0.03537157815031444,
            -0.38900905272032393,
            0.033270968410059276
          ],
          "Bias": -0.09193974272235195
        },
        {
          "Weights": [
            -0.04225380494248143,
            0.1420615701419189,
            -0.38222047468179,
            -0.28372286731617713,
            -0.48886240822571836,
            0.3920891797058359,
            -0.1955222414838691,
            0.18816041789263493,
            0.34512756312423765,
            -0.4778578198769602,
            0.2697309703047316,
            -0.1218610721903648,
            0.21054076100761354,
            0.4576666032083381,
            0.18177583745802162,
            -0.31172320949615095,
            0.4819274849513,
            -0.2949041478652573,
            0.12950600092364517,
            -0.39224460678419104
          ],
          "Bias": 0.46953502241797884
        },
        {
          "Weights": [
            -0.41602285827766705,
            -0.08413582653285756,
            0.3111466611806304,
            0.48623738774862213,
            -0.4326972036746073,
            0.47316793689484393,
            0.22306866151457994,
            0.17107926957037978,
            -0.10513671303137717,
            0.49122416404850433,
            0.018651885364048493,
            -0.4530140772352065,
            0.03312543643562793,
            0.23952113763325045,
            0.1264760913899342,
            0.09222601291266241,
            0.29892361109580057,
            0.046935623720649966,
            0.12028262742986973,
            -0.3532575965751843
          ],
          "Bias": -0.1793476243064167
        }
      ]
    }
  ],
  "NeuronType": "TrainingMl1_58.TrainingNeuron1_58",
  "LayerType": "MlNetworkTraining.TrainingLayer"
}