{
  "Layers": [
    {
      "Neurons": [
        {
          "Weights": [
            -0.06250553823631601,
            0.23670118040220509,
            0.15363603453044272
          ],
          "Bias": 0.09294761841146858
        },
        {
          "Weights": [
            -0.34928334173670794,
            -0.3675794914935106,
            -0.27091956418065266
          ],
          "Bias": -0.3142690257893707
        },
        {
          "Weights": [
            0.10700769525080918,
            -0.3883955546252242,
            0.44723564892280826
          ],
          "Bias": 0.08152280826069323
        },
        {
          "Weights": [
            0.02819920330629327,
            0.4427875394553118,
            0.39935860881508384
          ],
          "Bias": 0.0527136151328955
        },
        {
          "Weights": [
            -0.09728190691271185,
            -0.29602891755326144,
            0.17441226274149974
          ],
          "Bias": 0.15270264123785462
        },
        {
          "Weights": [
            0.28415569493187454,
            0.4558530287635922,
            -0.2167167599667731
          ],
          "Bias": 0.35998501927976667
        },
        {
          "Weights": [
            0.25934453369289384,
            0.1523377208808377,
            0.4465135538062729
          ],
          "Bias": -0.003411398184887152
        },
        {
          "Weights": [
            -0.3358279294046633,
            0.44863370086348625,
            -0.3796065421689462
          ],
          "Bias": 0.4349910572835554
        },
        {
          "Weights": [
            0.006529763467532931,
            -0.489077894012537,
            -0.2498569647311877
          ],
          "Bias": 0.3377701289060595
        },
        {
          "Weights": [
            -0.2036598357532412,
            -0.07800991366497181,
            -0.29250320411845415
          ],
          "Bias": 0.38297486197505837
        },
        {
          "Weights": [
            -0.2898798727366124,
            0.2669162607787178,
            0.43052335551865134
          ],
          "Bias": 0.28790392706069545
        },
        {
          "Weights": [
            0.1943427835993363,
            0.4758916840962348,
            0.029020935139209374
          ],
          "Bias": 0.1276345395798861
        },
        {
          "Weights": [
            -0.4816243136044866,
            0.10941956428673057,
            -0.17306871999150514
          ],
          "Bias": 0.0033547001792515263
        },
        {
          "Weights": [
            0.029210492379870678,
            -0.2975564015576438,
            -0.4466914030178203
          ],
          "Bias": 0.41518402941823185
        },
        {
          "Weights": [
            -0.20157127844608191,
            0.2057729549956144,
            0.3937731777607671
          ],
          "Bias": 0.44179905883340026
        },
        {
          "Weights": [
            -0.3237828122424031,
            -0.10821422824826964,
            0.4469021833101228
          ],
          "Bias": -0.2990705912047537
        },
        {
          "Weights": [
            -0.12278283526408319,
            -0.13341305054947938,
            -0.3015648883844631
          ],
          "Bias": -0.4461557719313366
        },
        {
          "Weights": [
            -0.13660504082183186,
            0.08414503003751794,
            -0.43618389261163576
          ],
          "Bias": 0.36596000302513576
        },
        {
          "Weights": [
            0.3702184839346908,
            0.3984716792512853,
            -0.0015109116981831328
          ],
          "Bias": -0.4471914751720254
        },
        {
          "Weights": [
            -0.322606693887448,
            0.15766401026191632,
            0.24454993447303916
          ],
          "Bias": -0.07464296789382381
        },
        {
          "Weights": [
            -0.3219201192860486,
            -0.4096696182454051,
            0.36126956035796304
          ],
          "Bias": 0.340974054746603
        },
        {
          "Weights": [
            -0.1616554543165889,
            0.24738217173535362,
            0.41578355109468923
          ],
          "Bias": 0.35308142474243726
        },
        {
          "Weights": [
            0.25982363168805905,
            -0.2437362305737612,
            0.4671471040617358
          ],
          "Bias": 0.41081104979149796
        },
        {
          "Weights": [
            -0.12497286949293046,
            -0.2216059398305251,
            0.4728920670721905
          ],
          "Bias": -0.13495729691460726
        },
        {
          "Weights": [
            -0.3692851282189062,
            0.44713563756676444,
            0.17258343924521136
          ],
          "Bias": 0.3955715318191376
        },
        {
          "Weights": [
            -0.015565555182029305,
            -0.3358341978136718,
            -0.007369067280889226
          ],
          "Bias": 0.24109381321292242
        },
        {
          "Weights": [
            -0.2841007978387771,
            -0.1409119733748777,
            -0.3839461980690523
          ],
          "Bias": -0.34626695831919235
        },
        {
          "Weights": [
            0.4168999619646834,
            0.4237821955871076,
            -0.13793719776491223
          ],
          "Bias": -0.39038794799601745
        },
        {
          "Weights": [
            -0.14532579870374593,
            0.0736880517472041,
            -0.21707363088652584
          ],
          "Bias": -0.18111086883448382
        },
        {
          "Weights": [
            0.485772449226611,
            -0.43931746284244383,
            -0.40285993397463393
          ],
          "Bias": 0.1233946324419083
        },
        {
          "Weights": [
            -0.3588543047390218,
            -0.030131767025424774,
            -0.1310058348008709
          ],
          "Bias": -0.06493902168994452
        },
        {
          "Weights": [
            0.4747768009564009,
            -0.40793906532021285,
            -0.3768693755572718
          ],
          "Bias": 0.104566369353742
        },
        {
          "Weights": [
            0.1524421961370114,
            -0.3415546800622568,
            -0.2784860125196117
          ],
          "Bias": 0.26587735114404976
        },
        {
          "Weights": [
            0.09286571032296237,
            -0.2408603507923696,
            0.10719838138485313
          ],
          "Bias": -0.39123972382676464
        },
        {
          "Weights": [
            0.2757443009489024,
            0.2698193128327825,
            -0.3977008915387127
          ],
          "Bias": 0.023304644727212703
        },
        {
          "Weights": [
            -0.24327304854772067,
            0.0037188699035436068,
            -0.2513106610698185
          ],
          "Bias": -0.4115166502578361
        },
        {
          "Weights": [
            -0.1891488758733066,
            -0.2677794114905298,
            0.07947029650383573
          ],
          "Bias": 0.45941458101506355
        },
        {
          "Weights": [
            0.417955041748339,
            -0.027940342815250378,
            0.498195723386507
          ],
          "Bias": -0.018624923452586893
        },
        {
          "Weights": [
            -0.1121474536824003,
            0.33492796548509746,
            -0.23526210588962482
          ],
          "Bias": -0.18147002762351258
        },
        {
          "Weights": [
            -0.08094728055284026,
            0.46783991810039105,
            0.09268751898291792
          ],
          "Bias": -0.3560148872538745
        },
        {
          "Weights": [
            -0.3875741053144295,
            0.44157508796787454,
            -0.15179539921195048
          ],
          "Bias": -0.398207754037727
        },
        {
          "Weights": [
            -0.07044904206798763,
            0.0036453874209173526,
            0.3359183583036265
          ],
          "Bias": -0.2961541431633162
        },
        {
          "Weights": [
            0.2639703308834044,
            -0.16850763610727593,
            0.03801380600407498
          ],
          "Bias": -0.27209092666018914
        },
        {
          "Weights": [
            0.3131109245047438,
            -0.3501305278698857,
            -0.18284664526442107
          ],
          "Bias": 0.2956901878931365
        },
        {
          "Weights": [
            0.2864873300212056,
            0.06854379399776411,
            0.41386011529576444
          ],
          "Bias": 0.04201965354431043
        },
        {
          "Weights": [
            -0.2632138543420041,
            -0.37087324768509733,
            0.12474254710738633
          ],
          "Bias": 0.29604699492442316
        },
        {
          "Weights": [
            0.08595730440198265,
            0.32758919059041874,
            0.004598113689634072
          ],
          "Bias": 0.3874780333113113
        },
        {
          "Weights": [
            -0.2522178416341902,
            -0.1508718867253322,
            0.4921090293403642
          ],
          "Bias": 0.28413847432676415
        },
        {
          "Weights": [
            -0.23415591757077045,
            0.01995481579278574,
            -0.353333120533092
          ],
          "Bias": 0.3665145493815919
        },
        {
          "Weights": [
            0.11380989058472069,
            -0.3356653976853576,
            0.26893431975974175
          ],
          "Bias": 0.112803822995194
        },
        {
          "Weights": [
            -0.09626063227954239,
            0.2046353523704465,
            -0.4103903244128657
          ],
          "Bias": 0.3961394905488241
        },
        {
          "Weights": [
            -0.19156538354317737,
            0.005073262212304596,
            0.41294733155751145
          ],
          "Bias": -0.21970483078899275
        },
        {
          "Weights": [
            0.10312692143122405,
            -0.1877853136044796,
            0.44860398736324286
          ],
          "Bias": 0.3114349442393184
        },
        {
          "Weights": [
            -0.22341276885630662,
            0.22971861962127352,
            -0.02190889196449746
          ],
          "Bias": 0.13779116039856043
        },
        {
          "Weights": [
            0.0660239026951217,
            0.20355525670182806,
            -0.1373790244751365
          ],
          "Bias": -0.4997412571884741
        },
        {
          "Weights": [
            0.459821560051351,
            0.3857014216627664,
            -0.08203332662159037
          ],
          "Bias": 0.1995927496012883
        },
        {
          "Weights": [
            0.3427704650012568,
            -0.17666780024731754,
            0.4995968062487455
          ],
          "Bias": -0.3348968666228079
        },
        {
          "Weights": [
            -0.4262958214011827,
            0.48757626188017206,
            0.19404956323544975
          ],
          "Bias": -0.2996680705007964
        },
        {
          "Weights": [
            0.1920501270294449,
            0.28483094261521547,
            0.3607330071827521
          ],
          "Bias": 0.3855606678756323
        },
        {
          "Weights": [
            -0.38358984339281227,
            -0.28483739462710433,
            0.12006756579677692
          ],
          "Bias": -0.0248324018470767
        },
        {
          "Weights": [
            0.1727006733051116,
            -0.15680509074183444,
            0.2897408558596378
          ],
          "Bias": -0.29278379755831224
        },
        {
          "Weights": [
            0.43072098130311887,
            -0.2902931753855748,
            -0.2557548608254179
          ],
          "Bias": 0.1899039536047167
        },
        {
          "Weights": [
            0.05747229084865573,
            -0.3062489546550012,
            -0.12541529632310378
          ],
          "Bias": 0.08757136336017352
        },
        {
          "Weights": [
            0.20947892610367483,
            0.35223093183822696,
            0.20237124633885445
          ],
          "Bias": 0.050219002618799725
        },
        {
          "Weights": [
            0.26141133020126894,
            -0.15766689512236634,
            -0.13719223891386206
          ],
          "Bias": -0.2756379092770721
        },
        {
          "Weights": [
            -0.4012325927079725,
            -0.47005977104948904,
            0.2528881969676012
          ],
          "Bias": -0.28725434613288847
        },
        {
          "Weights": [
            -0.2809702572706742,
            0.40056216237403514,
            0.18782030486212056
          ],
          "Bias": -0.2580215758587229
        },
        {
          "Weights": [
            0.3051506901121429,
            -0.054537653086487246,
            0.24426251849645336
          ],
          "Bias": 0.06158551420777262
        },
        {
          "Weights": [
            -0.049135199917804205,
            -0.09650035173042497,
            -0.4258490903079364
          ],
          "Bias": 0.2668272044677866
        },
        {
          "Weights": [
            -0.40353935192102997,
            -0.14953100658042606,
            0.009194122915396044
          ],
          "Bias": 0.2998410880421092
        },
        {
          "Weights": [
            -0.37750538086666774,
            0.15519699626434977,
            -0.12509542117818478
          ],
          "Bias": 0.06055422841222774
        },
        {
          "Weights": [
            0.25205548158061836,
            0.26176182894573163,
            -0.24613705511744416
          ],
          "Bias": -0.13595232046374425
        },
        {
          "Weights": [
            0.3936074986470021,
            -0.19929336101324596,
            0.325886094125912
          ],
          "Bias": -0.06693326281557077
        },
        {
          "Weights": [
            -0.07825229548458937,
            0.42661074751593364,
            -0.34921990597846014
          ],
          "Bias": -0.13457228666184162
        },
        {
          "Weights": [
            -0.49590030545664027,
            0.18991241570340014,
            -0.33270194594101565
          ],
          "Bias": -0.1414495222361881
        },
        {
          "Weights": [
            -0.369243606466139,
            -0.17763769605348012,
            0.09373270328410974
          ],
          "Bias": 0.47144273842752604
        },
        {
          "Weights": [
            0.46829479388343015,
            0.1169777981175746,
            0.43712185678538656
          ],
          "Bias": 0.4924428150185388
        },
        {
          "Weights": [
            0.42986927265895913,
            -0.08357904739638655,
            0.11684381533486816
          ],
          "Bias": 0.15818852779019119
        },
        {
          "Weights": [
            0.18243589457581286,
            -0.27768580268290044,
            -0.18720135228609608
          ],
          "Bias": -0.22964270980469884
        },
        {
          "Weights": [
            0.30272501540316166,
            0.02453526080522304,
            0.42065921414924967
          ],
          "Bias": -0.008798957823553657
        },
        {
          "Weights": [
            0.42202469909810586,
            -0.4053847298054662,
            -0.33356477088310826
          ],
          "Bias": -0.22937659809899733
        },
        {
          "Weights": [
            -0.16455140531073637,
            -0.3932765996560494,
            0.3379143809767486
          ],
          "Bias": -0.31302106218873765
        },
        {
          "Weights": [
            0.19938655340604713,
            -0.2075868516549204,
            -0.4842096212656795
          ],
          "Bias": 0.07445945693023387
        },
        {
          "Weights": [
            -0.1908423462669281,
            -0.196998997607739,
            0.42060195093612157
          ],
          "Bias": -0.07821571200314395
        },
        {
          "Weights": [
            -0.07555004390740917,
            -0.05048573023672158,
            0.039138040904001595
          ],
          "Bias": -0.34082993763058245
        },
        {
          "Weights": [
            0.15858633614004852,
            -0.06826166390508137,
            -0.1564174706562498
          ],
          "Bias": 0.3456761211779217
        },
        {
          "Weights": [
            0.32443722668204134,
            -0.09435656403896296,
            -0.11884102847501173
          ],
          "Bias": -0.08023673065841963
        },
        {
          "Weights": [
            0.4054527747578882,
            0.41628020900095086,
            0.45737966602027014
          ],
          "Bias": -0.21269325176606754
        },
        {
          "Weights": [
            0.31975953909247723,
            0.3226464157413293,
            -0.33800871360262974
          ],
          "Bias": 0.2852504354039574
        },
        {
          "Weights": [
            0.08595518423792539,
            0.4017902839006546,
            0.2581365937270317
          ],
          "Bias": -0.34664865066092293
        },
        {
          "Weights": [
            0.15303399749410976,
            -0.20741490131204837,
            -0.05987248195431814
          ],
          "Bias": -0.1307883285096025
        },
        {
          "Weights": [
            0.4085817333379458,
            0.4091020893247294,
            0.38331310452267464
          ],
          "Bias": -0.16582348040380954
        },
        {
          "Weights": [
            -0.259498245679203,
            0.18108392092379744,
            -0.06685711873618687
          ],
          "Bias": 0.08836810105383938
        },
        {
          "Weights": [
            0.35076420524317925,
            0.3324550100313356,
            0.0009342007794735671
          ],
          "Bias": 0.4850639232653968
        },
        {
          "Weights": [
            -0.23184249707881163,
            -0.3780033054711346,
            0.4511872720975097
          ],
          "Bias": 0.05314547071785053
        },
        {
          "Weights": [
            -0.42470660853233083,
            -0.0547081906061068,
            -0.18046455426122412
          ],
          "Bias": -0.4702016563172486
        },
        {
          "Weights": [
            -0.23871990968900103,
            -0.16550395965127457,
            0.2567912523110918
          ],
          "Bias": 0.3511522083706878
        },
        {
          "Weights": [
            -0.10548069627444134,
            -0.47459382679976514,
            -0.04783964348899297
          ],
          "Bias": -0.024754494037167167
        },
        {
          "Weights": [
            -0.434061480365666,
            0.005809977594318471,
            -0.3169817921688705
          ],
          "Bias": -0.10469117176618813
        },
        {
          "Weights": [
            -0.02580347587924364,
            0.027203008519496006,
            0.04614233163785138
          ],
          "Bias": 0.004316221616042632
        }
      ]
    },
    {
      "Neurons": [
        {
          "Weights": [
            -0.24048122215722717,
            0.11321784073991067,
            -0.08935238299519306,
            0.4207009673194316,
            0.2224124419040847,
            -0.06998474026219301,
            -0.36150171747522014,
            -0.433015402780615,
            -0.26742959654755216,
            0.15645532975104268,
            -0.000968130089388058,
            0.21100342100621766,
            -0.43626926625884443,
            0.31354172007145015,
            0.022948858275960802,
            0.061327925383749995,
            -0.17695977124416246,
            -0.39783233703199866,
            -0.3679938645186623,
            -0.013885283843421498,
            0.2799318798362917,
            0.1974791469062675,
            -0.3230491137534248,
            -0.4482897761350042,
            0.038531215327524806,
            -0.35819241026901355,
            0.27670430048569583,
            -0.2960353051649703,
            0.34435124068143147,
            -0.4500495114749561,
            0.20740344364347674,
            -0.2683807429581708,
            0.26056441914143535,
            -0.1701088225370499,
            0.04934918122761731,
            0.3531925064179241,
            0.299485513978117,
            -0.2413015866431259,
            0.3289122922513579,
            0.32519391728558417,
            0.2147374420977255,
            0.1468112579793423,
            0.23755552613484437,
            -0.015226917823587961,
            0.158113682320065,
            0.4337214323710169,
            0.2535103134810769,
            0.2158692345997508,
            -0.3544967508714854,
            0.17632146378943483,
            -0.42051123816064484,
            -0.2520493934756322,
            -0.2574991132986684,
            -0.13411693570032301,
            0.4118246371503387,
            0.12520912991286176,
            0.27280087656424545,
            -0.1385861693229535,
            0.03231441420963643,
            0.22286756357830628,
            0.09043525484716705,
            0.33864774154962635,
            -0.059425805711043826,
            0.09099853808927218,
            0.4957038533075122,
            0.28358326140649676,
            -0.02291088632387879,
            0.34276393636401936,
            -0.29303283120036316,
            0.2278545159652865,
            -0.48571073622388367,
            -0.3444507532605616,
            -0.007276645729661452,
            0.05902301133357187,
            0.05531332341726891,
            -0.2576069778618623,
            0.4111685874560746,
            -0.2529602954919636,
            -0.19073216691569192,
            -0.09200697389330503,
            0.3459905316548726,
            0.3995281869639945,
            -0.35342812746467667,
            0.3474633959656365,
            -0.020156802434159356,
            -0.0985560608072417,
            -0.09501202125485161,
            0.38492931278265796,
            -0.46097633803693583,
            -0.49712458748558586,
            0.2817313479607883,
            -0.09667512126468512,
            -0.4210310429958246,
            0.021607068362022086,
            -0.36605804846318685,
            -0.12563941939121923,
            0.44325608794192406,
            -0.07854019891650743,
            -0.3382415811795978,
            -0.16024117898575221
          ],
          "Bias": 0.050604914776771676
        },
        {
          "Weights": [
            0.463212465466732,
            -0.28883825757690185,
            -0.13957769638650613,
            -0.21725334164833054,
            -0.4054690605197504,
            -0.45040275365780574,
            0.3670401583310257,
            0.4248589585594954,
            -0.3183734478618095,
            -0.1134310425160044,
            0.42967273036846687,
            0.42679521476798293,
            -0.02015394845406207,
            0.16833997384568303,
            0.3617150508579078,
            0.31287587774635617,
            -0.026790297616021554,
            -0.04549980497045274,
            -0.38492507123195,
            0.11371811067005057,
            -0.45723039825041717,
            -0.4636514381644973,
            -0.4575719174611014,
            -0.31918445698054493,
            -0.27952006195179735,
            -0.2507482501771367,
            0.21782153985921443,
            0.16942362443358225,
            -0.44543767358893277,
            -0.4369331057076572,
            0.23038402071857617,
            0.43252203544147716,
            0.046161247617522674,
            0.31041505316901,
            -0.3278933189077488,
            -0.20300138243357668,
            -0.4399593750871088,
            -0.12935864126675878,
            0.42161579479453126,
            0.27061951454506133,
            0.423687363672412,
            -0.03164516749293314,
            0.29574158736266654,
            -0.39881912860580776,
            0.28638769482141946,
            0.40574554469374247,
            0.3526581266297502,
            0.2394760245192622,
            0.47293160551280483,
            -0.2386814737649436,
            -0.13540561058154593,
            0.238131223254909,
            0.16491803300559535,
            0.1304054997654091,
            0.13330499255052985,
            -0.4367781098081349,
            0.05836784523545185,
            0.2383850585225277,
            0.4717598997151342,
            -0.14081290223000453,
            0.49031875695283894,
            0.21034215962083994,
            -0.37755005984694384,
            0.1626067339099144,
            0.08179473802764324,
            0.14864700977625692,
            0.32684280342563565,
            0.3034775531992875,
            0.40912892929727485,
            0.08734432848869118,
            -0.291639251747122,
            0.19107907528674659,
            -0.038193882973914316,
            -0.48606359846881064,
            -0.17258221488402023,
            0.4844712148860324,
            -0.38421109309854484,
            0.46426984843235486,
            -0.006235061511764452,
            0.21822267446865315,
            0.32007272889855737,
            0.10360415496624259,
            -0.3838993325057586,
            0.3401434121044745,
            -0.3387216004405806,
            -0.410478576791328,
            0.43307503177031365,
            -0.11255287225523476,
            0.4932348966347218,
            0.09774352496890802,
            0.16877126215551208,
            -0.0025328211636797015,
            -0.26902526246679914,
            0.15179247978125965,
            -0.26718435933319906,
            -0.0519617723954501,
            0.1419897595257207,
            0.27343843728690026,
            0.16445848119020795,
            0.27306958870203196
          ],
          "Bias": -0.44218011266999174
        },
        {
          "Weights": [
            -0.15890028406398687,
            0.008912786690866075,
            0.1663023355742854,
            -0.0333196911655061,
            -0.2810207808879393,
            -0.06458068483776307,
            -0.10143169422632979,
            0.2444386728403682,
            0.2797047462251736,
            -0.2778161464202983,
            0.24237078871394813,
            -0.18644391805473667,
            0.13946788875159266,
            -0.12051657702103756,
            0.08728147809119804,
            0.08587867542807631,
            0.31266283190295585,
            -0.2418548905550868,
            -0.18618562246501347,
            0.21447323212926991,
            0.3044575349339325,
            -0.4826044045913241,
            0.021165539141346487,
            0.3369171680412117,
            0.152447842979141,
            -0.1893118126749405,
            -0.016991599842052084,
            -0.18393847118366072,
            0.02267594096819455,
            0.24115649849088083,
            -0.1067840348898093,
            0.1638829134541178,
            0.21329688342644437,
            -0.0940000758416966,
            -0.356691016686018,
            -0.1828652681022677,
            -0.032969329970095176,
            -0.2300281078252924,
            0.052849469838147506,
            -0.19343242923587595,
            -0.4892466749853048,
            0.028464267956243336,
            -0.25671269830376525,
            0.2315798695070231,
            -0.11080991478260256,
            0.25272735541548824,
            -0.017413480830707682,
            0.025091838432100607,
            0.22923855816860528,
            0.060975230907275156,
            0.15965644909233628,
            -0.031087306334626388,
            0.08162800625784697,
            -0.09744096838442107,
            -0.2962816154786048,
            0.40248307059315763,
            -0.46096469925536976,
            -0.37260166875659084,
            0.4025926224763989,
            -0.302159240546978,
            0.1354374747582711,
            -0.36404885293074646,
            0.4224066306319591,
            0.27099435523443105,
            -0.27006036904339226,
            0.4060879726251822,
            0.4478381005241165,
            0.1892316683791206,
            -0.4387169660219249,
            -0.08741018884629294,
            -0.2127849481816158,
            -0.39858675215320405,
            0.2880542792655407,
            -0.4099647189939839,
            0.06700030425819078,
            0.0712533029510391,
            -0.45165189441292836,
            0.3111552822534446,
            0.4508490413108978,
            0.34653742714186575,
            -0.24279059674815776,
            0.3054468070387502,
            -0.23350237159678872,
            -0.394226564885218,
            0.4867834801452805,
            0.20199020878205673,
            -0.15740962852485668,
            -0.40719754480550346,
            -0.17585496666902534,
            -0.38997549988300295,
            -0.1605376841613408,
            -0.23954056025567705,
            0.47005228197752374,
            -0.4424818154312308,
            0.3733816672066722,
            -0.09945361661060419,
            -0.05606071992234554,
            -0.25389162253002223,
            0.14987415289744419,
            -0.23824331673292468
          ],
          "Bias": 0.19016660095829757
        },
        {
          "Weights": [
            -0.40603667327027065,
            -0.13864011547664115,
            -0.2155374538402387,
            0.45367883764789035,
            -0.363610511341193,
            0.3197884220236161,
            -0.09708036805717807,
            0.476739926802985,
            -0.0815316029684441,
            -0.16387842417650897,
            0.27569295458476295,
            -0.37002999842378353,
            0.10641909174042369,
            0.29438552877269686,
            -0.10737219484983891,
            0.061900781546580304,
            0.18092140774759552,
            -0.07031643645246306,
            0.14031725110764942,
            -0.17758302447238014,
            0.0025946507847333265,
            -0.2830933097873085,
            0.3429660147398315,
            0.3478191454457311,
            0.4698247383398082,
            -0.2539710325159108,
            0.49359425958373115,
            -0.2050071438638647,
            0.027404436735203368,
            0.0014509651289789254,
            -0.47762348916727343,
            -0.3318093615277838,
            -0.38096714260274944,
            -0.33166032186146976,
            0.48013380562189406,
            -0.20245597763665918,
            -0.09319500445202504,
            -0.28998364138284516,
            0.42383779195773774,
            0.2686175893395924,
            0.335933166774964,
            6.914576310911864E-05,
            -0.4419083128161491,
            -0.34377489322958343,
            -0.35938797142224854,
            -0.2694321723117269,
            0.48731128178687994,
            0.25583855526579224,
            0.14011485093057946,
            0.23890191456799506,
            -0.17101174552423082,
            -0.17644008524829674,
            -0.41074418767924975,
            0.16125848004405974,
            0.09296857665595505,
            0.37140986070170534,
            0.021344079659467448,
            0.10557983667508133,
            -0.12140080309940816,
            -0.1748910988890878,
            -0.3575966105411086,
            -0.007966019595415222,
            0.1399666928332707,
            -0.14363051420078451,
            0.07554126375763238,
            0.37660391659072767,
            0.13705347173847057,
            0.06511004011887385,
            -0.43367234504684726,
            0.1472893787389326,
            -0.3155600320018533,
            -0.13732169658074253,
            -0.4621377549462212,
            0.052125281150529494,
            0.15545773100818863,
            0.4189458894536558,
            -0.2432492906450481,
            0.3544802609061611,
            0.28644446462121476,
            0.34549375942307947,
            -0.4478342998205574,
            -0.10521537799345158,
            0.3196627522880295,
            -0.46456400338247256,
            0.41283747465469134,
            -0.4354906849481863,
            -0.069440484137858,
            0.21878349460065416,
            -0.011418024694549802,
            -0.2793760219783917,
            -0.24918924097948103,
            0.4823974174256811,
            0.4929744131537108,
            -0.387239052576641,
            -0.15641372395056735,
            -0.3264486110970026,
            -0.4945883075194812,
            0.35700987177382465,
            -0.09694101063597796,
            -0.43477501356860027
          ],
          "Bias": 0.37144286271706567
        },
        {
          "Weights": [
            0.23216530725501897,
            0.2898077899532306,
            0.08182646998338114,
            -0.009170343263260994,
            0.22645104474546618,
            -0.1773166740787085,
            -0.40452977538877044,
            -0.20662097288844758,
            -0.11691475821913694,
            0.1500873392188916,
            0.4857851339526817,
            -0.1864812974715025,
            0.4866307529927457,
            0.4974921091133706,
            -0.23411452548165698,
            0.4203666790506144,
            0.2450014034092378,
            -0.3789155237208561,
            -0.3131266224731124,
            0.07329206372691302,
            -0.03467667786200098,
            0.22121365309668387,
            0.05608030613907074,
            0.15233117732102344,
            0.14360004349400918,
            -0.30593986143579377,
            -0.054098575660942436,
            0.27718719986411233,
            0.14563424600911112,
            0.3650587903197101,
            -0.10486278238073793,
            -0.306136824620078,
            0.36899505798909205,
            -0.43928264859891486,
            -0.244817464634793,
            -0.03131434473634553,
            0.06688844437159731,
            -0.09428879445629716,
            -0.4651255908570437,
            0.15527833300969585,
            -0.4915508879345467,
            -0.07243337039076837,
            0.4234095065754175,
            -0.4410194947100141,
            0.303086638672127,
            -0.06134527742830915,
            -0.34913990421733104,
            -0.1309745246960281,
            -0.491882935331408,
            0.20946624420697424,
            -0.05069873113056512,
            0.32764918434627566,
            0.2566185580864766,
            -0.20087313564339776,
            -0.2407003468939039,
            0.19613394823281416,
            -0.36822847751124654,
            -0.30371013998897106,
            -0.42223742046042306,
            0.28938475307927836,
            -0.06445747228466273,
            0.2698528006704161,
            0.38716459116341995,
            -0.49569821951576004,
            -0.1498460508350564,
            -0.054950293215540735,
            0.07049548398063685,
            0.03465459855649614,
            -0.47485554881025843,
            -0.4238371619468044,
            0.11488230368870052,
            -0.4979458936841659,
            -0.25111682994637063,
            -0.3428757097336766,
            0.44663693092891127,
            0.0608455692004192,
            -0.23788217582859583,
            -0.13043876240162217,
            0.4003071497860379,
            0.4432061449547708,
            -0.23085239454620116,
            -0.16991106603587494,
            0.2692825514294859,
            0.2288121695256073,
            0.051849627749172816,
            -0.3742463834744892,
            -0.28546560607310667,
            0.06362299406176215,
            0.45288275320722365,
            -0.11934943547446086,
            0.21628279783530532,
            0.42140285950752615,
            0.3407510176155921,
            -0.3009519991838211,
            -0.04101861108216386,
            -0.4106909112856651,
            -0.326927492972307,
            0.06363516457643799,
            0.38613834950162484,
            -0.18151771347309734
          ],
          "Bias": 0.030271616230803947
        },
        {
          "Weights": [
            0.1377208892467904,
            -0.3697212859454149,
            -0.12289171666693911,
            -0.08053838392292034,
            -0.4938262959392825,
            0.2575819118371715,
            -0.37843978574652953,
            0.33561964389601034,
            -0.1294701948843412,
            0.02269973273322938,
            -0.22015507501821552,
            -0.1478891858341944,
            -0.2704989144076968,
            -0.37466065403704263,
            -0.10881711470687067,
            0.35163287221453726,
            0.48138788589182435,
            0.3328168701775439,
            0.08257359784820642,
            -0.26042183239185024,
            -0.3096430182495869,
            0.3356983744412331,
            -0.4070506490896316,
            0.18387841244687952,
            0.16548205791417395,
            -0.07797518016532907,
            -0.15813546942637133,
            -0.01349762460510082,
            -0.45077720679086924,
            0.2940245104606664,
            -0.14759555867393537,
            0.2163991757627678,
            -0.17001071851307897,
            0.01957014113675158,
            0.011499935492389668,
            -0.44478169826476516,
            -0.1899520275920061,
            0.07647753223143278,
            -0.3475511644233399,
            -0.04805391143661093,
            -0.11006161751198847,
            -0.35196357203491246,
            0.26435318572031047,
            -0.26563000281909727,
            0.39839112097146623,
            0.15791193151776692,
            -0.2693762408386347,
            0.376347648845039,
            -0.21935172561673502,
            -0.3866721856526001,
            -0.4048055897660495,
            -0.16519852474000607,
            0.16884258815471717,
            0.2556489143024829,
            0.35026184325073045,
            0.09457286662416521,
            0.3144375651646807,
            0.06874671185911964,
            -0.2767550512342354,
            -0.38372770394349565,
            -0.35696852818420016,
            -0.1929375622808449,
            0.11941015842939133,
            0.08176403887515661,
            0.11881912755866282,
            0.2040668792555311,
            -0.39987475252552535,
            0.03307887940384263,
            -0.1604446235220574,
            0.2884756449603509,
            -0.21298141305079743,
            0.3094838726550373,
            -0.27662717366323436,
            0.445351590837771,
            -0.21426264064358316,
            -0.3374184865210338,
            -0.11352632103899286,
            0.3601223002202541,
            0.0572985860282754,
            -0.22448181701982184,
            -0.28344565035365626,
            -0.0913098674046314,
            0.4458635149625177,
            -0.21061718306443555,
            -0.1871635904371547,
            0.1415038055675267,
            0.29701327779289477,
            -0.006626446871220873,
            -0.2363726816101194,
            -0.04566891240204543,
            0.3379167038992205,
            0.3267787980766551,
            -0.4806099289222785,
            0.31967429019569515,
            -0.4508371532802745,
            -0.35493172433325254,
            0.3986091218098945,
            -0.23674489656729766,
            0.04030207890186431,
            0.3576945935126035
          ],
          "Bias": 0.3132937761269718
        },
        {
          "Weights": [
            -0.1840863411674678,
            -0.48470438601330806,
            0.24418069374927942,
            0.054990007946754245,
            0.26005121549250865,
            0.14774509409828118,
            -0.06069500836888492,
            0.048489890050717376,
            -0.057160510366864245,
            -0.46584644869320013,
            -0.24374802205721613,
            0.03307067670004976,
            -0.03780307787067352,
            0.1423232691759801,
            0.21965634394261505,
            0.48673724190800616,
            -0.18227622654675676,
            0.3382721989530461,
            0.10053908446646302,
            0.44680459913061515,
            -0.38497179635260387,
            0.27005466286487156,
            -0.48269835998002536,
            -0.00020639019868182304,
            0.4035747096283845,
            0.009162283476009505,
            0.2659091995293861,
            0.4429668607657107,
            0.17947401339241992,
            0.10180584479035415,
            -0.21652172675115786,
            0.03485220916054167,
            0.1585272608667374,
            -0.36711427140061587,
            -0.38037996954862535,
            -0.47975795262986465,
            -0.3322865407097843,
            0.47113383113794777,
            -0.2852805148109933,
            -0.10529222790654938,
            -0.2244422974697857,
            -0.07888665856420089,
            -0.4770338157344354,
            0.19910922941980852,
            0.07996990112631974,
            0.15330292694382672,
            -0.14395204218488294,
            0.16998806473571443,
            0.47332572486806174,
            0.3486544682775183,
            -0.4387996855015283,
            -0.044414285228396036,
            -0.03614394625166032,
            0.2519030415235649,
            -0.13729346547238888,
            -0.10349287050769261,
            -0.029985352952920336,
            -0.3153293961445157,
            -0.07624821551355453,
            -0.16097695447329352,
            0.44678986033762014,
            0.3133524026862074,
            -0.17693293031939172,
            0.01507498286087257,
            -0.48341749965184283,
            -0.33375911172207623,
            0.26589651238300416,
            0.4669712937802891,
            0.28596891295933025,
            0.37933650660426965,
            0.4401330842974983,
            0.37107027991676783,
            -0.317064367311388,
            -0.2205088356352471,
            -0.1988973337030078,
            -0.4018012881026965,
            0.20881296412004235,
            -0.026575993078893172,
            0.3590887229015186,
            -0.4675761377545538,
            0.1652767679619369,
            0.20755166134577666,
            0.2851219743656983,
            -0.4230881854473307,
            0.45603251616021295,
            -0.2605703618627484,
            -0.346785921454918,
            -0.44922496031713377,
            -0.31448810402790867,
            0.48135377979598576,
            0.3274400869956305,
            -0.09222674749373119,
            0.33202519478370546,
            0.4592426336284228,
            0.27595460172716946,
            0.3076368057406487,
            -0.0579408926594253,
            -0.30798182787120953,
            0.43469844250445666,
            -0.32607520516413385
          ],
          "Bias": 0.06513254485728634
        },
        {
          "Weights": [
            -0.027597279841087397,
            -0.07142437767284912,
            -0.06233160445151769,
            -0.3076728748936017,
            -0.16990472104950297,
            0.3708338754437868,
            0.10095844766495041,
            -0.4229725673207272,
            0.29747563021886575,
            0.2033141959771462,
            0.03180065279830564,
            -0.3440318041393753,
            -0.2875294714825489,
            0.44098867256518665,
            0.2557237576897029,
            -0.1729939766152215,
            0.17668851787895587,
            -0.2813241000625619,
            -0.49814984414874064,
            -0.37913358963650445,
            -0.06898663380950731,
            0.227593537878527,
            -0.36559586574390024,
            0.005666125090499907,
            -0.481830091736333,
            -0.3084307647605715,
            -0.3284429008159923,
            -0.15946369607311545,
            0.15579692080772212,
            -0.17115708541766436,
            0.1056804795690689,
            -0.14173508938835433,
            -0.16452820910888935,
            -0.4869970749320179,
            0.28172290043562265,
            0.36097007128398145,
            -0.29421050592746667,
            -0.33826454871834466,
            -0.053549192176908914,
            -0.3757611066991663,
            -0.05814988566671549,
            0.08807327612853051,
            -0.4635709145813327,
            -0.43150804747933613,
            0.4203867732677345,
            0.4001160481828186,
            -0.1663899415278668,
            0.2864515180355241,
            0.22439138725852137,
            -0.11202937644961623,
            0.060813112750359284,
            -0.17793736358751364,
            -0.4369979079005228,
            -0.42863104704210375,
            0.06679807957730922,
            0.357965358438673,
            0.2348645344237244,
            0.2583018100678083,
            0.32922810262662355,
            0.3140866727979595,
            -0.34433021663041036,
            -0.10649500763231053,
            0.3733019638312261,
            0.4935521661607909,
            -0.13803228959416858,
            -0.06564976307493721,
            -0.4053356746419732,
            0.45626560633602026,
            -0.20446650174499983,
            -0.4817750206040877,
            -0.1581064364834875,
            0.12726732627028614,
            0.0037773404999580113,
            -0.36196068135662446,
            0.3758948296477149,
            -0.46391050910173537,
            0.3121047217995929,
            0.19566162476003518,
            -0.24043736232110385,
            0.3189592299784561,
            0.2677622157199648,
            0.366504935961983,
            0.4572262488767703,
            -0.0965463144219288,
            -0.4021754951332448,
            0.402087959312284,
            0.34918890739159375,
            0.12245186081664888,
            -0.03357586505010117,
            -0.2999919620549034,
            -0.23134259241268273,
            0.4183708306750501,
            -0.32746967734482896,
            -0.028792956609661614,
            -0.07338694616544125,
            -0.07460887579746966,
            -0.12319008712444934,
            -0.3720039097226797,
            -0.03278720924488039,
            0.23960135799617677
          ],
          "Bias": -0.08947395243195037
        },
        {
          "Weights": [
            0.1322351607026898,
            -0.2421316134375942,
            0.01940815044734189,
            0.3940574950054733,
            0.4154831802661337,
            -0.1226287922630641,
            -0.210946226066193,
            -0.02072325777511135,
            0.11611754323025904,
            -0.1551102230240374,
            -0.09445672590650026,
            -0.3276114826140589,
            0.4195738422750624,
            -0.02797308707817003,
            -0.0669745510237282,
            0.42014030954089177,
            -0.33037144552521774,
            -0.4530444833779943,
            0.3802987441844518,
            0.09947808224053563,
            -0.24697109422230765,
            0.06753978208108145,
            0.43903312245004184,
            -0.3542160301707762,
            0.4343056090293268,
            0.16289213230893046,
            -0.48682424172838346,
            -0.12353336742730754,
            -0.1530951620606857,
            -0.22493732922663784,
            -0.42879987905335015,
            -0.10374266583504527,
            -0.3510576922638597,
            0.18739218520594456,
            0.24739329702501284,
            -0.3898183631000903,
            -0.3727828546647221,
            0.3454961458454983,
            -0.2710047625721822,
            0.28208101022012855,
            0.03988145435855792,
            0.27280789442561193,
            -0.22237686473109936,
            -0.040353741508002666,
            -0.32609387210801377,
            0.11230432304429112,
            0.27756907061978703,
            -0.3949690277829166,
            -0.45366408604542846,
            0.4439011044003763,
            0.4164364964813314,
            -0.3996683543405106,
            0.2174436431768125,
            -0.30190581940640504,
            -0.08577808299615475,
            -0.47323427667176826,
            -0.4287468126641778,
            0.3953177279047304,
            0.11360408402426882,
            -0.0979529071433605,
            0.0495192657981891,
            -0.25495057184512254,
            -0.07618693554275034,
            -0.04656718218523725,
            -0.4909338814237404,
            0.13105089912081683,
            0.08140451422310817,
            0.32039223088834845,
            -0.13607990009373377,
            -0.14579413153520138,
            0.4310148979271822,
            -0.29227602251206497,
            -0.41879321026472244,
            0.11217463604279847,
            0.4941050996805482,
            -0.38125192206750547,
            -0.3996259496849597,
            -0.45911977057056164,
            0.48513385191381697,
            0.2730471850839506,
            0.3545286180470434,
            0.2775977549521318,
            0.22261724891615947,
            -0.36860762572656597,
            0.4149820382345989,
            0.4462173116848814,
            -0.34947156638186994,
            0.4299876123283193,
            0.3217481889949168,
            -0.371316785880006,
            -0.03978811902666174,
            0.09529930335990963,
            -0.022966807333111502,
            -0.0912073788457779,
            0.1607858575905439,
            0.3512901265994876,
            0.08581454751184818,
            -0.250763263664655,
            0.168278919413711,
            -0.4534928273344327
          ],
          "Bias": 0.49730415686369106
        },
        {
          "Weights": [
            -0.47583927842927126,
            -0.12544922125533534,
            0.2306316465000316,
            -0.49605251487766644,
            -0.13685127110971876,
            0.12901934230664383,
            -0.3763645880778007,
            -0.14260958265747498,
            0.20603671667865603,
            0.363391589998483,
            0.4177436244191908,
            0.4767180422696695,
            0.47034765580984444,
            -0.252267524088664,
            -0.13930315003401772,
            0.3792637002719211,
            -0.4750345842583106,
            -0.3193234751365609,
            0.0860389181939553,
            -0.3242003546482735,
            -0.05383176613191094,
            0.3784886172853031,
            0.32016437192328956,
            -0.09187967309557908,
            0.49289531922772256,
            -0.22535481241035213,
            0.32892905469956213,
            -0.22983898813456488,
            0.40342165151304893,
            -0.06250200644816978,
            -0.2875772224939162,
            -0.4205747530698229,
            -0.4546011053006662,
            0.2471742383303827,
            -0.1562960412342125,
            -0.15226194252088682,
            0.11768723287237738,
            0.256379470644766,
            0.49098487624792303,
            0.34902643531122673,
            0.03259585457636165,
            0.41090822880098793,
            0.2528756183127317,
            -0.4988804234507106,
            0.4645769340021498,
            0.12833233512721065,
            -0.4679855372738112,
            0.4357652594548792,
            -0.49480363507340164,
            -0.35310364862894816,
            -0.18980198808533685,
            -0.40608602309690023,
            -0.035083530175654715,
            0.3433862793030131,
            -0.41398931023499624,
            -0.43312425666503235,
            0.49371638097052417,
            0.4730126409094656,
            -0.44071597371778093,
            0.11840684389008332,
            -0.2771573502801785,
            -0.4269710713388183,
            -0.2907115799623885,
            0.10235312452829116,
            0.4350572525993939,
            0.12171846111128864,
            -0.23241109525409906,
            0.4946191069284739,
            -0.030894653868457415,
            0.24820625976352695,
            -0.45698376310563615,
            -0.07090009975778766,
            0.41259434955300595,
            0.05537184265642771,
            0.3500464168758434,
            0.08825908343936475,
            -0.07271629614841765,
            -0.2719194148995448,
            -0.4279417702777676,
            0.44720684468307315,
            0.3600399145457995,
            -0.43210812856482517,
            -0.3686180375098353,
            -0.4729782588873123,
            0.44002882095338763,
            -0.3329573335577328,
            -0.07418840980919843,
            -0.40390441112115877,
            0.1657553000107665,
            -0.20278276152506744,
            -0.03417365789520771,
            0.01973960250980079,
            -0.4732430418918266,
            -0.47219723322139445,
            0.15763942882337104,
            -0.3555659940108321,
            -0.24479321858295927,
            -0.2682922907706273,
            -0.2733493878196862,
            0.3794540332825286
          ],
          "Bias": -0.06086418915976968
        },
        {
          "Weights": [
            -0.0831804829121916,
            0.42462467434548945,
            0.08363780259506091,
            -0.35503697718228294,
            0.3763623698904459,
            -0.40292075115918047,
            0.19632529549503952,
            -0.24439238258145793,
            0.005535239894905066,
            -0.21208364042607056,
            -0.41197795133149856,
            -0.008253134197392514,
            0.3791629114061013,
            -0.18509237568943876,
            -0.3773489498001379,
            -0.09204505639740038,
            -0.35683663265580495,
            0.38760199624186115,
            0.24317672430453757,
            -0.09327180450670748,
            0.289768459862339,
            0.03528333243413191,
            -0.0713881262291963,
            0.4045110875311482,
            -0.46984970641643825,
            0.29280805586014547,
            0.4494049175842063,
            -0.14277995562309753,
            -0.2872955646990104,
            0.10984046111064813,
            -0.2419782896187437,
            -0.20697802569778206,
            0.0845290936726181,
            -0.19755582992568338,
            -0.03971089194263094,
            0.19818382510307808,
            -0.3804937048432725,
            0.37852551904440074,
            -0.3749382371115076,
            -0.4107813380470025,
            -0.003763035213496514,
            -0.2991996261672551,
            0.10605898948480234,
            0.12319788765157158,
            0.4453385922853159,
            0.201387813595301,
            0.07459055664470543,
            0.027431751391222354,
            0.17300231343868097,
            -0.21022323762975997,
            0.24631221446058213,
            -0.2162509585140794,
            -0.39932806717070807,
            -0.2125884108790285,
            -0.035897807960234854,
            -0.08535704021785599,
            -0.28320396157617145,
            -0.4626452369188817,
            -0.3163896771656299,
            -0.027597511018488098,
            -0.427264072364633,
            0.47996438001240505,
            -0.027045319254739637,
            0.46167396371449376,
            -0.48160672757755235,
            0.28732592819731256,
            -0.2907773715911312,
            -0.2865031232366724,
            -0.42189928752617717,
            0.08384068177300401,
            -0.4006676699877233,
            0.2530290386651165,
            -0.1652503112798307,
            0.3748559001207353,
            0.01722460512355128,
            -0.3192654644561636,
            -0.07872986241929171,
            -0.4094094594607376,
            0.35668743840972966,
            0.013125976827673068,
            -0.1588394992303599,
            -0.3064390591108182,
            0.45652910297428934,
            0.42610180387654256,
            -0.010894432080770648,
            -0.20775018581453222,
            0.15041508151620595,
            -0.31255651429261655,
            -0.22930253472944065,
            -0.020026514417562605,
            0.2707994561383343,
            -0.26780368485056877,
            -0.015628020129328637,
            -0.0873745943955992,
            0.4161068482675168,
            0.08225117654175543,
            0.05631698508100178,
            -0.2092414051498785,
            -0.07165629335180565,
            -0.2491466619833785
          ],
          "Bias": 0.4276892026950347
        },
        {
          "Weights": [
            -0.23302956014922724,
            0.18949163824749657,
            0.37462693105741235,
            -0.3280791473397605,
            -0.22917983308830775,
            0.22884941795589414,
            -0.07718601870903381,
            -0.15990914310726967,
            -0.23030032187498625,
            -0.1191696861846428,
            0.49288573301420613,
            -0.18405523912747368,
            0.33794494736720354,
            -0.2923087638821378,
            -0.09648905276444227,
            -0.20907072974539767,
            -0.055131573473374385,
            -0.3738634080391872,
            -0.0014637455867887697,
            0.11046139358728775,
            0.14839780792564666,
            0.48506297289863215,
            0.3327057480871915,
            -0.2647579912048625,
            0.3134770732079359,
            -0.40092286040660424,
            0.19862275556698855,
            0.3962276375301998,
            0.42889316575926856,
            0.4770530678049554,
            -0.3465823400433377,
            0.37116227432736754,
            -0.08344575346598244,
            -0.2850226484370814,
            -0.3351312797353142,
            -0.41126811348921405,
            -0.45670053999630894,
            -0.43836303127597936,
            0.150895178254474,
            0.24479446372859512,
            0.3184625757552454,
            0.49118537038580695,
            -0.22480431112965543,
            0.14605828935151205,
            -0.37483846457490283,
            0.21446064376445845,
            0.4674210778363876,
            0.48674620383841855,
            -0.44629621566526945,
            0.2843293141675663,
            0.125335435356,
            0.30596842841333516,
            0.2185365905018958,
            -0.3271297175025234,
            0.16548337746789116,
            0.1820224467955195,
            -0.4404113536169808,
            0.29417851517110183,
            0.36904597649210497,
            0.2867599087690739,
            0.15657733365246965,
            0.15686423666184016,
            -0.11288906119322444,
            -0.2674149734341641,
            0.23179364078390594,
            0.050350530916320385,
            -0.02709272659772873,
            -0.013127927188758895,
            0.42699744835974446,
            0.15490427316968658,
            -0.35985485320746785,
            0.06793022422374687,
            -0.2149659206311987,
            -0.17099297937546115,
            0.271285558429973,
            0.12483266242695464,
            -0.4339746039060034,
            -0.24201053738819517,
            0.13369994787700965,
            0.08283986659325965,
            0.3395276599567119,
            0.3272519631568168,
            0.06273103024168435,
            -0.46071896561386966,
            0.2882485600737739,
            0.29438208102260627,
            -0.393584821963334,
            -0.23754807642902548,
            -0.4399856127004208,
            -0.36736685450468665,
            0.41463820307604704,
            0.30313308220783314,
            0.26817008525110736,
            -0.3834015480126167,
            0.33458880138998115,
            0.47723942319517754,
            0.35076163984349146,
            -0.03915015321920874,
            0.4625179659481039,
            -0.4229055268686607
          ],
          "Bias": -0.0009516013903554827
        },
        {
          "Weights": [
            -0.2962654042904521,
            -0.03705671391743598,
            0.14654559441184345,
            -0.11765186902897211,
            0.10813788950505866,
            0.38481154500029735,
            0.4591105690746087,
            -0.003353468030858591,
            -0.09675256771537243,
            -0.1675905444388578,
            -0.03431276684436266,
            0.2483173974429779,
            -0.43616332442890315,
            -0.038018503187845276,
            0.3995692059206747,
            -0.493182210768589,
            -0.11610876206736395,
            0.22593061986087287,
            -0.08208251517037768,
            0.3977317988043444,
            -0.25471418915497,
            0.28058143982924477,
            0.08306142919454483,
            -0.4153834952673812,
            0.19154035042028056,
            0.1312688782473012,
            -0.3615418881109259,
            -0.34540739239598284,
            0.4512090448863114,
            0.2280747149989697,
            -0.13816494878675323,
            0.46482401513222016,
            -0.25060317733125115,
            0.45916616684181466,
            -0.2644566472205458,
            -0.21616446548661078,
            0.2777820271975705,
            0.3689707651880635,
            0.08496289404848949,
            -0.004886737467630076,
            -0.28928136423142436,
            -0.1314873302609112,
            -0.2032702253330013,
            -0.01571770187423431,
            0.31077386099498255,
            -0.2899748790085359,
            0.0687966844160939,
            -0.10090246591944163,
            -0.24881602905480935,
            -0.08883761462524571,
            -0.09817320680632705,
            -0.1952214282966072,
            0.2938327031352422,
            0.27642370075468703,
            -0.06181587843866519,
            -0.4434521580182417,
            0.17903817099321026,
            0.16862734091397374,
            -0.3346898995161366,
            -0.08910866984015096,
            0.35153703807824255,
            0.2176886606090691,
            0.33461663304509937,
            0.2348132521730274,
            0.2755264798379196,
            0.22206391257515637,
            -0.025342714135632913,
            0.07781417649012207,
            0.005095087376587106,
            0.28005339997618195,
            -0.0127574345622477,
            0.41989867458534225,
            0.3180433665209071,
            -0.30863707018937997,
            -0.08008196453977245,
            0.4691724217680343,
            0.334963375255947,
            -0.33400322151713246,
            -0.17624473354240094,
            -0.3978883760287393,
            -0.48963649628970357,
            -0.25375331719050465,
            0.08245346790328065,
            0.48823167770443643,
            -0.25135151032193265,
            0.19728821153689188,
            0.20020546124502098,
            -0.30864231969050043,
            0.40424021684832884,
            0.3260743316310864,
            -0.33169884139003664,
            0.15016283424722998,
            -0.28068829282599067,
            0.41195645519993285,
            -0.3693081404722779,
            0.04408275441145319,
            0.0341457548553962,
            0.02246311121049093,
            0.48517207676493834,
            -0.12816181900438753
          ],
          "Bias": 0.04131394217384617
        },
        {
          "Weights": [
            0.263914359280185,
            -0.09996434606136642,
            0.4020886730871153,
            0.19902653157847605,
            -0.01060533778430039,
            -0.2119070620457287,
            -0.19658450600455907,
            0.10379177214744809,
            -0.031978174263766194,
            0.020405439681887717,
            0.138764270447727,
            -0.4106088848336102,
            0.20890022598586638,
            -0.4966724634691444,
            -0.22245511849347424,
            -0.27260068251637537,
            -0.21750703689629994,
            0.367252483086796,
            0.14617745780147015,
            -0.13341635891105788,
            0.030656100337384414,
            0.4016739839841044,
            -0.10225829226215676,
            -0.19060505554612625,
            -0.1358084704540909,
            -0.16399093631127268,
            0.3509769225443153,
            -0.19127236627737626,
            -0.22627179607731054,
            -0.42629979822014646,
            0.06280130375295244,
            -0.3471645302008632,
            -0.23379461397809714,
            0.35301405117768775,
            0.27774544428310854,
            -0.30834927787058164,
            0.12104109161945252,
            -0.19189988210177125,
            -0.3855041469808603,
            -0.3508948250003221,
            0.38199307742283334,
            -0.07766810874362311,
            0.07890300604194536,
            -0.2831861278518051,
            0.2860573671302361,
            -0.32296544710158115,
            0.04599220451416956,
            -0.36970600954599553,
            -0.2335756223429261,
            -0.1861777382564072,
            -0.39412922416351415,
            0.21212788191624127,
            0.11555107828904183,
            -0.144022254012093,
            0.27036664742037786,
            0.4952307268549884,
            0.02609902958167369,
            0.22488477234191118,
            -0.02512215782973063,
            0.3168205929066651,
            -0.47853912582028346,
            0.37860826138779957,
            -0.43392125138081694,
            0.47687551532398215,
            -0.14506110326737068,
            0.4857301169147231,
            0.23714817813053338,
            -0.12480220501784417,
            -0.2874181183514149,
            -0.23176809418633004,
            0.027461589008337454,
            0.21994603882698024,
            -0.4571475426858271,
            -0.36468922204850185,
            0.18694888447722421,
            0.13917351153904634,
            0.2077887514737821,
            -0.4565301543223453,
            0.17657773456769066,
            0.3512011735067394,
            0.04148005687164458,
            0.02848276830301501,
            0.3884077507736142,
            -0.25125037554095103,
            -0.2698044731863142,
            -0.23381379514635503,
            -0.05902732987993904,
            -0.1735560016285313,
            0.25507307922593125,
            -0.11711814854209736,
            0.4693999913225576,
            0.4133780916689008,
            0.07072306142816398,
            0.053947020139847354,
            0.4825425790653158,
            -0.4316579043503581,
            0.49061996120378587,
            0.2186030110003099,
            0.2799619806174689,
            -0.22253453771377896
          ],
          "Bias": 0.4688021573442754
        },
        {
          "Weights": [
            0.170293398821284,
            -0.3671258617558741,
            0.03185168245032697,
            0.2628439895067866,
            -0.16762431900130098,
            0.17297949945716068,
            0.4029352081858255,
            -0.4274549909458893,
            0.10469138607398981,
            0.36932386267474526,
            0.21307917422199996,
            0.13714833176351257,
            -0.4272394128269716,
            0.18726294735050056,
            -0.17457587289909804,
            -0.4965744825148545,
            0.11542978770961743,
            -0.19184042362931847,
            -0.2146185468138541,
            -0.37759079386044375,
            -0.0031230763386143555,
            0.047157735925747186,
            0.29091394834816486,
            -0.19217573265920182,
            -0.12903027045222437,
            -0.08419533385517716,
            -0.42873125219707475,
            0.20421584874549148,
            0.4712781630114035,
            0.27517658360863445,
            -0.15437132450050703,
            -0.49821058255148604,
            -0.21535465071021487,
            0.022563793382800727,
            0.05970321554799871,
            0.0960725972385879,
            -0.010414495910129325,
            -0.3543277189209933,
            -0.03970464220264431,
            -0.39731983273097526,
            0.48786635232850484,
            0.3058298076774514,
            -0.2543278988403827,
            0.2865844819258886,
            0.22055939816487774,
            -0.12534365826644012,
            -0.4582206656001741,
            -0.1471846517181333,
            -0.43402671496404693,
            -0.018539991432147844,
            -0.25788010302465647,
            -0.48270431655329177,
            0.018116214453277366,
            0.2600883400348893,
            0.22817388603491326,
            -0.4813652858370791,
            0.3714493073994511,
            -0.04481051976179402,
            -0.20008716897998421,
            0.0595914412311352,
            -0.034388674286504155,
            -0.15618243183767075,
            0.13349301195140054,
            0.29104703289917583,
            0.03155943703955682,
            0.10873280751896362,
            0.18354215574155694,
            0.3210411198755249,
            0.4425013615465729,
            0.12059242129344153,
            0.3511435917811221,
            -0.17970243722166496,
            0.20608962842290593,
            -0.207161798510014,
            0.0013879917789241373,
            -0.34001665876510245,
            -0.11502025396927108,
            0.2090212077112788,
            0.3423712814659341,
            -0.4755394866536181,
            0.4925982627784081,
            0.18346877635037262,
            -0.4565487175498941,
            0.28457067374727546,
            0.3091811252973515,
            0.05570818880544109,
            0.28455914202644383,
            0.1176307441406205,
            -0.20320818543323227,
            0.2273279583194586,
            0.4336960533321361,
            -0.05933406200234967,
            -0.25401511486559125,
            0.033304965351355346,
            -0.08866525167030205,
            -0.3806554456198612,
            -0.11691869351972219,
            -0.18976032277920923,
            -0.13453091980057072,
            0.4327329438460727
          ],
          "Bias": 0.32814359390928305
        },
        {
          "Weights": [
            -0.15215812278989702,
            0.09893594813768258,
            0.32339508167768594,
            -0.09586972400498289,
            0.14911561050766717,
            0.14577452201784918,
            0.32448512961935727,
            -0.3760060427843304,
            0.12590913198892426,
            -0.2113138359191208,
            0.19660265722262948,
            -0.40742487381810544,
            0.2959674846663,
            -0.32383861011930243,
            0.3574722583837105,
            0.09950609786551441,
            -0.06318829805079548,
            -0.33923225530205364,
            0.023213608101971282,
            -0.28129220557074874,
            0.41157115137493483,
            -0.3456450901427474,
            0.11819932452487152,
            0.2629089188748591,
            -0.4846842961680989,
            -0.25942545278762125,
            -0.16515468623578766,
            0.3589442845546449,
            -0.4086661149535015,
            -0.21822343139587225,
            -0.35345623258436387,
            0.28989329982859174,
            -0.14957857297263683,
            0.4347855082997007,
            -0.05739173570055983,
            -0.40088791276115093,
            0.06180926876764604,
            0.19025796739343623,
            -0.39804664453507965,
            0.2759105572057166,
            -0.15797373037428547,
            -0.19544983076896613,
            -0.3815518623613844,
            -0.4983322349310346,
            0.008220306277890218,
            0.3622415904751402,
            -0.2529712227327334,
            0.14377348886867763,
            0.10610380741731323,
            0.3381585073692119,
            0.34456294455575515,
            -0.043579799968345996,
            0.10499202723925434,
            -0.4555268256095418,
            0.18726926453595202,
            0.26310764315431384,
            -0.444383116057631,
            -0.13354404786955704,
            0.2129248915126021,
            0.4647055022513244,
            0.3798443337047134,
            -0.4996928999318093,
            -0.33050642791533885,
            0.054411527708007654,
            0.06792484613460072,
            -0.07268587840747553,
            0.4567102968553659,
            0.30171187229033425,
            -0.18849799301880374,
            0.033749526241543204,
            -0.027098775954743304,
            0.1713352966405671,
            -0.19381587836621803,
            -0.25176199333565974,
            0.046772194262093766,
            -0.22023017284247637,
            0.2047374871362726,
            -0.18810143134932805,
            -0.13257257483025794,
            0.3314509388811024,
            0.22103524326788979,
            -0.35295061717127696,
            -0.08775414840229669,
            -0.04819366514159558,
            0.021265552279191868,
            -0.14270206378109426,
            -0.4583879664756322,
            -0.30383228013924907,
            0.41690063472332084,
            0.43671471821235963,
            0.06209839350560001,
            -0.04055944107007476,
            0.4153756401328746,
            0.27896929177865226,
            0.09435993538045315,
            -0.4919339748136406,
            0.38062825936830685,
            0.05394396381053805,
            -0.3688413730361068,
            -0.14404833853135118
          ],
          "Bias": 0.018767498522263237
        },
        {
          "Weights": [
            -0.4705934831901105,
            0.16930306430509387,
            -0.2873421811081046,
            -0.10120291555300288,
            0.3221366384101645,
            0.28730618235580685,
            -0.23713488845004566,
            0.43471280952723185,
            0.09199684615075235,
            -0.2458468818166381,
            0.45916407924517433,
            -0.19223691703817447,
            0.2857619415394728,
            0.20677842408332126,
            -0.27175838607269537,
            0.24030455945904292,
            0.17559688756891595,
            0.4811895131217398,
            0.0476796182233259,
            0.4316946274957827,
            0.16451404392104,
            0.39493605634736634,
            0.27130905824120366,
            0.4896417504696978,
            -0.32368495374224704,
            -0.34978281658841054,
            0.09189315681234746,
            0.05268041876127891,
            0.003745503379746393,
            -0.40331670161918187,
            -0.1882728636157449,
            -0.3024130635516461,
            -0.3374584706760676,
            -0.3565084289548639,
            -0.23556799175311371,
            -0.21505572450961394,
            0.24441932679275247,
            0.17937076150481665,
            -0.27290986519469973,
            0.27208930416683796,
            -0.3000750874195469,
            0.4702312811468642,
            0.2826422392565552,
            -0.3498546215385961,
            0.35350525809599226,
            -0.01413956380057773,
            0.07442862857044036,
            0.3504844784727161,
            0.23095884078040435,
            0.4603980119879685,
            -0.2510379836803902,
            0.1573941364701028,
            0.17666629768742764,
            -0.26364022756263483,
            -0.34335071894229086,
            0.3624559692529964,
            -0.17291437829079667,
            -0.06988787085894818,
            0.21302920427086758,
            -0.37597316226180055,
            0.34213689135338465,
            0.06872517011675812,
            -0.37718691413319055,
            0.34132030602777125,
            -0.3783809503804832,
            -0.11252880600929555,
            0.36612062154881886,
            0.42498097878693375,
            -0.3507366534794976,
            0.38899856928564824,
            -0.2930383186959762,
            0.3657824576527404,
            0.10365554215418117,
            -0.16347348759689734,
            0.2701649636802696,
            0.34347539771580365,
            -0.13861057348301828,
            0.138704363420488,
            0.024781958212010985,
            0.2302326049800526,
            -0.24703062380657054,
            0.2358160179187184,
            -0.2725490861478498,
            -0.49541521143720557,
            0.20661847524055585,
            -0.2542413804235164,
            0.48208905919012446,
            -0.3812571373457108,
            -0.46514857048688885,
            0.26947098536370884,
            0.017924675038548294,
            0.4915065365178257,
            0.4387079040889433,
            0.0021905372688394236,
            0.45535322980616705,
            0.23112445524825206,
            0.10729596014066586,
            -0.2811993095706485,
            -0.20891347429556115,
            -0.3659922830340468
          ],
          "Bias": -0.48418203730079723
        },
        {
          "Weights": [
            0.3758433476119561,
            -0.43453216867245514,
            -0.22469555336787125,
            0.07769937361374718,
            -0.3006736028426082,
            0.49864484510137314,
            -0.28863429516136946,
            -0.46533399171819784,
            -0.3716278116182895,
            -0.3305463987554036,
            -0.2798233236052183,
            -0.23000421931141737,
            -0.3946149357392045,
            0.38762161575774334,
            0.06293249508266953,
            0.4388076436909137,
            0.15996694883510734,
            0.3977558985632075,
            0.09273332759164671,
            0.12368576334309474,
            0.1933405058949753,
            -0.3729287885243565,
            0.46182932544045635,
            -0.17378430748634613,
            -0.201709921376891,
            0.45716511412358546,
            -0.10232932873934568,
            -0.36865607204913153,
            0.03643608949773907,
            -0.31767129681286327,
            0.12701526859416024,
            0.12534284125790737,
            0.058235323433383536,
            0.1073086947613464,
            0.05762853718838957,
            0.0711459113037436,
            -0.4509463637849262,
            0.10275571253881689,
            -0.27756576504645714,
            -0.23645870833548888,
            -0.40404259095198747,
            -0.40782933553210726,
            -0.46971268029073165,
            0.08973005835833142,
            0.15318787751626295,
            -0.30930788647542423,
            0.052977415646060656,
            0.340517208852555,
            0.22055637716499493,
            0.29560184543438367,
            -0.44102927544183906,
            -0.3886166345832276,
            -0.18024651256940352,
            -0.2942225784608886,
            -0.21276142211822227,
            -0.2913270430643939,
            0.49035015812707583,
            0.3958349259871812,
            -0.39389845721361505,
            0.39152027286587476,
            0.3283028283698927,
            -0.4410163298943968,
            0.41732103961656686,
            -0.25275100809021944,
            0.34444148567255356,
            0.15865437286041756,
            -0.06563492337643234,
            -0.0754790692275643,
            -0.49861484802836703,
            -0.13920140524574284,
            0.46772766309675173,
            -0.32283235375549874,
            -0.4028301896134867,
            0.17748897274076064,
            0.0847621722110004,
            -0.4984823931019194,
            -0.2838921655550493,
            -0.4622421061298849,
            -0.04749901970011947,
            0.39342607705163135,
            -0.06414618010072497,
            0.457891862173372,
            0.3848285842723929,
            0.19306521368070204,
            0.26642958889152457,
            -0.4780155652803081,
            -0.38763169120147,
            -0.16244682310032052,
            0.022447833391676515,
            -0.25348418189828026,
            -0.047402004488586516,
            0.38033500184487246,
            -0.4701389731521353,
            -0.1069225334373701,
            -0.05236128054255596,
            -0.12860928962645457,
            0.43943025268202884,
            0.4198579842800902,
            -0.3997921497595108,
            0.3561848912985541
          ],
          "Bias": -0.10139371437779114
        },
        {
          "Weights": [
            0.2562815541189968,
            0.18383406289212254,
            0.11517164772950501,
            0.23088737449743496,
            0.41123092549952683,
            0.015451471760430203,
            0.16796885482052948,
            0.15202573023056626,
            0.1750994492164777,
            -0.002663613101931313,
            -0.2769125569392247,
            0.16054919762986483,
            -0.33111721126424826,
            0.24629999109675793,
            0.4393780775004584,
            -0.24833169250032475,
            0.2667280349157431,
            0.10846030198593716,
            0.04076259779956523,
            0.48842740673048934,
            0.06613061610862668,
            -0.2901638860111628,
            -0.4863793871546647,
            0.2050402082061489,
            0.36903109151716473,
            -0.33456347842984213,
            -0.09436272181722284,
            0.3320805091257756,
            0.035897533077824235,
            -0.22035563322515153,
            0.3686962889894544,
            -0.3745888605265268,
            -0.26389554594608017,
            -0.3753407684109671,
            -0.332268498332778,
            -0.2156902400872036,
            0.10396727311987287,
            -0.17859166962594056,
            0.03219374828858101,
            -0.16978448400075563,
            0.27902535376060583,
            -0.12569782144278457,
            0.28752903077825176,
            0.10274647236813572,
            0.27460196672270537,
            -0.002219904261686336,
            -0.01427921249780201,
            -0.13916299794573045,
            0.1538194697159457,
            0.23747484749188597,
            0.2818113178079613,
            -0.31097817817656254,
            0.32210234881823036,
            0.19859178411925366,
            0.24161249642845078,
            -0.08291114291043501,
            -0.4407926058509659,
            -0.07806761426280628,
            -0.13373761296101808,
            -0.4858519371169644,
            -0.33699253402654983,
            -0.09991557376897321,
            0.43384151068596355,
            0.016461069936523496,
            -0.05320023157851063,
            -0.4269129026014756,
            -0.07455500883174654,
            -0.35948580915220246,
            -0.4574507325206053,
            0.3215129540640362,
            0.4319210271579695,
            -0.15534289305987886,
            0.3576428245884427,
            -0.15334655755269352,
            -0.1122935676249304,
            0.049567861977293445,
            0.41651039504357645,
            0.4136149340001706,
            -0.37289543542588705,
            0.1583630086193964,
            0.469989464503892,
            0.13857739203597744,
            0.1614851858521183,
            0.3448769806865689,
            -0.21903301248881163,
            0.20536695110095246,
            0.474557848414653,
            0.22153226148088961,
            0.473574133080084,
            -0.2992133287514233,
            -0.4939740956353542,
            0.4902490757800251,
            0.03435931582964396,
            0.12031840744853282,
            -0.2007031140275025,
            0.36899116429509365,
            -0.2386660702296948,
            0.46820590651898253,
            -0.11646840976000554,
            -0.14604851213596212
          ],
          "Bias": 0.13849810861021863
        },
        {
          "Weights": [
            0.4160920587290549,
            0.23643909997178691,
            -0.05130502764068673,
            -0.09456950386807877,
            0.18122309581232368,
            0.35675543531749304,
            -0.314551162091751,
            -0.09283728829741358,
            0.2847509429847837,
            0.18657169804885385,
            -0.4179827331728077,
            -0.23634799515791527,
            0.3045302799145963,
            0.43128483123280875,
            0.015027061702676385,
            -0.0997221703361882,
            0.4548137711339975,
            0.07766521929955368,
            0.3663102472796927,
            0.43071525164484376,
            0.09279498119180615,
            -0.19831293436435357,
            -0.445989758877971,
            -0.23711908206431534,
            0.2826213010438889,
            0.24697436170738832,
            -0.14096848916320395,
            -0.13979123504395266,
            0.03069549323204577,
            -0.12045861928108512,
            -0.4816899703487916,
            0.19262458492485315,
            -0.26456083698688815,
            0.022165645614869556,
            0.07892208069337103,
            0.1478645061039895,
            0.4298959378161321,
            0.3658432086107491,
            0.13952636873838944,
            -0.2939330481482065,
            0.236569349203898,
            0.26220634121100217,
            0.10567707864396854,
            -0.05069273764816047,
            -0.34261331690441643,
            -0.05250465536154485,
            -0.29483588196201904,
            -0.03527497324401356,
            0.4363278797641863,
            0.3662936203558629,
            -0.49273177105844634,
            -0.11843542842301413,
            -0.07338853710981763,
            0.1808233405015052,
            -0.1810821921411537,
            0.28040528686873517,
            0.3423945404879746,
            -0.10656253822199688,
            0.21657137964330514,
            0.16449739702674965,
            -0.26826274898273145,
            0.07818803135325877,
            -0.4283086433033723,
            0.06725517486085585,
            0.07755409092935756,
            -0.0442974637520024,
            0.1645787369152014,
            -0.3181420127833915,
            -0.21924837426169932,
            -0.39089332733535076,
            0.04680519778338896,
            -0.31029938071026375,
            -0.11036553269003353,
            0.13057361754918478,
            -0.1786093269671227,
            0.11651030073875043,
            0.2821830188681836,
            0.4578481531655107,
            0.25748218496440595,
            -0.4857579361806162,
            -0.25888733951048487,
            -0.25055513039074884,
            -0.12531063361911896,
            -0.2485871699535364,
            -0.3909275735047049,
            0.08681535375348856,
            -0.3838051979428954,
            0.4876557244325947,
            -0.3698360651506401,
            -0.13432699833868986,
            -0.43443450505712533,
            -0.35795923358402687,
            -0.2949717227711279,
            -0.38023456940783257,
            -0.04399401315540699,
            -0.49240808536670516,
            0.032945233197920795,
            0.3209749824025975,
            -0.15409084782369342,
            -0.40522457075525475
          ],
          "Bias": 0.2186123732996332
        },
        {
          "Weights": [
            -0.0936118848873818,
            0.028046655245787117,
            -0.4160691905910058,
            0.4478802481018329,
            -0.09426136625415549,
            -0.3187631582594337,
            0.36180075316321014,
            0.32751567880008525,
            0.41457440776374244,
            0.04226556798424801,
            0.22446418702124463,
            0.016817937896508973,
            -0.4690733589979516,
            0.23200627646252467,
            -0.251948988236002,
            0.20046055220141146,
            -0.001194221630281089,
            0.17307229384252637,
            -0.44499160608196836,
            -0.40462970602240195,
            -0.18390920702308505,
            -0.34710306529321944,
            0.12153793340603747,
            0.15834303803044067,
            -0.2578689929307313,
            0.06772886364729222,
            -0.05366291948298622,
            -0.11967738454338829,
            -0.43570646267876023,
            0.09735086179748072,
            0.109074855373154,
            -0.3494898466272004,
            -0.39931182430374,
            0.010969586943409146,
            0.012176794143540583,
            -0.05995377195674215,
            0.3733664391098292,
            0.043272531012133277,
            -0.3958684387760721,
            -0.10273892843599396,
            -0.35107083318203525,
            0.20832635240472214,
            -0.03875624160184307,
            0.3206415353734341,
            0.4658376592835661,
            0.39456957339459064,
            -0.18995827121972853,
            0.45359052555877144,
            0.22849250293863038,
            0.06900516835927184,
            -0.18037937215815497,
            0.3652198221322431,
            0.48837852763494943,
            0.09247799552016929,
            -0.3039839337814001,
            0.40836235828472084,
            0.12557951769236864,
            -0.0473516876292083,
            0.43331909503872384,
            -0.0667774534396712,
            0.33266935727063923,
            0.47800132698222886,
            0.4061319770347439,
            0.03761071923781152,
            -0.18557855814158122,
            0.4510689348277029,
            -0.27757453349141387,
            0.19417447705213403,
            0.03599931548947673,
            -0.08701048961604956,
            0.22771485160683538,
            0.1937891807489763,
            -0.4829859801325183,
            0.4842853204764478,
            0.0004460187170378867,
            -0.17212319258075223,
            0.2234837053522551,
            0.2243997994431605,
            -0.4900049480816933,
            -0.10302525091223891,
            -0.24496073653532968,
            0.08094670621509477,
            -0.06248282762032789,
            -0.13601435980930238,
            -0.43129028474944875,
            0.4568030293690867,
            0.16352744800677832,
            -0.36394140730344726,
            -0.357435292688176,
            0.224872005794949,
            0.43275710717315874,
            -0.35918001984612485,
            -0.20808456328104186,
            -0.2880886322882742,
            0.0007886057943524313,
            0.4880112758621931,
            0.32838043861723804,
            0.3463280286288502,
            0.14325753838903243,
            -0.20174616076263513
          ],
          "Bias": -0.1374988693960276
        },
        {
          "Weights": [
            -0.2352085265241649,
            -0.455416084587251,
            0.296214446677628,
            -0.4027363433093653,
            -0.27581255625307344,
            -0.459763825984156,
            -0.21369598592520542,
            0.28187249224975436,
            -0.05244011600148147,
            -0.22074816624793459,
            0.47458233277379647,
            -0.47979483166178316,
            0.27468333362264863,
            -0.3234949090393742,
            0.41168357235599595,
            -0.4970529346475057,
            0.27471038985521895,
            0.4504735346802328,
            -0.45977455269210216,
            -0.4844602422715449,
            -0.0607177187790231,
            0.3223703094284625,
            -0.14240073848698298,
            0.3983542826419889,
            -0.36931243554898674,
            0.4807956490006038,
            -0.2417379539077189,
            0.2581368972757957,
            -0.14302761219936072,
            -0.391451933601331,
            0.028682621722823997,
            -0.16357341139236073,
            0.4690175341566197,
            0.4980260081184339,
            -0.24982256954829452,
            0.30803216742362305,
            -0.2681844959465043,
            0.14431668512696375,
            0.3194926066477261,
            0.29346100007158604,
            -0.2742368618635056,
            0.0004859133966379595,
            -0.044622672949032105,
            -0.039933324163604456,
            0.3297583815770584,
            -0.08153526085795194,
            -0.4642999282039705,
            -0.3916048652042824,
            -0.23432899273559699,
            -0.11327042831132278,
            0.3497949408790954,
            -0.2136310545022652,
            0.4587446030240169,
            -0.20559107878575703,
            0.03176462971872244,
            0.49620095023706157,
            -0.17334016282069808,
            0.23987970365956987,
            0.06556982437921192,
            -0.17406255341397098,
            0.46470698103174285,
            -0.3729844866568666,
            -0.3950171010684962,
            0.19648669105803604,
            0.08618763268301426,
            -0.24258972639260495,
            -0.4334079470728143,
            0.23855802216269084,
            -0.004868743458297073,
            -0.25838165526149454,
            0.4908742967637417,
            0.4156384814604579,
            -0.45104824599566007,
            0.28948701134093857,
            -0.2843606802912594,
            0.39851847327975165,
            0.12976833968769774,
            -0.4772673374475473,
            0.14452129650023524,
            -0.23340750706410943,
            0.46663899624888516,
            -0.3297927266967426,
            -0.002976746476101999,
            -0.42220551475160545,
            0.49771337988442416,
            -0.3044642537612209,
            0.27198895997545136,
            -0.3791646696910263,
            0.44712315705713007,
            0.09000131194031423,
            0.20549905952959718,
            -0.32065611410923295,
            -0.10820810832915381,
            0.04258079888858157,
            -0.48782796687989005,
            -0.16046229008414348,
            0.4211971705238855,
            -0.4483184546222387,
            -0.10918883000084659,
            -0.10187624177425078
          ],
          "Bias": -0.11012904470642275
        },
        {
          "Weights": [
            0.3828938520175164,
            -0.3267334843340238,
            0.0999596225681702,
            0.20970686889461412,
            0.22284877287421306,
            -0.026896501864087777,
            -0.39483036257587856,
            -0.4280769788747214,
            -0.36626446832921106,
            -0.17737763110473564,
            0.026558400794620695,
            -0.10759781782473508,
            0.3429572073650689,
            -0.40994577704060486,
            0.321239893880108,
            0.08543207162198842,
            -0.1253690193814733,
            0.49300152141657155,
            0.29846307765767577,
            0.38761710830474033,
            0.3373411868027884,
            0.11915571472370297,
            -0.2246229798826044,
            -0.3307365885023696,
            -0.18827906497752372,
            0.03579565937277094,
            -0.3862488364792475,
            -0.1259430651533928,
            -0.02032395358923961,
            -0.13872339814162934,
            -0.017449911226484198,
            -0.05441418663734595,
            0.3731932637961863,
            -0.2932260232168833,
            -0.2549028957785504,
            0.05002021782285302,
            0.3217877577551052,
            0.017205882983036044,
            0.042317244504707516,
            0.44528446513436726,
            0.4965397679629755,
            0.03588748638444298,
            -0.0008195142217308135,
            0.39979014645510097,
            0.2925816002431854,
            0.0931441434669673,
            0.25945170189470335,
            0.24346611844838817,
            -0.03802452077079234,
            0.4613115264346891,
            -0.33109581195649135,
            -0.4773101427156181,
            0.328686543909461,
            -0.39376970663635824,
            -0.0226435700829251,
            0.2233181568097163,
            0.09972653099423545,
            0.4635272915861054,
            0.3436687911301335,
            -0.23831850328020968,
            -0.08167928339774817,
            0.3870570964110885,
            -0.06763844654205106,
            -0.3397013858795935,
            0.34150785896919106,
            0.0688927314573515,
            -0.11922668639240344,
            -0.3209565230944979,
            0.27114979112484044,
            -0.4203284045004737,
            0.05726303582404639,
            -0.3513016181599146,
            -0.15970029139828718,
            0.12513674259383611,
            -0.02951608775271736,
            -0.4126111753975321,
            0.2918085057210691,
            0.029764755455835908,
            -0.22324758512947,
            0.23975883965481956,
            0.13757885150386293,
            0.08279430475029685,
            -0.06187790473714707,
            0.4227645479182958,
            0.47588554662713495,
            0.01687581103824073,
            -0.2699617481922868,
            -0.042425064603049206,
            0.18271928802378293,
            -0.13121918411605488,
            0.1780780816127151,
            0.49356067931165987,
            -0.20679428438538464,
            0.391574411131898,
            -0.44512167396692376,
            0.4004502430552717,
            0.1151550847993704,
            -0.22249903798273934,
            -0.272641528489225,
            0.4097148439776471
          ],
          "Bias": -0.12733917886194712
        },
        {
          "Weights": [
            -0.16719932305403856,
            0.28236404717024044,
            0.04479317921668162,
            0.1583312823254396,
            0.025063091275270014,
            -0.28804425380222215,
            0.36672245874246717,
            0.4786274180919849,
            0.3827957860730469,
            0.0853156107027016,
            -0.4269357436432729,
            -0.14338128936580685,
            0.21610370776358379,
            -0.3074773008872422,
            -0.1601742286456791,
            -0.3142682905334335,
            -0.47925807924587777,
            -0.00569466389994593,
            0.3840476510959418,
            0.3342355743542409,
            0.0748044737184975,
            0.12615673344944794,
            -0.1660048863026076,
            -0.4518991478915607,
            0.4084803943528414,
            0.020484141366335744,
            0.09246297374855941,
            -0.3369209257498908,
            0.24992419722318357,
            -0.43775595022684965,
            -0.30641839988277214,
            -0.18223014270625876,
            0.2865816507951176,
            0.3741447348006231,
            0.08041513362331036,
            0.04829382960583931,
            0.2718064133503621,
            0.4852457183102256,
            0.21082558740575832,
            0.43317269566640826,
            -0.32087552308567613,
            -0.40362941276500636,
            -0.32793783982455965,
            0.10214278219359868,
            -0.003023596323117205,
            0.4178875082398889,
            0.016917560659655658,
            0.17487318084159786,
            0.30099885593678344,
            -0.19097499643920593,
            0.2312504709111711,
            0.13326869866137037,
            0.3714784498034934,
            -0.4285893690830323,
            0.26175933178662397,
            0.3042616959802531,
            -0.4151365607707832,
            -0.3021945316153205,
            0.4787430163556205,
            -0.10156677893184711,
            -0.33334624524890294,
            -0.22362154313678562,
            -0.3860752797445885,
