{
  "Layers": [
    {
      "Neurons": [
        {
          "Weights": [
            2.195102542156973,
            1.6343070033792622,
            -2.5046522950666037
          ],
          "Bias": -0.9425577305175339
        },
        {
          "Weights": [
            -0.21516008414041568,
            0.4692264559546421,
            -1.9778747800835723
          ],
          "Bias": 0.5909172077911152
        },
        {
          "Weights": [
            -0.2216785175316491,
            -1.4574849121026798,
            -0.3142002608346616
          ],
          "Bias": 1.4940709537018166
        },
        {
          "Weights": [
            1.6805742320015251,
            0.7907052574818969,
            1.5658382728656477
          ],
          "Bias": 0.11486239258134387
        },
        {
          "Weights": [
            -0.8791757825692861,
            1.8067106430529571,
            0.6980689405413514
          ],
          "Bias": -0.36247237816991745
        },
        {
          "Weights": [
            1.2865953077117516,
            -0.9248779793256042,
            -1.070001890531513
          ],
          "Bias": 0.2835595473020333
        },
        {
          "Weights": [
            -2.1376711697315214,
            1.2123726181666568,
            -1.078486114552171
          ],
          "Bias": 0.7653562824977391
        },
        {
          "Weights": [
            -0.8481699257457845,
            1.8990791043381616,
            0.2738865499545816
          ],
          "Bias": -0.6266495921269215
        },
        {
          "Weights": [
            1.9257084896720071,
            0.4911941172787053,
            -0.608488467641878
          ],
          "Bias": -1.096714452657544
        },
        {
          "Weights": [
            -0.3206912379847971,
            1.7786554742271645,
            -1.3151818363748853
          ],
          "Bias": -0.4691933272382567
        }
      ]
    },
    {
      "Neurons": [
        {
          "Weights": [
            1.9920891910983363,
            0.1440969048662508,
            -0.3136974171514219,
            0.9574146802199188,
            -0.15746662790522478,
            0.8255911281728806,
            -1.1638943203374201,
            -0.19545387114663254,
            1.2942541779992414,
            0.6405891559468285
          ],
          "Bias": -0.524357704803068
        },
        {
          "Weights": [
            -0.20083179497514517,
            0.8661008806455454,
            -0.5007978862012653,
            -1.5863699988624804,
            0.4288404660635709,
            -0.7279220081672532,
            1.982703314786976,
            0.9577423223016056,
            -1.5110839979477202,
            0.8337740226731438
          ],
          "Bias": -0.8734414964464764
        },
        {
          "Weights": [
            1.6497790167694653,
            1.1960425466761246,
            0.6244317718347849,
            -1.6336506526754024,
            -1.6966895817502243,
            0.4308559181958297,
            0.6060233634554741,
            -1.1715439455136882,
            0.04210804061668922,
            -0.7662755010505441
          ],
          "Bias": -1.0317807492983422
        },
        {
          "Weights": [
            0.18241427309972083,
            0.3915503336944818,
            -0.25837898538914367,
            0.8511355134102855,
            -0.418583261286707,
            0.16262059084202674,
            -0.6872841388387826,
            -0.5514092989936425,
            0.3980108953816772,
            -0.43723123451674906
          ],
          "Bias": 0.5519578802580377
        },
        {
          "Weights": [
            1.6999644380075767,
            1.3362063691119634,
            0.969392634148517,
            -0.6567043921366259,
            -1.10490189068067,
            0.676370293599803,
            1.4354402005813864,
            -0.1683481814636908,
            -0.5776928715245533,
            1.015652607122843
          ],
          "Bias": -0.04315308171817674
        },
        {
          "Weights": [
            0.8161718601634455,
            0.22381244794949282,
            -1.299664748027359,
            0.16238796356873025,
            0.6621858658251878,
            -0.7457361188853897,
            0.22371012712055963,
            0.6483855617846779,
            0.41250591390711266,
            0.5445645952761121
          ],
          "Bias": -0.8531250104885454
        },
        {
          "Weights": [
            -0.5665317964808991,
            -0.29439781356133926,
            -1.7911899938221962,
            0.053942006942982935,
            1.392093470227686,
            -1.3715047950056345,
            0.3626255719140534,
            1.19029353108906,
            0.6524496970815644,
            1.3007804825212845
          ],
          "Bias": -0.7950475132216194
        },
        {
          "Weights": [
            -2.1109377221653443,
            -0.10947649419842843,
            0.4790018432890381,
            -0.5437179878622763,
            -0.35874810904539023,
            -0.04380860341080352,
            0.6307166645484507,
            0.012627037026502119,
            -1.0981313071506738,
            -0.6897227284166144
          ],
          "Bias": 1.117164304696354
        },
        {
          "Weights": [
            0.666175725172309,
            -1.3798673976728353,
            -1.9850926106349789,
            0.9070749784161284,
            0.057083293059225625,
            -0.1580231819872717,
            -2.1452356200999034,
            0.17671092037771058,
            1.3579695889083125,
            -0.06479551448646635
          ],
          "Bias": -1.0454129948406028
        },
        {
          "Weights": [
            -1.9612297102803422,
            -1.2712198714815128,
            0.47075541445859054,
            1.4368100539252597,
            1.206394288864722,
            -0.7880729636227561,
            0.11716918769846596,
            0.7620881566530864,
            0.19444548564303135,
            -0.5198583269878907
          ],
          "Bias": 1.015633803957301
        }
      ]
    },
    {
      "Neurons": [
        {
          "Weights": [
            0.30073748979984427,
            -0.19603092899196067,
            0.22421075320085648,
            0.6388690994694393,
            0.06325221977085789,
            0.5309817678834254,
            0.2788578120541306,
            -0.23955265455524144,
            -0.09457729191733436,
            0.3283766791431851
          ],
          "Bias": 0.6326947922032757
        },
        {
          "Weights": [
            1.3195242390448965,
            -1.967470824891615,
            0.3311584154311651,
            0.6304387037727797,
            -0.11915506737351664,
            -0.14108708045742735,
            -1.1532143320700725,
            -0.2714279307196947,
            1.3397044823046746,
            -0.3339610049676051
          ],
          "Bias": 0.2155128373798899
        },
        {
          "Weights": [
            -0.9656494969180907,
            0.5311775153376506,
            1.8137415259451253,
            -0.5088735244661591,
            1.3576427995012623,
            -1.7150023884449699,
            -2.7300543495924234,
            1.1418054368804378,
            -1.3579773013615097,
            -1.1170321765288593
          ],
          "Bias": -0.3537519960216909
        },
        {
          "Weights": [
            0.14201839797737445,
            -1.2140123853682587,
            0.46677852911232454,
            0.7375320365274793,
            -0.3517105130744373,
            0.07166175590186594,
            -1.1214151053935435,
            -0.42343539440304434,
            0.18564636313354108,
            -0.47008662266657997
          ],
          "Bias": 0.5566854753306938
        },
        {
          "Weights": [
            0.3730960166449442,
            0.14404226896100514,
            -1.1755044993256185,
            -0.51319777971053,
            -1.2910929914957854,
            1.03226342922231,
            1.532354085626788,
            -0.8473035145076563,
            0.6308143544706895,
            0.14536228997651449
          ],
          "Bias": -0.5573066701941964
        },
        {
          "Weights": [
            -0.06551551046499825,
            0.10691065963033117,
            0.659275831334482,
            0.2035767447615642,
            1.0603214839110449,
            -0.21200793952539979,
            -0.7807562906975785,
            0.5014953127946097,
            -0.7482765976891298,
            -0.3501362324252363
          ],
          "Bias": 0.2646270628919026
        },
        {
          "Weights": [
            0.7742860884002281,
            0.5874537628798973,
            2.775976661540816,
            -0.09208478470956911,
            2.563811086778618,
            1.088909746813514,
            -0.7119588808024669,
            -1.576143137268094,
            -1.6961227757412858,
            -2.036662676592859
          ],
          "Bias": -0.283852667722801
        },
        {
          "Weights": [
            0.8450470997332636,
            -2.6199317673964813,
            -0.32830738685205874,
            1.1077754336328687,
            -1.2068020859508535,
            -0.2081864814167142,
            -0.5625714367070213,
            -0.1868179537363554,
            1.9244634172259527,
            0.23414433260865714
          ],
          "Bias": 0.7631739753033369
        },
        {
          "Weights": [
            -1.8960727267052,
            0.02970543454115959,
            -0.5535447977285477,
            0.3839383528293364,
            -0.01078868221224548,
            -0.8867057147112783,
            -1.188347378280537,
            2.469764637625968,
            -1.6568493338227388,
            2.3418408545175913
          ],
          "Bias": 0.5706463722809307
        },
        {
          "Weights": [
            -0.4435624923638797,
            0.2830398248932865,
            -1.9193516543759115,
            0.15295357831421907,
            -0.9302744730936882,
            1.2155717777772845,
            2.2879490304015793,
            0.9630601705844458,
            -0.034236710109477424,
            2.306689584091549
          ],
          "Bias": 0.7919653350537795
        }
      ]
    },
    {
      "Neurons": [
        {
          "Weights": [
            0.4146773218141254,
            3.1663016318123605,
            -1.935412171657665,
            1.4661161212404508,
            0.5046951286515746,
            -0.42965371483022186,
            -0.30495748044194015,
            3.1294550157473453,
            -3.3266262505324278,
            -2.5112363898527987
          ],
          "Bias": 0.21939065705084052
        },
        {
          "Weights": [
            0.3222080058650737,
            -0.9810648267657331,
            -4.428786075648039,
            -1.0820783700680825,
            3.536271874022409,
            -0.8055208232882493,
            0.25033517208387407,
            -0.4526623205060913,
            -3.2733716946369538,
            2.651105766433319
          ],
          "Bias": 0.38891588287935996
        },
        {
          "Weights": [
            -0.17817531963442085,
            0.3665922984069655,
            -1.9131204993190887,
            0.19850636885817777,
            1.0346726617316375,
            -1.3205460220386867,
            -6.212329769275587,
            2.8869177854456045,
            0.7709254756746596,
            1.854756577338406
          ],
          "Bias": 0.2511569601685912
        }
      ]
    }
  ],
  "NeuronType": "MlNetworkTraining.TrainingNeuron",
  "LayerType": "MlNetworkTraining.TrainingLayer"
}